%YAML:1.0
my_svm: !!opencv-ml-svm
   svm_type: C_SVC
   kernel: { type:RBF, gamma:8.9999999999999997e-002 }
   C: 100.
   term_criteria: { epsilon:2.2204460492503131e-016, iterations:3000 }
   var_all: 108
   var_count: 108
   class_count: 10
   class_labels: !!opencv-matrix
      rows: 1
      cols: 10
      dt: i
      data: [ 0, 1, 2, 3, 4, 5, 6, 7, 8, 9 ]
   sv_total: 203
   support_vectors:
      - [ 7.70989507e-002, 1.95388645e-001, 2.27313176e-001,
          2.20688298e-001, 1.74189150e-001, 9.33878645e-002,
          3.79877202e-002, 2.00269297e-002, 3.64505015e-002,
          3.74352664e-001, 1.97303981e-001, 7.33240247e-002,
          4.89739925e-002, 3.55267115e-002, 3.72366868e-002,
          2.90563293e-002, 3.56443413e-002, 1.33828402e-001,
          7.23762736e-002, 5.31924963e-002, 5.83495535e-002,
          9.88220349e-002, 2.45042264e-001, 2.73130268e-001,
          2.74285316e-001, 1.51597455e-001, 1.34940997e-001,
          3.74352664e-001, 9.72872823e-002, 3.82956639e-002,
          2.05368474e-002, 4.72672582e-002, 7.66812637e-002,
          1.00767225e-001, 1.33426458e-001, 3.74352664e-001,
          3.77225637e-001, 5.27254753e-002, 1.02830362e-002, 0.,
          3.32575082e-003, 0., 2.49953778e-003, 2.45175399e-002,
          1.93526447e-001, 3.77225637e-001, 7.51394182e-002,
          1.29779447e-002, 0., 6.59721810e-003, 0., 4.12032800e-003,
          2.40985490e-002, 3.02306324e-001, 3.55548084e-001,
          6.38732761e-002, 8.21458362e-003, 0., 6.05688104e-003, 0.,
          3.74930701e-003, 4.79810983e-002, 3.77225637e-001,
          3.77225637e-001, 1.03851937e-001, 8.65196250e-003, 0.,
          6.96513848e-003, 0., 3.80832679e-003, 4.57843505e-002,
          3.77225637e-001, 3.48335505e-001, 6.18018508e-002,
          1.77749572e-003, 7.73334922e-003, 1.20733129e-002,
          7.38606416e-003, 8.20405781e-003, 5.30873351e-002,
          2.47020245e-001, 1.65785864e-001, 8.94897506e-002,
          6.74047545e-002, 1.08178176e-001, 2.45714560e-001,
          2.32180044e-001, 1.22851215e-001, 1.57460436e-001,
          2.49499649e-001, 3.67469728e-001, 1.66690022e-001,
          1.18499727e-003, 5.15556475e-003, 1.10617010e-002,
          4.92404168e-003, 5.56276785e-003, 2.31736116e-002,
          2.12787762e-001, 2.77589589e-001, 3.67469728e-001,
          1.60539985e-001, 1.13491431e-001, 1.83270812e-001,
          1.54012322e-001, 2.32093297e-002, 3.61197479e-002,
          1.41808584e-001 ]
      - [ 3.32692862e-002, 1.55826002e-001, 2.89692461e-001,
          1.96252838e-001, 2.02046514e-001, 3.87144871e-002,
          2.71727033e-002, 9.62503068e-003, 1.27369398e-003,
          2.88883895e-001, 2.18499705e-001, 1.58280507e-001,
          6.36051074e-002, 9.70064998e-002, 1.49212936e-002,
          3.06617953e-002, 2.82430425e-002, 1.18190371e-001,
          1.65278669e-002, 2.25758012e-002, 6.01412319e-002,
          1.20932207e-001, 3.36416483e-001, 2.18901008e-001,
          2.67268211e-001, 1.01068243e-001, 4.36576828e-002,
          3.25446129e-001, 5.88258691e-002, 6.69870898e-002,
          5.63661717e-002, 1.46749496e-001, 3.93639021e-002,
          1.70696989e-001, 2.01285228e-001, 3.82253855e-001,
          3.53986651e-001, 4.63703834e-002, 1.86626036e-002,
          6.88195648e-003, 1.71110537e-002, 5.43839764e-004,
          4.69820574e-003, 6.86691003e-003, 1.91373006e-001,
          3.93970221e-001, 4.01199469e-003, 4.83357999e-003, 0.,
          1.03683034e-002, 2.17535812e-003, 7.83041865e-003,
          2.24540196e-003, 2.48603851e-001, 3.80849749e-001,
          1.50610069e-002, 1.18370261e-002, 9.83361434e-003,
          2.92369686e-002, 0., 1.25926854e-002, 3.58083360e-002,
          3.93970221e-001, 3.93970221e-001, 2.58551142e-003,
          7.25036999e-003, 0., 2.09486280e-002, 0., 6.19266648e-003,
          3.38506256e-003, 3.93970221e-001, 3.83506507e-001,
          1.16129024e-002, 5.91675052e-003, 8.70438758e-003,
          4.38666856e-003, 7.35768292e-004, 2.29416471e-002,
          3.30528803e-002, 2.52405167e-001, 1.65217638e-001,
          3.09012439e-002, 4.00093794e-002, 1.02153450e-001,
          1.55825481e-001, 1.06827624e-001, 1.60705805e-001,
          1.67046577e-001, 2.27878109e-001, 3.83506507e-001,
          5.31083718e-002, 1.43286800e-002, 1.21345147e-002,
          1.03410855e-002, 0., 2.17834637e-002, 1.08604115e-002,
          3.55458260e-001, 3.82346243e-001, 2.07113266e-001,
          1.80373117e-001, 1.74638167e-001, 1.84362262e-001,
          7.66124576e-002, 6.42093271e-002, 4.45170067e-002,
          1.62716523e-001 ]
      - [ 8.10405314e-002, 1.94198638e-001, 3.20233434e-001,
          1.36232734e-001, 1.28268287e-001, 1.33875504e-001,
          3.78916264e-002, 1.67923961e-002, 1.31482910e-002,
          3.52744818e-001, 1.46213844e-001, 9.80144739e-002,
          3.16013582e-002, 4.63340618e-002, 2.91189961e-002,
          2.90733483e-002, 2.86704693e-002, 1.64374128e-001,
          6.10261559e-002, 4.29103076e-002, 6.84056580e-002,
          7.86569938e-002, 1.92077518e-001, 2.70549804e-001,
          3.52744818e-001, 2.14762151e-001, 8.33745971e-002,
          3.52744818e-001, 3.04808002e-002, 3.74379382e-002,
          1.91129725e-002, 6.89960346e-002, 5.51083758e-002,
          1.22868575e-001, 1.68085918e-001, 3.52744818e-001,
          3.28748256e-001, 2.45713349e-002, 6.59132516e-003,
          5.04939677e-003, 6.45067403e-003, 5.21891110e-004,
          8.42403714e-003, 1.08148782e-002, 3.25742841e-001,
          3.70189548e-001, 1.04054168e-001, 2.31645498e-002,
          3.36626428e-003, 1.68652553e-002, 4.85880114e-003,
          1.43823680e-002, 8.81887972e-003, 2.83612221e-001,
          3.70189548e-001, 1.05898641e-002, 6.40253210e-003,
          3.36626428e-003, 2.11556777e-002, 7.82836752e-004,
          6.46771351e-003, 2.57126633e-002, 3.70189548e-001,
          3.57511938e-001, 2.62369271e-002, 1.14525212e-002,
          2.24417588e-003, 4.00992148e-002, 1.76966209e-002,
          4.57088649e-002, 8.17606077e-002, 3.70189548e-001,
          4.32301968e-001, 2.73591667e-001, 8.62361193e-002,
          7.82448892e-003, 6.70469552e-002, 1.71537716e-002,
          4.09161448e-002, 1.87858660e-002, 1.16391234e-001,
          1.60214499e-001, 1.67250887e-001, 1.04718231e-001,
          7.38795102e-002, 1.03229411e-001, 5.51994368e-002,
          2.59112835e-001, 7.78648928e-002, 6.79082498e-002,
          1.91741660e-001, 5.89142889e-002, 2.78797913e-002,
          1.50912618e-002, 1.50032207e-001, 7.80258030e-002,
          7.77299330e-002, 2.33068004e-001, 4.45535809e-001,
          1.11955069e-001, 9.89463627e-002, 2.75118291e-001,
          1.54358640e-001, 2.04110116e-001, 6.99034035e-002,
          8.48335028e-002, 1.50238931e-001, 1.32316574e-001 ]
      - [ 1.36853665e-001, 1.77842930e-001, 1.58709854e-001,
          1.38658494e-001, 1.08008213e-001, 8.16550106e-002,
          7.96469375e-002, 2.99902484e-002, 1.33788541e-001,
          3.68575603e-001, 7.34648332e-002, 2.85292175e-002,
          1.34620974e-002, 9.93109494e-003, 1.99450576e-003,
          1.55512448e-002, 2.97831595e-002, 3.72560591e-001,
          1.20585628e-001, 1.87723022e-002, 2.50282623e-002,
          6.85550198e-002, 9.68596190e-002, 1.34552091e-001,
          2.33874306e-001, 2.77806193e-001, 3.20052981e-001,
          3.72560591e-001, 9.16260574e-003, 5.63338492e-003,
          8.97472911e-003, 1.18334806e-002, 2.99175899e-003,
          3.95925231e-002, 1.19282834e-001, 3.72560591e-001,
          2.95165807e-001, 1.59269350e-003, 0., 0., 2.23975861e-003, 0.,
          0., 6.41503651e-003, 3.54212254e-001, 3.61338735e-001,
          8.96140002e-003, 3.60045233e-003, 0., 2.78419326e-003, 0., 0.,
          2.13122185e-004, 3.61338735e-001, 3.61338735e-001,
          1.06179540e-003, 0., 0., 2.83095567e-003, 0., 0.,
          1.23692453e-002, 3.61338735e-001, 3.61338735e-001,
          8.47199839e-003, 2.40030140e-003, 0., 2.12499336e-003, 0., 0.,
          3.55781964e-003, 3.61338735e-001, 2.28905126e-001,
          1.84887741e-002, 1.69365443e-002, 6.53134426e-003,
          4.79525421e-003, 1.90302655e-002, 2.00692359e-002,
          7.74425864e-002, 3.26523900e-001, 1.07865125e-001,
          3.91755849e-002, 6.03541434e-002, 9.99057963e-002,
          1.39281705e-001, 2.41100058e-001, 1.81385323e-001,
          2.37129718e-001, 2.05713496e-001, 3.26523900e-001,
          6.68009371e-002, 5.13101891e-002, 1.47406114e-002,
          8.64520390e-003, 1.26868412e-002, 4.79636760e-003,
          1.39405765e-002, 3.26523900e-001, 3.25668037e-001,
          3.03187609e-001, 2.34873965e-001, 2.15838507e-001,
          1.44535229e-001, 1.33215338e-001, 2.92609539e-002,
          2.25761142e-002, 1.83728203e-001 ]
      - [ 1.91930830e-001, 1.02514029e-001, 8.06242600e-002,
          8.17228332e-002, 7.28511661e-002, 7.57843331e-002,
          1.04957856e-001, 1.38244808e-001, 7.72799253e-002,
          2.40338519e-001, 2.79312670e-001, 2.55283177e-001,
          1.14667997e-001, 1.57751054e-001, 9.36587378e-002,
          2.07408473e-001, 1.91182598e-001, 1.19030401e-001,
          2.73415118e-001, 7.73277506e-002, 9.07556638e-002,
          1.25389799e-001, 2.13329345e-001, 1.53034270e-001,
          9.20643508e-002, 1.25415191e-001, 7.96379596e-002,
          1.98369637e-001, 8.23509246e-002, 1.41838372e-001,
          6.49504811e-002, 2.45997459e-001, 2.11767703e-001,
          2.79312670e-001, 2.79312670e-001, 1.09594792e-001,
          3.32459241e-001, 2.39103287e-001, 2.26288065e-001,
          7.73027018e-002, 7.47147873e-002, 2.31076349e-002,
          6.59849718e-002, 3.89280468e-002, 1.11559026e-001,
          3.32459241e-001, 6.70174211e-002, 4.70325164e-002,
          9.09457356e-003, 5.89575386e-003, 2.12744926e-003,
          5.53642912e-003, 5.07341092e-003, 2.73292691e-001,
          3.32459241e-001, 6.53396845e-002, 9.88668427e-002,
          2.73614880e-002, 1.16889894e-001, 4.92732860e-002,
          3.15949976e-001, 2.55705386e-001, 1.62201673e-001,
          3.32459241e-001, 1.04871891e-001, 7.46562984e-003,
          5.53556194e-004, 1.98470689e-002, 3.75394453e-003,
          1.93189122e-002, 3.94339934e-002, 3.13710809e-001,
          2.93021232e-001, 5.72370626e-002, 1.77273769e-002,
          2.66984627e-002, 1.10237394e-002, 3.90476957e-002,
          4.87955771e-002, 8.93405080e-002, 2.40914464e-001,
          1.77997991e-001, 7.96935186e-002, 4.21452597e-002,
          1.34505495e-001, 1.11532457e-001, 1.87060192e-001,
          2.93021232e-001, 2.43645266e-001, 1.84664488e-001,
          2.93021232e-001, 2.79079050e-001, 5.74101694e-002,
          5.68724647e-002, 1.35064479e-002, 2.12637708e-002,
          1.49476659e-002, 2.28652358e-002, 1.85204476e-001,
          2.22522393e-001, 2.93021232e-001, 2.93021232e-001,
          2.84085870e-001, 1.36514932e-001, 9.36580449e-002,
          6.00310341e-002, 4.76582199e-002, 1.04949124e-001 ]
      - [ 1.48013800e-001, 2.83246756e-001, 2.70383149e-001,
          1.57654881e-001, 5.69715351e-002, 8.28919038e-002,
          5.24565168e-002, 1.06334254e-001, 1.05388783e-001,
          3.05943519e-001, 1.81149036e-001, 7.75741711e-002,
          3.22060324e-002, 1.74780749e-002, 2.61643380e-002,
          3.21719013e-002, 6.69639334e-002, 3.05943519e-001,
          1.44371077e-001, 8.93993080e-002, 7.56791756e-002,
          8.65958631e-002, 8.01443309e-002, 1.79253310e-001,
          3.05943519e-001, 1.98912218e-001, 3.05943519e-001,
          3.05943519e-001, 9.68637839e-002, 4.20418717e-002,
          2.19148453e-002, 3.84744294e-002, 3.63986194e-002,
          8.99978355e-002, 1.04194082e-001, 3.05943519e-001,
          3.43646139e-001, 3.21701877e-002, 0., 0., 7.34840753e-003,
          1.86014175e-002, 1.42232627e-002, 5.26910229e-003,
          3.43646139e-001, 3.43646139e-001, 5.32078184e-002,
          2.44613308e-002, 7.40286149e-003, 5.69432881e-003,
          1.58615895e-002, 2.74188407e-002, 1.02412269e-001,
          3.43646139e-001, 3.43646139e-001, 5.30850776e-002,
          1.51096731e-002, 6.35108165e-003, 2.53248364e-002,
          1.42430738e-002, 1.31785916e-002, 6.44472335e-003,
          3.43646139e-001, 3.43646139e-001, 9.90060121e-002,
          9.83619317e-002, 3.26365158e-002, 1.68821011e-002,
          1.05743920e-002, 1.58927739e-002, 9.90642235e-002,
          3.43646139e-001, 1.59567326e-001, 6.81251884e-002,
          6.64192438e-002, 4.11104262e-002, 6.35412186e-002,
          6.54609874e-002, 1.48226768e-001, 1.75834373e-001,
          2.66727984e-001, 2.74007786e-002, 6.36968464e-002,
          1.14196248e-001, 2.14893028e-001, 2.66727984e-001,
          2.66727984e-001, 2.66727984e-001, 1.33553967e-001,
          4.17719185e-002, 2.32506067e-001, 1.28878891e-001,
          1.44078657e-001, 7.08909258e-002, 1.37338668e-001,
          5.29638305e-002, 5.55765629e-002, 1.34491444e-001,
          2.22807392e-001, 5.34145460e-002, 1.33002475e-001,
          2.52945960e-001, 2.66727984e-001, 2.66727984e-001,
          1.90632403e-001, 2.38959998e-001, 1.27095640e-001,
          7.99128860e-002 ]
      - [ 3.57124656e-001, 2.70572782e-001, 3.03547345e-002,
          7.61931241e-002, 3.38791534e-002, 0., 7.78193912e-003,
          5.13334088e-002, 1.50219053e-001, 3.57124656e-001,
          8.45683068e-002, 9.20916814e-003, 2.11615693e-002,
          3.19673084e-002, 0., 0., 3.37854028e-002, 3.57124656e-001,
          1.65174544e-001, 9.86761600e-002, 2.91457772e-002,
          1.13498911e-001, 3.53067443e-002, 3.93743487e-003,
          5.74259013e-002, 2.25975305e-001, 3.57124656e-001,
          3.57124656e-001, 4.70911823e-002, 1.30642662e-002,
          2.41718199e-002, 1.03311976e-002, 0., 0., 7.45348036e-002,
          3.57124656e-001, 3.22611988e-001, 2.25992445e-002,
          6.30581781e-005, 1.41755422e-003, 2.80764867e-002,
          8.36497452e-003, 4.00283886e-003, 3.86261456e-002,
          3.22611988e-001, 2.18712792e-001, 4.02576104e-002,
          1.50404591e-002, 2.20426405e-003, 7.26037249e-002,
          1.09148167e-001, 6.13720305e-002, 3.22611988e-001,
          3.22611988e-001, 3.22611988e-001, 6.00727648e-002, 0., 0.,
          8.71557277e-003, 1.21214101e-002, 6.00425852e-003,
          2.20550206e-002, 3.22611988e-001, 3.22611988e-001,
          2.87790895e-001, 8.78191367e-002, 1.23432772e-002,
          8.10438767e-002, 1.41116574e-001, 3.48021574e-002,
          1.13426879e-001, 2.43123263e-001, 6.36747554e-002,
          4.19619344e-002, 3.59234177e-002, 3.03748380e-002,
          1.14061929e-001, 2.01789245e-001, 2.59002060e-001,
          2.59002060e-001, 1.29450217e-001, 3.76073159e-002,
          3.43050808e-002, 5.48561215e-002, 1.03806153e-001,
          1.97133109e-001, 2.45768204e-001, 2.59002060e-001,
          1.13383099e-001, 1.92504656e-002, 1.61412179e-001,
          2.59002060e-001, 2.59002060e-001, 1.07701153e-001,
          1.50159076e-001, 2.14815781e-001, 1.15960598e-001,
          1.09750025e-001, 4.34367321e-002, 1.37826651e-002,
          2.00268418e-001, 2.59002060e-001, 2.59002060e-001,
          2.59002060e-001, 2.39084616e-001, 1.46940768e-001,
          2.18074434e-002, 1.10773891e-002 ]
      - [ 1.00836724e-001, 1.82698220e-001, 2.21509770e-001,
          1.30501345e-001, 1.05335355e-001, 6.31911382e-002,
          4.39654924e-002, 2.19549611e-002, 3.35079767e-002,
          4.05238569e-001, 2.47797623e-001, 7.93082565e-002,
          2.16489471e-002, 3.11774909e-002, 4.05987576e-002,
          4.88158278e-002, 5.21552451e-002, 1.83469251e-001,
          1.54608907e-002, 4.12467085e-002, 6.73801452e-002,
          7.44214728e-002, 1.62696421e-001, 1.44447863e-001,
          2.23798171e-001, 2.21825570e-001, 1.77894443e-001,
          9.07552242e-002, 7.28974119e-002, 4.46367152e-002,
          1.42077804e-002, 5.24410233e-002, 5.96802942e-002,
          8.43259171e-002, 3.24285090e-001, 5.17853200e-001,
          3.30460221e-001, 6.99774697e-002, 1.10690156e-002,
          1.79157767e-003, 3.67054320e-003, 9.38869454e-003,
          4.02565300e-002, 4.55950089e-002, 1.73865870e-001,
          3.28736544e-001, 8.04173127e-002, 3.33972089e-002,
          1.42547162e-002, 7.58145098e-003, 5.97345270e-003,
          2.07547098e-002, 7.94815049e-002, 2.25036621e-001,
          2.54087269e-001, 2.81394422e-002, 2.58737821e-002,
          2.68736668e-003, 1.62258465e-002, 1.40830418e-002,
          4.54360880e-002, 1.05641805e-001, 4.10486490e-001,
          4.12152410e-001, 6.27481639e-002, 5.77543713e-002,
          2.13820748e-002, 1.69912111e-002, 8.96017905e-003,
          3.72719839e-002, 9.82022285e-002, 4.86143738e-001,
          2.90507466e-001, 7.01085255e-002, 2.69295704e-002,
          9.10645351e-003, 1.49765695e-002, 4.05927524e-002,
          1.57533903e-002, 4.64290529e-002, 2.34296620e-001,
          1.29822642e-001, 2.85765734e-002, 7.59237111e-002,
          8.42546746e-002, 7.26943016e-002, 1.38204128e-001,
          1.14106722e-001, 6.77171201e-002, 1.94851190e-001,
          4.04228777e-001, 1.23830132e-001, 8.04424807e-002,
          1.73991416e-002, 1.97204314e-002, 4.86407764e-002,
          1.33741209e-002, 5.25051169e-002, 4.27578002e-001,
          2.60765105e-001, 1.70276731e-001, 4.50178206e-001,
          1.36414185e-001, 1.10238276e-001, 1.05949260e-001,
          3.38773802e-002, 1.13995187e-002, 1.34851158e-001 ]
      - [ 6.86760023e-002, 9.20905024e-002, 1.89866811e-001,
          4.34219763e-002, 8.84283241e-003, 1.14490492e-002,
          5.81314005e-002, 8.62292126e-002, 6.83526322e-002,
          2.07887232e-001, 7.06235915e-002, 6.87758997e-002,
          2.42450368e-002, 1.13819586e-002, 7.63269840e-003,
          4.20196243e-002, 8.23744312e-002, 2.66634852e-001,
          1.78714499e-001, 4.27891240e-002, 4.41367701e-002,
          4.42564599e-002, 4.87316921e-002, 7.78945312e-002,
          2.69231111e-001, 3.21197301e-001, 3.25373083e-001,
          4.70412582e-001, 2.73310859e-002, 2.50160545e-002,
          2.73619150e-003, 3.79371643e-002, 3.37246805e-002,
          8.97362456e-002, 1.13544986e-001, 4.70412582e-001,
          1.67106360e-001, 1.25558320e-002, 8.43286049e-003,
          1.04791243e-002, 7.76780816e-003, 0., 1.38033442e-002,
          4.59006652e-002, 2.51526326e-001, 2.14551941e-001,
          2.26744320e-002, 5.56499464e-003, 4.99434536e-003,
          1.44229503e-002, 0., 8.02871864e-003, 1.44345403e-001,
          3.49404156e-001, 4.20941800e-001, 8.23096745e-003,
          2.99152266e-003, 0., 1.05929784e-002, 4.54192283e-003,
          1.80847198e-002, 1.70737617e-002, 4.20941800e-001,
          4.20941800e-001, 3.64658907e-002, 1.00379521e-002,
          5.76555496e-003, 1.07445903e-002, 8.84908950e-004,
          1.19986339e-002, 2.81914715e-002, 4.20941800e-001,
          1.13486171e-001, 4.88224104e-002, 5.47009930e-002,
          2.42028255e-002, 1.28441229e-002, 1.26918312e-002,
          9.96755138e-002, 1.88522220e-001, 2.77339727e-001,
          5.42304069e-002, 4.46795821e-002, 1.14166744e-001,
          8.06922764e-002, 7.64807463e-002, 9.34238955e-002,
          2.85986811e-001, 2.91803241e-001, 1.45287648e-001,
          3.94389212e-001, 1.69331804e-001, 1.08917810e-001,
          3.57681736e-002, 1.66031253e-002, 8.46121833e-003,
          4.00710516e-002, 3.69911157e-002, 3.18575203e-001,
          2.36671299e-001, 3.55389088e-001, 2.98592895e-001,
          1.31294116e-001, 1.13477871e-001, 5.76950684e-002,
          1.02905989e-001, 4.25201058e-002, 8.89379010e-002 ]
      - [ 2.40407959e-001, 2.38568723e-001, 1.60813123e-001,
          6.56545758e-002, 6.11279644e-002, 7.80482218e-002,
          4.18426804e-002, 3.84782366e-002, 1.26764894e-001,
          3.93760473e-001, 1.60628036e-001, 2.10348926e-002, 0.,
          1.57738812e-002, 1.29374089e-002, 1.03212064e-002,
          5.25920726e-002, 2.76388437e-001, 1.85337201e-001,
          5.00258692e-002, 5.92721514e-002, 6.29640892e-002,
          1.06616721e-001, 1.12349212e-001, 1.63344815e-001,
          3.33851784e-001, 2.22232014e-001, 3.93760473e-001,
          6.44468591e-002, 8.52920394e-003, 0., 3.93081941e-002,
          1.94061156e-002, 2.08328087e-002, 1.12879321e-001,
          3.61757636e-001, 3.84092182e-001, 3.96871194e-002,
          1.99705129e-003, 0., 8.16059113e-003, 3.99812416e-004,
          4.89507196e-003, 3.17785181e-002, 2.40672767e-001,
          3.84092182e-001, 2.69554202e-002, 1.18543748e-002, 0.,
          9.81886126e-003, 3.39819863e-003, 3.38181970e-003,
          9.86361224e-003, 3.73483956e-001, 3.84092182e-001,
          5.04877977e-002, 2.57182424e-003, 0., 1.68057438e-002,
          5.99718711e-004, 3.42386984e-003, 1.21097593e-002,
          2.45630309e-001, 3.84092182e-001, 6.09490238e-002,
          1.28647415e-002, 0., 1.71944369e-002, 0., 7.83747411e-004,
          6.95270346e-003, 3.70570511e-001, 3.54724646e-001,
          4.09571081e-002, 4.08398621e-002, 8.62483867e-003,
          3.69119905e-002, 8.96213297e-003, 3.55276354e-002,
          5.59322536e-002, 3.22289795e-001, 1.41445369e-001,
          6.44588992e-002, 1.22551575e-001, 1.13314189e-001,
          1.85839877e-001, 6.82914481e-002, 1.90508023e-001,
          1.92045316e-001, 1.89670414e-001, 3.54724646e-001,
          1.50447309e-001, 7.25309029e-002, 7.89783150e-003,
          3.26265991e-002, 3.69630242e-003, 7.26238778e-003,
          9.42436885e-003, 2.64281511e-001, 3.09297234e-001,
          3.54724646e-001, 2.45764062e-001, 1.26048252e-001,
          1.40185744e-001, 2.88506895e-002, 5.69509380e-002,
          1.27833849e-002, 1.02989927e-001 ]
      - [ 1.42014429e-001, 2.37096071e-001, 2.31917024e-001,
          1.13703080e-001, 1.11175857e-001, 2.91792452e-002,
          3.40172201e-002, 2.17901543e-002, 3.19370963e-002,
          3.87374133e-001, 3.42913002e-001, 4.30085734e-002,
          3.54861505e-002, 2.70460453e-002, 7.99362548e-003,
          1.82576124e-002, 2.67165154e-002, 9.04499888e-002,
          1.38723552e-001, 8.63014385e-002, 8.37481916e-002,
          1.69218794e-001, 1.71824381e-001, 7.62547776e-002,
          1.67485535e-001, 1.90146461e-001, 2.21619755e-001,
          3.87374133e-001, 1.43025607e-001, 2.44911909e-002,
          4.70605381e-002, 4.38895524e-002, 1.95203237e-002,
          6.08495176e-002, 1.26448765e-001, 3.87374133e-001,
          3.97309601e-001, 1.23891361e-001, 9.38649941e-003,
          6.27616653e-003, 1.49963573e-002, 3.13312607e-003,
          1.85117242e-003, 8.92167818e-003, 1.28533050e-001,
          3.97309601e-001, 6.64663836e-002, 5.55368140e-003,
          5.70421666e-003, 7.12357601e-003, 0., 0., 1.98917203e-002,
          2.08754033e-001, 3.97309601e-001, 7.70326480e-002,
          1.03003029e-002, 7.93974940e-003, 3.06170341e-002,
          4.69968980e-003, 2.11296533e-003, 3.40649560e-002,
          3.97309601e-001, 3.97309601e-001, 9.29977670e-002,
          1.62737295e-002, 8.55632685e-003, 3.19942273e-002, 0., 0.,
          2.85236519e-002, 3.26931208e-001, 3.38567674e-001,
          3.93832028e-002, 3.43351848e-002, 1.19790602e-002,
          6.70395512e-003, 1.24005089e-002, 4.84680757e-002,
          1.38494089e-001, 2.21616492e-001, 7.06250593e-002,
          2.64875274e-002, 1.54967189e-001, 1.36700481e-001,
          1.23520464e-001, 8.50521103e-002, 2.48758450e-001,
          2.44397342e-001, 1.14233062e-001, 3.73864472e-001,
          1.31686196e-001, 1.13503426e-001, 2.78679430e-002,
          1.72116570e-002, 8.26700404e-003, 1.62945185e-002,
          4.23998386e-002, 2.47520506e-001, 2.28719771e-001,
          3.02016079e-001, 3.73864472e-001, 2.35687539e-001,
          1.02679208e-001, 4.61677648e-002, 5.91104217e-002,
          4.03123684e-002, 1.06138766e-001 ]
      - [ 1.98785231e-001, 3.43801349e-001, 2.72033572e-001,
          6.48548603e-002, 8.35678950e-002, 2.28981804e-002,
          3.80747877e-002, 1.52393486e-002, 3.18940356e-002,
          3.66761357e-001, 2.17037305e-001, 5.74236810e-002,
          1.84688102e-002, 2.74020992e-002, 5.60582522e-003,
          1.26554649e-002, 1.05011314e-002, 1.38135538e-001,
          8.98940936e-002, 6.56920373e-002, 1.12885289e-001,
          7.92572200e-002, 1.46907032e-001, 8.54731500e-002,
          3.21811378e-001, 2.16366336e-001, 2.09330916e-001,
          3.66761357e-001, 6.38582408e-002, 4.18805219e-002,
          2.85275541e-002, 3.94010432e-002, 1.51300756e-002,
          6.60036132e-002, 9.21806768e-002, 3.66761357e-001,
          3.96786869e-001, 8.93577263e-002, 5.17700915e-004, 0.,
          9.56603326e-003, 5.00850100e-003, 3.64792463e-003,
          3.30846547e-003, 1.07674673e-001, 3.96786869e-001,
          7.88303614e-002, 8.38520427e-005, 0., 6.66805264e-003,
          1.25212513e-003, 2.43194960e-003, 2.12600287e-002,
          1.56135574e-001, 3.96786869e-001, 3.36618796e-002,
          5.77412825e-003, 1.35009992e-003, 1.65918618e-002,
          8.01969320e-003, 8.37224629e-003, 5.58642624e-003,
          3.78682524e-001, 3.96786869e-001, 1.06644452e-001,
          5.19153150e-003, 3.37524922e-004, 2.35381201e-002,
          1.87818764e-003, 4.56193835e-003, 3.21313106e-002,
          3.96786869e-001, 3.64278108e-001, 9.10179764e-002,
          1.23288557e-002, 5.59958862e-004, 1.92949306e-002, 0.,
          6.38215430e-003, 4.14327942e-002, 2.18413368e-001,
          2.18235642e-001, 1.33031741e-001, 9.75590795e-002,
          2.88752783e-002, 2.27461949e-001, 7.02862367e-002,
          1.45093217e-001, 1.81081504e-001, 2.16507405e-001,
          3.64278108e-001, 2.57959723e-001, 1.84735078e-002, 0.,
          2.94886641e-002, 0., 1.59553823e-003, 2.21874509e-002,
          2.18712270e-001, 3.20529759e-001, 3.64278108e-001,
          2.27924004e-001, 4.65120338e-002, 1.62197694e-001,
          3.67816836e-002, 2.47841422e-002, 2.20081862e-002,
          7.22891837e-002 ]
      - [ 1.42008469e-001, 9.02456418e-002, 2.78441072e-001,
          6.00444227e-002, 1.12352349e-001, 1.10738814e-001,
          6.74084798e-002, 5.34773096e-002, 1.96022645e-001,
          1.91926986e-001, 6.95473775e-002, 5.25213778e-002,
          2.19812226e-002, 6.66951165e-002, 3.82845476e-002,
          1.05650060e-001, 9.21781212e-002, 3.64130855e-001,
          2.08093315e-001, 5.97123243e-002, 4.97236662e-002,
          3.09798643e-002, 1.76066354e-001, 2.11353287e-001,
          2.63764739e-001, 2.35853434e-001, 1.97252139e-001,
          3.64130855e-001, 3.48354220e-001, 2.46820915e-002,
          2.33051050e-002, 8.42403695e-002, 4.61979657e-002,
          8.34128037e-002, 1.21440090e-001, 1.92395031e-001,
          1.58352435e-001, 3.25768515e-002, 5.92141319e-003,
          9.06927604e-003, 3.56784202e-002, 1.43089360e-002,
          5.49113750e-002, 4.86588143e-002, 4.04383272e-001,
          3.74214947e-001, 1.76558048e-002, 9.40206088e-003,
          8.17670207e-003, 1.52468728e-002, 3.17200716e-003,
          1.02710538e-002, 2.11646482e-002, 4.04383272e-001,
          4.04383272e-001, 2.13109970e-001, 2.26321425e-002,
          3.53623219e-002, 4.25208099e-002, 1.09409448e-002,
          3.66075784e-002, 1.90190114e-002, 1.51536122e-001,
          4.04383272e-001, 3.84281389e-002, 1.54435867e-002,
          3.06380950e-002, 3.04287244e-002, 6.36584067e-004,
          6.84736809e-003, 1.28545174e-002, 2.99797982e-001,
          3.27525318e-001, 5.93377538e-002, 2.07498111e-002,
          2.56075244e-002, 1.04393177e-002, 1.91115786e-003, 0.,
          4.05019335e-002, 2.21151322e-001, 2.19276473e-001,
          1.34034172e-001, 1.36003286e-001, 1.44096479e-001,
          1.73099071e-001, 6.11597411e-002, 1.89441234e-001,
          1.27441198e-001, 2.07957312e-001, 3.77174258e-001,
          9.20873806e-002, 1.89064573e-002, 2.21959185e-002,
          2.63033807e-002, 1.27410505e-003, 0., 3.14914286e-002,
          1.63112000e-001, 3.77174258e-001, 3.77174258e-001,
          2.93720722e-001, 1.29855037e-001, 1.27980381e-001,
          2.73696966e-002, 3.36147584e-002, 3.31055000e-002,
          1.11414500e-001 ]
      - [ 1.79058969e-001, 1.79665327e-001, 3.26485097e-001,
          1.17736928e-001, 1.51663825e-001, 4.53745611e-002,
          5.31626195e-002, 4.07630242e-002, 7.48036504e-002,
          2.71053374e-001, 1.24173693e-001, 3.93594466e-002,
          2.01054718e-002, 5.61212339e-002, 6.45542368e-002,
          5.74016124e-002, 1.47845179e-001, 3.23664844e-001,
          2.12826908e-001, 1.17473274e-001, 1.03910200e-001,
          4.63013798e-002, 2.25838557e-001, 1.58855915e-001,
          3.33775014e-001, 8.08668286e-002, 1.65603548e-001,
          3.70411009e-001, 2.59853333e-001, 5.37723452e-002,
          8.06072261e-003, 8.09212998e-002, 7.64793679e-002,
          6.77684247e-002, 8.71135071e-002, 1.49599463e-001,
          2.35080153e-001, 3.61583494e-002, 1.29072007e-003,
          2.88681942e-003, 2.22407654e-002, 3.09858434e-002,
          6.16985857e-002, 1.00264169e-001, 3.14470768e-001,
          4.38617468e-001, 6.99408650e-002, 3.52637516e-003,
          9.86566208e-003, 2.55494900e-002, 3.73037043e-003,
          2.42928695e-002, 1.93461515e-002, 2.86142915e-001,
          4.38617468e-001, 2.11645827e-001, 1.67017188e-002,
          1.84133952e-003, 4.24136072e-002, 3.20411883e-002,
          6.60897568e-002, 4.97037694e-002, 5.91020249e-002,
          4.38617468e-001, 1.82521328e-001, 5.13226399e-003,
          6.62637316e-003, 3.55869941e-002, 5.59555646e-003,
          3.95494886e-002, 4.31647189e-002, 2.50645906e-001,
          3.25308710e-001, 1.38294414e-001, 2.22524405e-002,
          2.13341955e-002, 2.35581659e-002, 3.18399211e-003,
          4.91267778e-002, 7.86771849e-002, 1.90593585e-001,
          1.38447165e-001, 1.52901649e-001, 1.15349628e-001,
          1.63085237e-001, 1.21714443e-001, 1.27324805e-001,
          2.60613263e-001, 1.87260509e-001, 1.39872819e-001,
          3.54482621e-001, 3.03976208e-001, 4.95242029e-002,
          1.42227961e-002, 1.86560825e-002, 7.95997912e-004,
          1.54826483e-002, 1.64352171e-002, 1.35145754e-001,
          2.32526362e-001, 3.54482621e-001, 3.54482621e-001,
          1.79850861e-001, 8.38808939e-002, 2.93688793e-002,
          4.38196734e-002, 1.29259657e-002, 3.85172404e-002 ]
      - [ 3.67400259e-001, 7.24431798e-002, 4.64569479e-002,
          3.38490345e-002, 3.95707265e-002, 1.40567943e-002,
          4.81807515e-002, 2.68718507e-002, 2.24357933e-001,
          3.67400259e-001, 5.40021388e-003, 6.52350765e-003,
          4.32738755e-003, 3.88033316e-003, 1.20704004e-003,
          1.51423167e-003, 1.01813637e-002, 3.67400259e-001,
          3.67400259e-001, 4.21794839e-002, 3.43773626e-002,
          2.45144442e-002, 4.50900085e-002, 2.40009744e-002,
          8.00457746e-002, 4.80471626e-002, 3.27548653e-001,
          3.67400259e-001, 1.11988606e-002, 7.93030486e-003,
          2.92263553e-003, 7.28457095e-003, 2.74854735e-003,
          2.72499351e-003, 9.13411845e-003, 3.67400259e-001,
          3.75061959e-001, 5.31921536e-003, 3.86172673e-003,
          5.09467721e-003, 4.52286517e-003, 6.49425026e-004,
          7.68398517e-004, 4.29706322e-003, 2.79078513e-001,
          3.75061959e-001, 1.83955841e-002, 8.09116475e-003,
          7.18228891e-003, 2.10748184e-002, 6.42978819e-003,
          1.70020740e-002, 4.00514007e-002, 3.21839452e-001,
          3.75061959e-001, 1.33068655e-002, 2.89864279e-003,
          3.22227716e-003, 8.20769183e-003, 0., 8.32784630e-004,
          1.63442886e-003, 3.53429049e-001, 3.75061959e-001,
          4.99311835e-002, 2.28722468e-002, 1.93326250e-002,
          2.48632766e-002, 2.99672526e-003, 9.78831388e-003,
          2.31045559e-002, 3.45445871e-001, 2.61769295e-001,
          5.78806400e-002, 8.67981389e-002, 6.93828315e-002,
          1.53879836e-001, 1.22321779e-002, 9.91270915e-002,
          8.72123763e-002, 2.34618664e-001, 1.55462578e-001,
          9.76155624e-002, 1.20885581e-001, 1.68287501e-001,
          2.22397044e-001, 1.44080613e-002, 1.70293927e-001,
          1.96708485e-001, 2.29130417e-001, 2.61769295e-001,
          1.36776254e-001, 1.60751268e-001, 6.79253936e-002,
          1.78396478e-001, 1.23233460e-002, 4.61439192e-002,
          7.33104348e-002, 1.99121207e-001, 2.61769295e-001,
          1.86989754e-001, 2.29552746e-001, 1.08261585e-001,
          2.61769295e-001, 1.22415312e-002, 1.36419535e-001,
          2.23239392e-001, 2.61769295e-001 ]
      - [ 3.87274384e-001, 1.81560203e-001, 4.00515832e-002,
          1.65166857e-003, 1.46825509e-002, 0., 2.92464322e-003,
          9.17726569e-003, 8.10299292e-002, 3.87274384e-001,
          3.19926113e-001, 1.77235678e-002, 4.65408806e-003,
          8.10456835e-003, 0., 4.38696472e-003, 9.01338458e-003,
          1.09376371e-001, 3.87274384e-001, 1.94388077e-001,
          5.05902842e-002, 0., 4.47908975e-003, 0., 4.38696472e-003,
          3.34329940e-002, 2.57443935e-001, 3.87274384e-001,
          3.45442861e-001, 1.72855984e-002, 2.26047495e-003,
          8.17584712e-003, 0., 6.58044824e-003, 7.66947726e-003,
          1.11166544e-001, 4.47806925e-001, 1.60771549e-001,
          2.98244529e-003, 6.09500613e-003, 2.85950373e-003,
          2.97060440e-004, 5.55283763e-003, 5.80570800e-003,
          1.91024631e-001, 4.47806925e-001, 1.29051238e-001,
          2.23472319e-003, 9.56944935e-003, 3.47216427e-003,
          4.45590675e-004, 1.01570087e-002, 1.31369373e-002,
          1.79074019e-001, 4.47806925e-001, 2.21430540e-001,
          7.98636395e-003, 6.35143416e-003, 6.70326455e-003, 0.,
          9.50951036e-003, 1.02528967e-002, 7.37025663e-002,
          4.47806925e-001, 8.44334960e-002, 1.27703818e-002,
          1.15504088e-002, 8.65206216e-003, 0., 3.79050821e-002,
          3.33786532e-002, 1.30307898e-001, 4.09171313e-001,
          2.26941869e-001, 7.57695059e-004, 2.94301519e-003,
          2.95427465e-003, 8.83759744e-003, 8.45144317e-003,
          9.07592755e-003, 8.84081498e-002, 4.09171313e-001,
          2.83045143e-001, 1.28327861e-001, 5.74717261e-002,
          1.59045100e-001, 4.69897948e-002, 7.68462196e-002,
          3.39374430e-002, 1.04003973e-001, 4.09171313e-001,
          1.34429350e-001, 6.41782489e-003, 3.60304816e-003,
          6.39020698e-003, 2.19242787e-003, 2.20884383e-002,
          2.47703362e-002, 1.32280052e-001, 4.09171313e-001,
          2.51646161e-001, 8.55519027e-002, 2.59824544e-002,
          5.85462190e-002, 8.76970869e-003, 1.65208243e-002,
          1.85827017e-002, 9.58284438e-002 ]
      - [ 7.73164630e-002, 3.47132608e-002, 1.19920984e-001,
          2.40929574e-001, 2.96982497e-001, 9.03136656e-002,
          5.26104160e-002, 1.91414785e-002, 9.97919589e-002,
          3.75027120e-001, 7.71239623e-002, 1.16527870e-001,
          4.52453904e-002, 5.54473959e-002, 4.83857878e-002,
          7.91605711e-002, 6.55554011e-002, 3.75027120e-001,
          1.83684662e-001, 3.00829783e-002, 8.30766261e-002,
          1.34847030e-001, 2.77921796e-001, 9.83113423e-002,
          1.00443572e-001, 3.92222330e-002, 8.42642263e-002,
          3.75027120e-001, 4.90585230e-002, 6.73137903e-002,
          2.82065440e-002, 5.40007874e-002, 7.28017315e-002,
          1.29346818e-001, 9.49506238e-002, 3.75027120e-001,
          3.52541864e-001, 1.52982278e-002, 1.10087115e-002,
          2.90716416e-003, 5.49847353e-003, 5.21697523e-003,
          1.10409334e-002, 1.25394557e-002, 3.52541864e-001,
          3.52541864e-001, 1.97434984e-003, 6.49393350e-003,
          1.49911351e-003, 3.62778106e-003, 3.03650717e-003,
          3.77616356e-003, 6.50439411e-004, 3.52541864e-001,
          3.52541864e-001, 9.63285286e-003, 5.36713889e-003,
          9.94100701e-004, 1.16830906e-002, 3.31155513e-003,
          1.22388313e-002, 1.76105462e-002, 3.52541864e-001,
          3.52541864e-001, 1.08670676e-003, 0., 3.94065538e-003,
          2.54106298e-002, 0., 2.09295028e-003, 3.06299608e-003,
          3.52541864e-001, 3.51894945e-001, 1.44484767e-003,
          6.53249398e-003, 2.70073581e-003, 3.25637846e-003,
          1.87558506e-003, 1.98593916e-004, 4.92621039e-004,
          3.51894945e-001, 3.51894945e-001, 2.89143156e-002,
          1.94008928e-003, 9.23771411e-004, 2.87790527e-003,
          1.70685572e-003, 0., 2.64056753e-002, 3.51894945e-001,
          3.51894945e-001, 8.28184374e-003, 9.58103046e-004,
          6.23570010e-003, 1.73043106e-002, 0., 3.00447718e-004,
          5.56300394e-003, 3.51894945e-001, 3.51894945e-001,
          5.76069877e-002, 2.51529599e-003, 3.70577164e-003,
          8.10663868e-003, 4.11035819e-003, 1.95440766e-003,
          1.90878194e-002, 3.51894945e-001 ]
      - [ 3.73942167e-001, 7.29960799e-002, 2.87219789e-002,
          5.68934658e-004, 2.04444975e-002, 6.52059261e-003,
          1.38810975e-002, 4.31552716e-002, 1.71024054e-001,
          3.73942167e-001, 1.57025252e-002, 0., 0., 1.49775215e-003, 0.,
          4.72456357e-003, 2.54278276e-002, 3.73942167e-001,
          3.18486661e-001, 4.08661701e-002, 2.05980018e-002,
          7.44233094e-003, 2.54156776e-002, 9.78089031e-003,
          2.56803054e-002, 1.08593702e-001, 3.73942167e-001,
          3.73942167e-001, 3.13747441e-003, 1.34034478e-003, 0.,
          1.49971396e-002, 0., 2.62021809e-003, 3.75622660e-002,
          3.73942167e-001, 3.53062063e-001, 1.70731898e-002,
          1.04367256e-003, 5.12293947e-004, 1.03095139e-003, 0.,
          3.87302367e-003, 1.59854535e-002, 3.53062063e-001,
          3.53062063e-001, 4.97184545e-002, 2.76564378e-002,
          9.14878957e-003, 7.26809539e-003, 9.04701476e-004,
          2.09323801e-002, 7.85122663e-002, 3.52612317e-001,
          3.53062063e-001, 3.19190398e-002, 8.74191697e-004, 0.,
          7.22491881e-003, 0., 1.66146993e-003, 2.01636814e-002,
          3.53062063e-001, 3.53062063e-001, 1.11298293e-001,
          3.96285243e-002, 1.22044738e-002, 1.78310201e-002, 0.,
          8.77736881e-003, 4.91895601e-002, 3.08669597e-001,
          1.84325963e-001, 8.64205062e-002, 6.25432506e-002,
          2.24727876e-002, 2.34954823e-002, 8.78901128e-003,
          7.09827691e-002, 1.94533944e-001, 3.43098015e-001,
          6.52209893e-002, 1.35626167e-001, 7.95227289e-002,
          8.31413269e-003, 2.07498390e-002, 3.11405528e-002,
          8.82836655e-002, 2.51140296e-001, 3.22267294e-001,
          3.67453188e-001, 2.61077136e-001, 1.50558263e-001,
          4.07298729e-002, 6.39164522e-002, 0., 2.58597229e-002,
          1.01444662e-001, 2.40153268e-001, 2.25012571e-001,
          3.83356661e-001, 2.39054903e-001, 1.81743223e-002,
          8.47335830e-002, 1.47363367e-002, 3.73528786e-002,
          9.41084102e-002, 1.04740269e-001 ]
      - [ 2.31560230e-001, 2.70191580e-001, 8.74339342e-002,
          5.31249195e-002, 1.28569147e-002, 1.96767915e-002,
          2.49419399e-002, 2.43128948e-002, 6.33750185e-002,
          4.11692679e-001, 2.58180737e-001, 5.12758605e-002,
          8.08448624e-003, 1.34501467e-002, 7.81508512e-004,
          7.36062182e-003, 1.40060717e-002, 2.08540186e-001,
          2.59752572e-001, 1.85710028e-001, 1.24802202e-001,
          8.27171430e-002, 2.33548824e-002, 9.86550599e-002,
          1.13076240e-001, 9.18412507e-002, 2.04581931e-001,
          4.11692679e-001, 1.98443994e-001, 6.03222959e-002,
          1.52849555e-002, 7.62245152e-003, 3.12603312e-003,
          1.71287935e-002, 4.86932397e-002, 3.96289080e-001,
          3.86298865e-001, 1.02573916e-001, 1.12102823e-002,
          8.68452655e-004, 4.38319799e-003, 9.44770756e-004,
          4.68422339e-004, 1.63828228e-002, 2.24409938e-001,
          3.86298865e-001, 9.96258110e-002, 4.58670920e-003,
          1.78787089e-003, 4.09107422e-003, 1.41715619e-003,
          7.02633522e-004, 3.33475545e-002, 3.61459076e-001,
          3.86298865e-001, 1.36119232e-001, 1.73109658e-002,
          3.88352876e-003, 5.27576590e-003, 0., 0., 1.31810652e-002,
          2.33596325e-001, 3.86298865e-001, 1.66560099e-001,
          1.65882297e-002, 2.98657408e-003, 8.10221676e-003, 0.,
          7.81940296e-004, 4.39453460e-002, 3.04249376e-001,
          3.72522265e-001, 3.24313827e-002, 2.65928777e-003,
          2.56167166e-003, 4.33795433e-003, 1.84203614e-004,
          9.13291296e-005, 2.21401881e-002, 3.23323697e-001,
          3.72522265e-001, 6.84666708e-002, 4.73296503e-003,
          6.40417798e-004, 3.81700089e-003, 0., 3.20041180e-002,
          6.96534514e-002, 3.59672546e-001, 3.72522265e-001,
          4.94409427e-002, 3.83274513e-003, 6.91618072e-004,
          9.73213743e-003, 0., 2.49342574e-003, 3.24019454e-002,
          3.05102617e-001, 3.72522265e-001, 1.09337255e-001,
          1.65082365e-002, 9.87118389e-003, 2.17641983e-002, 0.,
          2.25762315e-002, 4.41870503e-002, 2.88358182e-001 ]
      - [ 3.14233541e-001, 1.68953612e-001, 3.77608798e-002,
          1.40059059e-002, 4.32439707e-002, 2.78671551e-002,
          1.28644370e-002, 3.62900384e-002, 1.04623087e-001,
          3.79183412e-001, 1.07996859e-001, 1.15167890e-002, 0.,
          1.72860492e-002, 2.00567325e-003, 1.12328958e-002,
          4.95976433e-002, 2.92391837e-001, 1.76623702e-001,
          5.88565394e-002, 2.28131134e-002, 8.11206456e-003,
          4.51342240e-002, 4.27974313e-002, 5.30286171e-002,
          2.62292355e-001, 2.43144557e-001, 5.18304527e-001,
          7.53226653e-002, 5.63133415e-003, 0., 2.01396067e-002,
          3.00851022e-003, 2.69301645e-002, 1.28882155e-001,
          3.80712032e-001, 3.14212888e-001, 5.20505048e-002,
          1.00617260e-002, 0., 1.22420564e-002, 0., 1.60026439e-002,
          6.38721362e-002, 2.11107507e-001, 3.29621941e-001,
          2.81477887e-002, 1.21236956e-002, 5.63879544e-003,
          2.12466903e-002, 0., 2.54691839e-002, 8.01539645e-002,
          4.08313155e-001, 3.47474337e-001, 4.69429605e-002,
          7.84869399e-003, 0., 1.93619430e-002, 0., 3.03778406e-002,
          1.35962054e-001, 2.76995152e-001, 4.28075284e-001,
          1.57204077e-001, 4.45610145e-003, 5.18177263e-003,
          2.98857167e-002, 0., 3.05796433e-002, 1.19047441e-001,
          3.42139006e-001, 3.72069538e-001, 3.26065831e-002,
          8.49804282e-003, 3.73185333e-003, 1.26079032e-002, 0.,
          1.10332491e-002, 2.94523798e-002, 2.78374940e-001,
          3.57800275e-001, 5.53437918e-002, 2.50923000e-002,
          1.69236809e-002, 1.34134628e-002, 1.04938168e-002,
          7.81273022e-002, 5.68100847e-002, 2.81439275e-001,
          4.41501975e-001, 1.56744227e-001, 3.67331179e-003,
          7.63224531e-003, 1.23124467e-002, 0., 1.11588091e-002,
          1.53021375e-002, 2.46497601e-001, 4.17689085e-001,
          1.56646729e-001, 4.15864363e-002, 2.72935834e-002,
          9.88535397e-003, 6.99587679e-003, 5.72604463e-002,
          2.30809059e-002, 2.64104396e-001 ]
      - [ 2.72135735e-001, 1.44925222e-001, 4.18023616e-002, 0.,
          2.99462974e-002, 1.12788808e-002, 1.35729264e-003,
          1.10665942e-002, 1.14973664e-001, 4.09085721e-001,
          2.24951118e-001, 5.02838846e-003, 0., 1.99336745e-002, 0.,
          6.44012960e-003, 1.96157414e-002, 1.69456899e-001,
          4.09085721e-001, 2.03143701e-001, 5.18550277e-002, 0.,
          3.74324210e-002, 2.72015482e-002, 1.05215264e-002,
          3.82236727e-002, 2.88794637e-001, 4.09085721e-001,
          2.29713961e-001, 3.13192070e-003, 0., 2.39821170e-002, 0.,
          1.51644100e-003, 4.23915908e-002, 3.41016591e-001,
          4.29525435e-001, 1.37423649e-001, 3.18938727e-003, 0.,
          1.20980721e-002, 0., 2.91705388e-003, 1.30668348e-002,
          1.19548813e-001, 4.29525435e-001, 1.93827063e-001,
          4.60644579e-003, 0., 4.03829059e-003, 0., 3.49893118e-004,
          1.84485130e-002, 1.90509722e-001, 4.29525435e-001,
          1.78581148e-001, 5.85122732e-003, 0., 1.89481378e-002, 0.,
          2.09935894e-003, 2.56324224e-002, 1.61664814e-001,
          4.29525435e-001, 2.56694824e-001, 2.49744859e-002, 0.,
          2.34623328e-002, 0., 1.40853291e-002, 1.82666872e-002,
          1.52667224e-001, 4.22506183e-001, 2.68802583e-001,
          1.31617635e-002, 0., 3.99480946e-003, 0., 0., 3.96677367e-002,
          1.38005689e-001, 4.22506183e-001, 2.32736945e-001,
          1.24760039e-001, 3.18803564e-002, 2.14204583e-002,
          5.44987731e-002, 5.85018806e-002, 4.90103401e-002,
          1.57273144e-001, 4.22506183e-001, 2.69691527e-001,
          2.27991864e-002, 0., 3.69543061e-002, 0., 2.87800897e-002,
          3.00162863e-002, 9.93015617e-002, 3.44236672e-001,
          1.98759705e-001, 9.71132591e-002, 3.19235697e-002,
          5.46763614e-002, 1.36246905e-002, 1.65411476e-002,
          2.06254330e-002, 6.25165999e-002 ]
      - [ 2.34904498e-001, 1.06896035e-001, 3.49684283e-002,
          2.35288707e-003, 1.32901715e-002, 0., 1.08317249e-002,
          1.27086453e-002, 9.42812786e-002, 4.56197709e-001,
          1.64990261e-001, 8.18056893e-003, 8.66096118e-004,
          1.03987493e-002, 0., 8.05797707e-003, 8.86951294e-003,
          1.47828653e-001, 4.56197709e-001, 2.22005337e-001,
          9.81784239e-002, 2.29033804e-003, 6.58575911e-003,
          2.00160928e-002, 4.66143759e-003, 4.35841689e-003,
          2.10972741e-001, 4.56197709e-001, 3.10514599e-001,
          3.27222683e-002, 3.46438377e-003, 5.66330180e-003, 0.,
          6.99215662e-003, 1.67304128e-002, 2.06717923e-001,
          3.48181099e-001, 2.14737773e-001, 8.79402924e-003,
          3.73802637e-003, 9.01167654e-003, 0., 8.45106610e-004,
          4.81463689e-003, 1.04108840e-001, 4.14708763e-001,
          2.65906006e-001, 1.32659161e-002, 2.11253315e-002,
          1.03420494e-002, 0., 0., 1.01122474e-002, 1.49695054e-001,
          4.14708763e-001, 2.30298132e-001, 1.66306533e-002,
          9.39468795e-004, 9.76399984e-003, 0., 8.51985009e-004,
          1.63106956e-002, 1.84342653e-001, 4.14708763e-001,
          2.99935490e-001, 1.91528238e-002, 0., 1.30308289e-002, 0., 0.,
          1.62627045e-002, 1.70769751e-001, 3.89525235e-001,
          2.49637455e-001, 3.84826376e-003, 9.56666190e-003,
          6.93187257e-003, 0., 0., 1.43263210e-002, 1.26671106e-001,
          3.32567185e-001, 3.38550299e-001, 4.72085327e-002,
          3.51194367e-002, 1.39798615e-002, 1.51944933e-002,
          1.98247842e-002, 6.29273802e-002, 1.54930532e-001,
          3.89525235e-001, 2.59332865e-001, 7.23174913e-003, 0.,
          6.53804373e-003, 0., 0., 1.13484189e-002, 1.33228168e-001,
          3.89525235e-001, 3.29406530e-001, 5.13448305e-002,
          2.34129559e-002, 1.40693272e-002, 3.79862287e-003,
          4.95619560e-003, 1.52153410e-002, 8.56981874e-002 ]
      - [ 3.10369700e-001, 1.32037848e-001, 5.35455868e-002,
          3.17149088e-002, 2.50347201e-002, 2.54703909e-002,
          1.61032788e-002, 3.42448652e-002, 5.44881821e-002,
          4.22805935e-001, 2.14038208e-001, 8.05665180e-003,
          4.07878589e-003, 1.27346711e-002, 0., 2.08279435e-002,
          3.23839001e-002, 1.02064840e-001, 2.82740414e-001,
          1.34306699e-001, 7.55589083e-002, 3.76496427e-002,
          3.81511599e-002, 1.01047114e-001, 8.02059993e-002,
          2.16917336e-001, 2.50026166e-001, 4.22805935e-001,
          1.82844356e-001, 9.96958744e-003, 0., 1.23557569e-002, 0.,
          2.04677247e-002, 1.06478974e-001, 4.22805935e-001,
          4.24574673e-001, 7.44489282e-002, 0., 4.51477291e-003,
          5.22284210e-003, 1.27455010e-003, 1.50111597e-002,
          1.33192474e-002, 1.11615345e-001, 4.24574673e-001,
          2.30264813e-002, 0., 6.74139475e-003, 1.40086450e-002,
          1.91182515e-003, 4.46468126e-003, 2.77591366e-002,
          2.58418351e-001, 4.24574673e-001, 5.23387194e-002, 0., 0.,
          4.78778500e-003, 0., 1.89062748e-002, 2.24416200e-002,
          3.07969123e-001, 4.24574673e-001, 1.99578367e-002, 0., 0.,
          3.66006256e-003, 0., 5.35182515e-003, 2.49277726e-002,
          2.97279894e-001, 3.81121337e-001, 2.58640647e-002,
          4.55541676e-003, 1.26861630e-003, 1.25533910e-002,
          1.17189519e-003, 2.03070231e-003, 2.83035226e-002,
          2.62612700e-001, 3.81121337e-001, 4.14765887e-002,
          6.83312677e-003, 0., 1.00966888e-002, 1.39278336e-003,
          2.87481141e-003, 2.55764555e-002, 3.80543351e-001,
          3.81121337e-001, 5.79301082e-002, 6.83312677e-003, 0.,
          2.85296957e-003, 0., 0., 2.08945572e-002, 2.24449649e-001,
          3.81121337e-001, 9.08659771e-002, 1.02496892e-002, 0.,
          5.46077080e-003, 0., 0., 2.44284291e-002, 3.66057396e-001 ]
      - [ 2.96532102e-002, 2.98443615e-001, 2.67640650e-001,
          1.47594795e-001, 3.02190036e-002, 7.38848001e-002,
          1.07989542e-001, 1.06947616e-001, 5.55966087e-002,
          2.23458514e-001, 3.21760356e-001, 1.25142753e-001,
          2.69631967e-002, 3.87985110e-002, 3.34472768e-002,
          2.97006033e-002, 1.10470697e-001, 1.53581798e-001,
          1.85843185e-002, 7.95964599e-002, 9.06855538e-002,
          8.41929317e-002, 1.05074383e-001, 1.00815021e-001,
          3.24103892e-001, 3.51670861e-001, 1.46265239e-001,
          9.07745957e-002, 7.35709965e-002, 6.11292422e-002,
          3.39053012e-002, 1.94806978e-001, 8.30353349e-002,
          1.34851202e-001, 2.86491126e-001, 3.38318348e-001,
          3.22439045e-001, 2.38507226e-001, 5.35402372e-002,
          3.37408914e-004, 3.04228030e-002, 4.54717912e-002,
          1.93545669e-002, 1.04212701e-001, 1.35372043e-001,
          4.25345659e-001, 2.58811474e-001, 2.08975114e-002,
          3.86902806e-003, 1.94072779e-002, 7.19717816e-002,
          1.99308433e-002, 9.99107957e-002, 2.35198349e-001,
          1.81191906e-001, 5.71147017e-002, 5.85867763e-002,
          3.30576152e-002, 1.68613374e-001, 6.19777255e-002,
          2.03025062e-002, 2.12252393e-001, 2.22285330e-001,
          4.25345659e-001, 6.80739358e-002, 2.82665323e-002,
          1.08222533e-002, 4.15823422e-002, 4.79811877e-002,
          1.30525138e-002, 1.05386242e-001, 3.32158476e-001,
          3.87623966e-001, 6.49976730e-002, 2.54949369e-003,
          4.11629304e-003, 7.56012462e-003, 1.15676597e-002,
          5.66615164e-003, 3.61627750e-002, 2.14505628e-001,
          3.87623966e-001, 1.43188342e-001, 6.40688762e-002,
          1.15722753e-002, 1.18373614e-002, 3.01399864e-002,
          3.50791700e-002, 9.94546637e-002, 3.87623966e-001,
          3.87623966e-001, 4.48415130e-002, 2.82509718e-004, 0.,
          1.62769835e-002, 7.71177281e-003, 2.87472736e-003,
          3.34749408e-002, 2.28025287e-001, 3.87623966e-001,
          1.48363680e-001, 4.23882194e-002, 1.64249558e-002,
          5.40286936e-002, 3.90546657e-002, 4.69907373e-002,
          4.43491489e-002, 2.60777414e-001 ]
      - [ 9.13177580e-002, 3.17180216e-001, 1.46674976e-001,
          2.53352392e-002, 1.44545555e-001, 9.04456452e-002,
          5.35281934e-002, 3.98330837e-002, 4.86110039e-002,
          3.08589458e-001, 2.77208865e-001, 9.74367838e-003,
          2.33710110e-002, 5.26691414e-002, 3.41004357e-002,
          5.79433255e-002, 7.60925338e-002, 8.66825655e-002,
          6.15389012e-002, 1.40615061e-001, 7.05808103e-002,
          1.25759812e-002, 1.09567113e-001, 7.71136731e-002,
          1.39683858e-001, 3.63992780e-001, 3.63992780e-001,
          1.96613401e-001, 1.30353913e-001, 1.82306499e-003, 0.,
          4.06879671e-002, 3.47406138e-003, 4.91164587e-002,
          3.35705757e-001, 3.63992780e-001, 3.32884192e-001,
          1.86174467e-001, 4.34834231e-003, 1.27399359e-002,
          3.11987419e-002, 9.72877350e-003, 3.57395262e-002,
          5.07965386e-002, 1.00538388e-001, 3.94622535e-001,
          7.95451775e-002, 2.68252613e-003, 5.76281454e-003,
          1.55303031e-002, 0., 3.51138972e-003, 4.92737964e-002,
          2.59945154e-001, 2.94220984e-001, 9.55906287e-002, 0., 0.,
          3.41652893e-002, 0., 4.04807739e-002, 1.25747025e-001,
          3.94622535e-001, 3.94622535e-001, 1.28594384e-001,
          7.18238018e-003, 0., 3.69106792e-002, 5.22663933e-004,
          1.80654563e-002, 5.69441281e-002, 3.94622535e-001,
          4.20267105e-001, 4.74819131e-002, 4.66954475e-003, 0.,
          5.80933318e-003, 3.31810373e-003, 4.12627822e-004,
          5.15472144e-002, 1.92175046e-001, 4.20267105e-001,
          9.62661207e-002, 7.00431690e-003, 1.39329173e-002,
          1.55933127e-002, 1.32724112e-002, 1.65051071e-003,
          7.22257867e-002, 2.29154840e-001, 4.20267105e-001,
          1.14530452e-001, 8.74034036e-003, 0., 2.35584415e-002,
          4.00241651e-003, 1.38369501e-002, 3.75342928e-002,
          1.58184707e-001, 4.20267105e-001, 1.81541473e-001,
          7.30997138e-003, 5.72552579e-003, 8.79231617e-002,
          3.30352075e-002, 4.30890312e-003, 5.55599406e-002,
          3.07205886e-001 ]
      - [ 3.42529155e-002, 1.78325742e-001, 3.05814475e-001,
          2.44803205e-001, 8.51981044e-002, 8.52087736e-002,
          1.35526583e-002, 0., 5.04629686e-003, 6.01907521e-002,
          4.56031471e-001, 3.37470800e-001, 7.09553957e-002,
          1.74073167e-002, 2.55900621e-002, 1.79977212e-002,
          4.94970940e-003, 1.62762508e-003, 1.13663096e-002,
          7.33369961e-002, 1.73694149e-001, 2.07931414e-001,
          9.64845046e-002, 1.71653807e-001, 3.66573006e-001,
          1.45113945e-001, 1.39569873e-002, 2.10761633e-002,
          1.79003835e-001, 1.36750042e-001, 8.23260844e-002,
          3.08835823e-002, 9.65089798e-002, 2.28428796e-001,
          2.07659855e-001, 1.60075217e-001, 7.88011402e-002,
          4.33764368e-001, 2.86474437e-001, 3.55889164e-002,
          2.72714011e-002, 4.67435876e-003, 1.29872803e-002,
          1.89156178e-002, 1.33953942e-002, 2.26030216e-001,
          4.47671205e-001, 9.70952660e-002, 3.33518013e-002,
          2.36903876e-002, 0., 4.80360202e-002, 3.88970450e-002,
          4.81570810e-002, 5.93001321e-002, 1.26312941e-001,
          9.10712183e-002, 4.65780832e-002, 3.48524489e-002,
          1.86974276e-002, 6.64546415e-002, 1.70894980e-001,
          3.36269945e-001, 2.61272490e-001, 1.13788925e-001,
          4.64074537e-002, 2.46708598e-002, 2.43752431e-002, 0.,
          7.52654672e-002, 1.52835727e-001, 3.93996716e-001,
          2.24756852e-001, 1.82684958e-001, 4.87949029e-002,
          2.37605404e-002, 6.80964114e-003, 0., 4.98513356e-002,
          4.63642851e-002, 1.21950306e-001, 2.06371948e-001,
          1.08261526e-001, 1.36921346e-001, 1.82135880e-001,
          9.42940861e-002, 9.50104818e-002, 7.55508170e-002,
          1.94440782e-001, 2.56505996e-001, 2.63310194e-001,
          1.32650971e-001, 3.53271812e-002, 1.58403553e-002,
          2.96614505e-003, 0., 7.47769997e-002, 1.04671046e-001,
          3.01732868e-001, 2.27759510e-001, 2.67599106e-001,
          3.46656442e-001, 3.02687109e-001, 1.43774167e-001,
          2.64772475e-002, 2.42444873e-002, 9.66414884e-002,
          3.05124640e-001 ]
      - [ 2.73996383e-001, 1.78565726e-001, 4.94795367e-002,
          1.95353702e-002, 2.81428639e-002, 1.05245728e-002,
          1.79010369e-002, 3.36811543e-002, 8.85769501e-002,
          1.60201579e-001, 7.27621764e-002, 1.19542722e-002,
          6.78475201e-003, 1.46103380e-002, 1.27611728e-002,
          4.33800966e-002, 2.38287985e-001, 4.10939455e-001,
          4.01396990e-001, 2.31713280e-001, 9.44277421e-002,
          1.92977358e-002, 5.72424568e-002, 5.97765204e-003,
          3.90461460e-002, 4.37595360e-002, 1.58390924e-001,
          2.09772199e-001, 5.07400110e-002, 2.84372512e-002,
          1.01771289e-002, 1.70263853e-002, 1.49441289e-003,
          3.44167487e-003, 3.13222140e-001, 4.63120222e-001,
          1.04056805e-001, 2.92111468e-002, 9.58566088e-003,
          4.39927168e-003, 2.28937287e-002, 5.64322248e-003,
          1.79386046e-002, 1.89089730e-001, 4.42584485e-001,
          3.13512176e-001, 1.01772659e-001, 1.84199726e-003, 0.,
          2.44367830e-002, 0., 2.95075565e-003, 9.10981521e-002,
          3.07850569e-001, 6.64431155e-002, 1.23190526e-002,
          1.43784918e-002, 6.59890799e-003, 2.16290522e-002, 0., 0.,
          2.92561263e-001, 4.49494123e-001, 3.23178977e-001,
          8.07309449e-002, 6.13316987e-003, 0., 3.83832678e-002, 0., 0.,
          1.16915151e-001, 3.46139610e-001, 2.63798535e-001,
          8.31975415e-002, 0., 0., 1.69095043e-002, 8.14422499e-003,
          4.39464562e-002, 1.30897194e-001, 1.90380991e-001,
          8.07743222e-002, 2.45952327e-002, 1.51273673e-002,
          2.23676190e-002, 6.52635396e-002, 1.08719759e-001,
          2.34452382e-001, 4.67870474e-001, 2.43281633e-001,
          3.51221502e-001, 2.15477824e-001, 6.48735138e-003, 0.,
          2.95364633e-002, 0., 3.05024046e-003, 4.44757752e-002,
          1.39828593e-001, 2.20204458e-001, 3.81722689e-001,
          1.63006365e-001, 1.38890073e-001, 6.19218536e-002,
          8.86247307e-002, 1.06766917e-001, 1.80111811e-001,
          1.35370433e-001 ]
      - [ 4.80466634e-001, 7.80915990e-002, 1.78016704e-002,
          2.82999570e-003, 1.13897705e-002, 1.47456315e-003,
          1.28990039e-002, 1.68687738e-002, 2.35602707e-001,
          5.49238384e-001, 2.68715560e-001, 7.27915997e-003,
          1.88666373e-003, 1.18372515e-002, 1.56598967e-002,
          3.48683596e-002, 4.38894965e-002, 9.47807506e-002,
          2.70519912e-001, 1.06871083e-001, 4.49888892e-002, 0.,
          5.31162955e-002, 0., 3.22836637e-002, 4.21415679e-002,
          2.08302706e-001, 2.55480945e-001, 1.62723422e-001,
          2.21608300e-002, 0., 3.72257270e-002, 2.34898478e-002,
          1.17377542e-001, 2.28021398e-001, 1.38234422e-001,
          4.62634414e-001, 1.86352685e-001, 9.06177447e-004, 0.,
          5.87226031e-003, 8.00594315e-003, 1.52308578e-002,
          2.07223073e-002, 1.04364172e-001, 4.63027000e-001,
          8.91205966e-002, 4.68886131e-003, 0., 4.75185039e-003, 0.,
          1.72794133e-003, 3.48344631e-002, 3.90143871e-001,
          1.94450289e-001, 1.12958334e-001, 1.09153811e-003, 0.,
          1.74656343e-002, 1.20089157e-002, 5.25702387e-002,
          9.78218094e-002, 1.54896900e-001, 2.04390317e-001,
          6.60497919e-002, 1.36176459e-002, 0., 2.77858470e-002,
          5.68476599e-003, 1.67415179e-002, 1.28269851e-001,
          4.56011862e-001, 3.78978163e-001, 1.50418371e-001,
          7.77539536e-002, 6.31391350e-003, 5.99932671e-003,
          2.69931159e-003, 9.18528531e-003, 3.69092189e-002,
          2.72746146e-001, 2.93774277e-001, 3.81985307e-001,
          2.56194979e-001, 4.27775569e-002, 3.28910090e-002,
          4.04896773e-003, 2.14015413e-002, 2.73599699e-002,
          1.26783520e-001, 1.27770841e-001, 3.11121531e-002,
          2.38059200e-002, 4.20927443e-003, 5.19031435e-002,
          2.48678941e-002, 3.51728462e-002, 1.59226120e-001,
          4.16336179e-001, 2.49135509e-001, 1.70404956e-001,
          6.73481449e-002, 2.85183694e-002, 1.19705290e-001,
          1.99527331e-002, 4.15456258e-002, 1.08823486e-001,
          2.88219213e-001 ]
      - [ 7.22868890e-002, 1.63620010e-001, 2.06481352e-001,
          2.44365558e-001, 1.71338305e-001, 1.53511047e-001,
          6.03280887e-002, 1.92753896e-002, 3.11539490e-002,
          1.30736157e-001, 2.42176041e-001, 2.58337617e-001,
          1.23313807e-001, 9.93712172e-002, 7.67208934e-002,
          6.53607696e-002, 2.73379367e-002, 9.26785246e-002,
          8.36603791e-002, 4.26597036e-002, 7.25819841e-002,
          1.59775585e-001, 1.33628055e-001, 2.63565093e-001,
          2.63565093e-001, 2.63565093e-001, 5.65805472e-002,
          2.63565093e-001, 2.63565093e-001, 2.63565093e-001,
          8.83715525e-002, 5.76826073e-002, 1.42846420e-001,
          1.81558236e-001, 2.63565093e-001, 8.13426971e-002,
          1.05841048e-001, 2.90579706e-001, 1.81573063e-001,
          5.06263413e-002, 4.32833210e-002, 1.22193173e-002,
          1.87630579e-002, 5.83394105e-003, 7.99023360e-002,
          1.60435915e-001, 3.62608939e-001, 2.92874962e-001,
          6.47668466e-002, 1.79241132e-002, 4.65899855e-002,
          6.05790541e-002, 6.41497448e-002, 2.62430664e-002,
          1.71560541e-001, 3.62608939e-001, 3.62608939e-001,
          3.19393389e-002, 1.47481477e-002, 1.16622197e-002,
          1.84585396e-002, 2.47957632e-002, 4.11502086e-002,
          1.45997852e-001, 3.62608939e-001, 3.62608939e-001,
          2.53279526e-002, 1.43259261e-002, 1.20064113e-002,
          4.96208742e-002, 1.16696090e-001, 2.16643997e-002,
          1.18357517e-001, 1.94083288e-001, 1.07273683e-001,
          5.81433512e-002, 4.54362035e-002, 6.38822913e-002,
          1.18954137e-001, 1.37944981e-001, 2.51725130e-002,
          2.80938670e-002, 3.05881444e-002, 1.47296395e-002,
          1.43488079e-001, 3.14299464e-001, 1.49881721e-001,
          1.14164196e-001, 9.18483809e-002, 4.71598245e-002,
          8.36762488e-002, 2.44218618e-001, 1.50208309e-001,
          2.39947718e-002, 2.32810788e-002, 1.01868257e-001,
          2.74527043e-001, 2.98604429e-001, 8.01526979e-002,
          5.23305237e-002, 3.03529892e-002, 1.76971868e-001,
          2.10626379e-001, 3.14299464e-001, 1.78651139e-001,
          3.14299464e-001, 2.50517458e-001, 2.82172859e-001 ]
      - [ 1.32685080e-002, 1.40164793e-001, 2.04577178e-001,
          1.61534280e-001, 2.77392775e-001, 1.26361817e-001,
          1.24680623e-001, 5.65832481e-002, 3.08198459e-003,
          6.63120896e-002, 2.72961706e-001, 2.08619133e-001,
          9.03553888e-002, 1.42912954e-001, 1.04537085e-001,
          1.30010381e-001, 1.44252241e-001, 4.62945215e-002,
          3.24657336e-002, 3.62576102e-003, 2.45627388e-002,
          5.78034222e-002, 2.31555164e-001, 1.65916339e-001,
          2.81397551e-001, 2.81397551e-001, 6.68081492e-002,
          2.81397551e-001, 2.09950134e-001, 3.63646075e-002,
          3.89492959e-002, 8.94902796e-002, 6.74271062e-002,
          2.23460928e-001, 2.81397551e-001, 2.81397551e-001,
          5.56124188e-002, 2.68797904e-001, 1.99587986e-001,
          1.68349985e-002, 3.53207551e-002, 3.75457779e-002,
          2.88656391e-002, 5.72445989e-002, 3.20036151e-002,
          4.30130921e-002, 3.58421087e-001, 3.58421087e-001,
          3.05061955e-002, 2.82709692e-002, 1.34901758e-002,
          1.24949054e-003, 3.39964963e-003, 3.37198470e-003,
          3.18962604e-001, 3.58421087e-001, 2.27100268e-001,
          9.43272375e-003, 2.30387766e-002, 6.60780119e-003,
          3.21967714e-002, 1.12072513e-001, 1.62671164e-001,
          1.70319036e-001, 3.58421087e-001, 3.58421087e-001,
          1.76346805e-002, 4.83798981e-002, 4.60654171e-003,
          1.42218731e-003, 1.39924865e-002, 3.36991698e-002,
          6.67123497e-002, 3.09312046e-001, 3.09312046e-001,
          8.79923031e-002, 1.01989985e-001, 4.02172618e-002,
          5.90586402e-002, 4.19374509e-003, 9.11192223e-002,
          4.67961617e-002, 1.33158654e-001, 1.65529981e-001,
          1.38006970e-001, 3.09312046e-001, 2.19706431e-001,
          1.28647193e-001, 1.08986655e-002, 1.88648537e-001,
          9.96888280e-002, 2.67324805e-001, 3.09312046e-001,
          5.55803329e-002, 2.11878181e-001, 4.41764630e-002,
          6.62862360e-002, 2.53965184e-002, 9.56140459e-002,
          1.33065686e-001, 1.22528769e-001, 1.49158359e-001,
          1.02050409e-001, 3.09312046e-001, 1.87958077e-001,
          1.63018063e-001, 7.99419582e-002, 1.90874040e-001 ]
      - [ 7.11544277e-003, 1.29324481e-001, 2.46804655e-001,
          1.77584335e-001, 2.39803061e-001, 1.45665362e-001,
          7.77465850e-002, 3.40735950e-002, 1.38253272e-002,
          6.77867010e-002, 2.12311625e-001, 2.77270198e-001,
          9.04216319e-002, 1.26815185e-001, 1.24968015e-001,
          9.56004113e-002, 8.32526386e-002, 8.18029642e-002,
          1.03688976e-002, 6.15829043e-003, 3.95423584e-002,
          7.34671503e-002, 2.05722451e-001, 2.51438141e-001,
          2.77270198e-001, 2.03903168e-001, 1.13466032e-001,
          2.77270198e-001, 1.42681032e-001, 9.94273648e-002,
          4.79752868e-002, 9.49933603e-002, 1.40121207e-001,
          2.77270198e-001, 2.77270198e-001, 2.77270198e-001,
          5.87622821e-002, 1.95539176e-001, 2.04287156e-001,
          2.20569782e-002, 3.53216939e-002, 4.18841690e-002,
          2.58190911e-002, 2.76339389e-002, 4.97284532e-002,
          3.05674393e-002, 3.54421973e-001, 3.54421973e-001,
          3.27685140e-002, 1.83552876e-002, 3.54114687e-003,
          2.47959606e-003, 9.61535983e-003, 6.52651768e-003,
          3.36745650e-001, 3.54421973e-001, 3.36670727e-001,
          4.91715260e-002, 2.78035328e-002, 2.65558902e-002,
          4.27484028e-002, 6.25610203e-002, 1.63653255e-001,
          9.14485455e-002, 3.54421973e-001, 3.54421973e-001,
          5.57429492e-002, 1.99893843e-002, 2.92693707e-003,
          2.18956309e-004, 7.25564663e-004, 5.33122895e-003,
          9.08521786e-002, 3.11647683e-001, 3.11647683e-001,
          6.97544441e-002, 1.13698669e-001, 1.60274245e-002,
          5.24184108e-002, 9.87483654e-003, 6.45804927e-002,
          1.16420120e-001, 1.52631402e-001, 1.17127188e-001,
          1.53492674e-001, 3.11647683e-001, 2.11619616e-001,
          1.12993523e-001, 1.10439863e-002, 1.22338474e-001,
          3.32987383e-002, 3.11647683e-001, 3.11647683e-001,
          6.31934330e-002, 2.04173714e-001, 5.82433976e-002,
          4.49693576e-002, 3.70710306e-002, 3.20839733e-002,
          8.03512260e-002, 1.36003047e-001, 1.29203245e-001,
          1.72468290e-001, 3.11647683e-001, 2.76613027e-001,
          7.69702941e-002, 1.31921113e-001, 9.06130821e-002 ]
      - [ 7.93308392e-002, 1.35695532e-001, 8.17526802e-002,
          1.05394349e-001, 1.44513622e-001, 6.29280433e-002,
          2.33929127e-001, 2.59005904e-001, 9.79472697e-002,
          1.11338221e-001, 1.46118104e-001, 5.99437989e-002,
          2.20627282e-002, 6.92869574e-002, 1.98510177e-002,
          6.95149153e-002, 1.84656873e-001, 1.46784335e-001,
          7.78921619e-002, 1.65873254e-003, 0., 1.02668488e-002,
          6.31541163e-002, 4.06143516e-002, 3.17820311e-001,
          3.17820311e-001, 2.46025875e-001, 3.17820311e-001,
          3.11050087e-001, 7.95002803e-002, 5.51568111e-003,
          1.41838975e-002, 8.13786499e-003, 1.17571555e-001,
          3.17820311e-001, 3.17820311e-001, 8.81893039e-002,
          2.29432806e-001, 1.15262277e-001, 9.14065354e-003,
          4.39820476e-002, 4.49640229e-002, 5.03277890e-002,
          4.60038334e-002, 7.06456900e-002, 1.02047041e-001,
          4.13001776e-001, 2.91908294e-001, 2.87844567e-003,
          3.92210707e-002, 3.15789804e-002, 2.30398718e-002,
          1.57562066e-002, 4.86899763e-002, 2.91329384e-001,
          4.13001776e-001, 2.01864645e-001, 2.15338729e-003,
          1.17910597e-002, 1.37226032e-002, 3.40840705e-002,
          4.17499021e-002, 1.55534729e-001, 1.70556426e-001,
          4.13001776e-001, 3.31995308e-001, 2.41207052e-003,
          1.33308256e-002, 8.71201791e-003, 1.26286279e-002,
          3.25685856e-003, 5.17045781e-002, 9.36634243e-002,
          3.54252458e-001, 3.04027557e-001, 4.57816338e-003,
          6.51622424e-003, 2.64179846e-003, 8.35801382e-003,
          4.23731003e-003, 9.66937374e-003, 1.76183149e-001,
          3.54252458e-001, 2.13215753e-001, 7.03632757e-002,
          1.41815513e-001, 8.05531219e-002, 7.23479688e-002,
          3.19000147e-002, 1.09958798e-001, 9.63641405e-002,
          3.54252458e-001, 2.46045589e-001, 2.41681524e-002,
          1.19387414e-002, 2.07383856e-002, 1.72300693e-002,
          6.35596598e-003, 2.09176708e-002, 9.32706818e-002,
          2.44870663e-001, 1.29735515e-001, 2.99144000e-001,
          3.54252458e-001, 1.12937674e-001, 7.53430501e-002,
          2.79036798e-002, 2.61325072e-002 ]
      - [ 5.41821718e-002, 5.17099909e-002, 2.57713497e-001,
          3.22218955e-001, 1.98943064e-001, 1.37384191e-001,
          4.40865494e-002, 2.29035504e-002, 3.90214473e-002,
          7.82021731e-002, 2.87353516e-001, 1.19650170e-001,
          5.25839888e-002, 7.92367235e-002, 2.94309203e-002,
          1.57983284e-002, 1.58792585e-002, 5.01514412e-002,
          1.75669789e-001, 1.41866267e-001, 9.85125378e-002,
          1.00704268e-001, 1.34031564e-001, 1.55437812e-001,
          2.59340286e-001, 2.64978558e-001, 2.58491963e-001,
          3.28763098e-001, 3.28763098e-001, 2.57054090e-001,
          1.11900941e-002, 5.47094345e-002, 1.36567708e-002,
          2.24451553e-002, 5.97882643e-002, 1.88714519e-001,
          1.04046315e-001, 3.85580271e-001, 1.36923909e-001, 0.,
          5.63242333e-003, 1.55360531e-003, 2.52683903e-003,
          3.33545380e-003, 2.92013623e-002, 2.01293319e-001,
          3.98357451e-001, 2.39753306e-001, 0., 3.95684876e-003,
          1.42129976e-003, 4.57045564e-004, 3.92624934e-004,
          1.76958777e-002, 2.16082707e-001, 3.98357451e-001,
          2.17866942e-001, 0., 2.21473686e-002, 3.01324250e-003,
          5.21609618e-004, 2.03057309e-003, 2.83937305e-002,
          2.22764060e-001, 3.98357451e-001, 3.11447412e-001, 0.,
          6.59544393e-003, 2.00882810e-003, 2.54557119e-004,
          6.69642759e-004, 1.82396863e-002, 1.81158990e-001,
          3.63488615e-001, 1.96089700e-001, 0., 7.32591189e-003,
          5.71776321e-003, 6.43909909e-003, 2.56427703e-003,
          4.40067351e-002, 2.40971938e-001, 3.63488615e-001,
          1.06561854e-001, 7.69091537e-003, 1.48651555e-001,
          1.05615161e-001, 9.27027836e-002, 5.52382180e-003,
          1.64647892e-001, 1.38718918e-001, 3.63488615e-001,
          2.59369880e-001, 1.58079993e-002, 6.52797818e-002,
          1.06990831e-002, 1.64677035e-002, 1.02252234e-002,
          2.19123214e-002, 8.89776871e-002, 2.68532217e-001,
          8.21601301e-002, 2.16326877e-001, 3.63488615e-001,
          1.30985990e-001, 9.19450447e-002, 1.47743728e-002,
          6.82907254e-002 ]
      - [ 3.15893665e-002, 8.37546811e-002, 3.44123334e-001,
          1.30849689e-001, 1.47132814e-001, 5.33186309e-002,
          4.72663380e-002, 2.10533943e-002, 1.25971194e-002,
          5.83487600e-002, 2.68621027e-001, 3.15115571e-001,
          5.65649495e-002, 1.08176030e-001, 8.26408565e-002,
          3.45479622e-002, 1.59905851e-002, 4.17861482e-003,
          5.02554029e-002, 7.23996758e-002, 3.46069664e-001,
          1.06562480e-001, 2.00465575e-001, 1.07190043e-001,
          2.93238074e-001, 7.15193301e-002, 7.95587301e-002,
          8.41089934e-002, 3.50145966e-001, 3.50145966e-001,
          2.40109891e-001, 1.25851318e-001, 4.80912924e-002,
          6.19901307e-002, 5.16172238e-002, 7.05383494e-002,
          6.97609261e-002, 3.26708913e-001, 2.53263474e-001,
          1.10001918e-002, 2.28349790e-002, 2.01639831e-002,
          3.70599562e-003, 7.83457886e-004, 2.40656198e-003,
          8.47613439e-002, 3.63956660e-001, 3.57986599e-001,
          2.52637104e-003, 2.86040921e-003, 6.75607997e-004, 0.,
          6.98633492e-004, 7.64198368e-003, 8.63914862e-002,
          3.63956660e-001, 3.63956660e-001, 6.73848242e-002,
          4.54155318e-002, 8.80948640e-003, 1.11609034e-003,
          9.91612393e-003, 1.01537239e-002, 8.48270357e-002,
          3.63956660e-001, 3.63956660e-001, 4.41341981e-004,
          1.57390460e-002, 0., 0., 0., 4.62917844e-003, 9.12077576e-002,
          3.50201964e-001, 3.01455587e-001, 1.13803675e-004,
          1.23828854e-002, 3.14525212e-003, 1.06930705e-002,
          5.95810066e-004, 4.03043032e-002, 1.41290337e-001,
          3.50201964e-001, 1.44525900e-001, 1.58020575e-002,
          1.52820736e-001, 8.41400325e-002, 9.46848765e-002,
          4.25577983e-002, 1.49503455e-001, 4.88095134e-002,
          3.50201964e-001, 3.15217197e-001, 1.07157780e-002,
          3.92903276e-002, 1.25810048e-002, 1.60396080e-002,
          7.11649074e-004, 1.98214035e-002, 4.14335504e-002,
          2.62144387e-001, 1.35799021e-001, 5.93244731e-002,
          3.50201964e-001, 2.87395298e-001, 1.24756381e-001,
          1.18586896e-002, 7.25764111e-002 ]
      - [ 6.39542863e-002, 9.12854224e-002, 3.60668600e-001,
          1.10372305e-001, 1.30667642e-001, 4.72771265e-002,
          5.59439920e-002, 2.88117025e-002, 3.81254777e-002,
          2.41926964e-002, 2.66225815e-001, 2.02861443e-001,
          6.10202737e-002, 6.61715195e-002, 2.54542977e-002,
          2.62215771e-002, 1.31520918e-002, 1.28512997e-002,
          8.69094878e-002, 1.73847273e-001, 1.92907602e-001,
          6.64092004e-002, 1.47973537e-001, 2.37212628e-002,
          2.70732790e-001, 3.09380531e-001, 1.40955359e-001,
          8.85482356e-002, 4.41408604e-001, 4.23631907e-001,
          1.22437635e-002, 8.06484371e-002, 2.10780790e-003,
          1.98905561e-002, 7.44420439e-002, 9.11564231e-002,
          2.42771544e-002, 3.36214334e-001, 1.48626223e-001,
          4.13163658e-003, 1.37426360e-002, 3.50875198e-003,
          8.65514018e-003, 2.23424286e-003, 1.68981263e-003,
          2.81555168e-002, 4.21685368e-001, 2.85759509e-001,
          2.28855060e-003, 1.50975371e-002, 0., 2.60987435e-003,
          8.40014138e-004, 0., 3.61785032e-002, 4.21685368e-001,
          3.52638990e-001, 3.39625723e-004, 3.48530971e-002,
          4.79632959e-004, 1.85948727e-003, 6.06164453e-004,
          1.76312996e-003, 3.09722684e-002, 4.21685368e-001,
          3.39904428e-001, 4.48110001e-003, 1.38966320e-002, 0.,
          1.49502268e-003, 4.46384121e-003, 2.22759065e-003,
          5.13988622e-002, 4.03723955e-001, 3.02085459e-001,
          5.01274411e-003, 3.65621038e-002, 1.74311101e-002,
          3.21128406e-002, 4.00199816e-002, 5.95994703e-002,
          6.43002689e-002, 1.31919429e-001, 1.24681711e-001,
          1.73292831e-002, 2.00787500e-001, 2.04026073e-001,
          1.64551631e-001, 1.86003655e-001, 9.87486616e-002,
          3.97391096e-002, 3.95239323e-001, 2.34892726e-001,
          1.60075594e-002, 6.24897927e-002, 4.17079218e-002,
          1.97579470e-002, 2.40036882e-002, 3.50769907e-002,
          9.55315754e-002, 7.13748783e-002, 8.33814815e-002,
          1.68425702e-002, 3.71311873e-001, 3.19928288e-001,
          1.90400898e-001, 1.02529570e-001, 1.04693107e-001 ]
      - [ 1.11165874e-001, 1.38104588e-001, 1.08120449e-001,
          9.62593928e-002, 8.12316835e-002, 2.60128044e-002,
          5.35864085e-002, 1.02734685e-001, 2.19083168e-002,
          5.71219400e-002, 2.72688806e-001, 1.67636439e-001,
          5.65211624e-002, 8.11524019e-002, 6.05911948e-002,
          2.63262577e-002, 2.20022984e-002, 1.51417749e-002,
          2.89091438e-001, 1.65265158e-001, 5.45467846e-002,
          4.02219826e-003, 1.17173292e-001, 4.96045500e-002,
          6.60458282e-002, 2.93595612e-001, 2.84845680e-001,
          3.22488427e-001, 4.27420348e-001, 3.95483196e-001,
          2.67992094e-002, 8.91010687e-002, 1.30820489e-002,
          1.36984931e-002, 1.00091308e-001, 1.94130525e-001,
          3.47336531e-002, 3.15485299e-001, 1.06864907e-001,
          1.07124662e-002, 1.20711559e-002, 1.08240796e-002,
          2.84958677e-003, 9.73079167e-003, 1.07647525e-002,
          9.77642536e-002, 4.36118186e-001, 2.23853678e-001,
          4.77265334e-003, 9.14715417e-003, 0., 1.50075753e-003,
          6.48719398e-003, 7.70386495e-003, 6.19912744e-002,
          4.36118186e-001, 2.99428016e-001, 1.88236274e-002,
          5.13535291e-002, 2.49974872e-003, 5.62784146e-004,
          7.57101970e-003, 1.96619723e-002, 5.42020649e-002,
          4.36118186e-001, 3.89142871e-001, 1.46715473e-002,
          2.92439256e-002, 0., 2.03376287e-003, 4.71142586e-003,
          2.31974199e-003, 1.32809937e-001, 3.84999901e-001,
          2.38527760e-001, 1.33070443e-003, 1.27450330e-002,
          1.53417792e-003, 3.15211574e-003, 0., 2.65368680e-003,
          1.38912529e-001, 3.84999901e-001, 2.27896869e-001,
          5.44571923e-003, 1.86736017e-001, 1.50192782e-001,
          7.49482214e-002, 5.50292544e-002, 2.00891532e-002,
          4.00179848e-002, 3.84999901e-001, 2.76262760e-001,
          5.93372667e-003, 2.68983729e-002, 4.79738694e-003,
          8.80292524e-003, 5.40240621e-003, 8.18188244e-004,
          5.44210002e-002, 2.23149985e-001, 1.31628960e-001,
          1.40346782e-002, 3.84999901e-001, 1.90624207e-001,
          6.97987750e-002, 1.74879767e-002, 1.37224728e-002 ]
      - [ 5.97183146e-002, 9.45644751e-002, 3.25082600e-001,
          1.44691184e-001, 8.28200281e-002, 1.06414981e-001,
          8.65836143e-002, 3.46006528e-002, 3.92396972e-002,
          1.10343181e-001, 2.61607826e-001, 1.11581430e-001,
          4.69072498e-002, 4.23362441e-002, 2.38765515e-002,
          1.32729281e-002, 1.10459477e-002, 4.10916470e-002,
          2.46845469e-001, 1.50730550e-001, 1.37545064e-001,
          3.60537916e-002, 6.33815154e-002, 1.18152440e-001,
          2.16487736e-001, 2.49445289e-001, 2.76897371e-001,
          4.33590174e-001, 4.33590174e-001, 1.30232647e-001,
          5.26938355e-003, 1.53344925e-002, 4.33038501e-003,
          3.03105284e-002, 4.33544442e-002, 1.57680169e-001,
          1.01791404e-001, 3.31947982e-001, 9.52643082e-002,
          2.96312710e-003, 4.84604575e-003, 2.60789134e-003,
          2.48269318e-003, 4.85888589e-003, 2.08981857e-002,
          1.39574960e-001, 4.67243016e-001, 1.54553398e-001,
          1.97541760e-003, 2.63570528e-003, 1.36048277e-003,
          1.03019667e-003, 2.85240309e-003, 2.21926551e-002,
          2.26606175e-001, 4.67243016e-001, 1.75701246e-001,
          1.18525047e-002, 1.24162305e-002, 0., 7.00200023e-003,
          4.54878854e-003, 8.88375193e-003, 1.56271189e-001,
          4.67243016e-001, 2.42998570e-001, 1.04430579e-002,
          9.66676883e-003, 0., 0., 0., 5.90073271e-003, 1.49066895e-001,
          4.32359785e-001, 1.17213048e-001, 3.78041877e-003,
          6.98045082e-003, 0., 0., 1.87995704e-003, 2.10356694e-002,
          1.82370543e-001, 4.32359785e-001, 1.26907155e-001,
          1.31957857e-002, 9.56485346e-002, 1.47301793e-001,
          7.70475417e-002, 9.48988125e-002, 8.68588611e-002,
          1.11468852e-001, 4.32359785e-001, 1.09954610e-001,
          1.92251131e-002, 1.57797933e-002, 0., 1.79242785e-003,
          2.87374947e-003, 1.93421897e-002, 1.19921386e-001,
          3.13907623e-001, 4.14946526e-002, 5.38089909e-002,
          2.77853310e-001, 2.24411368e-001, 1.10892870e-001,
          8.36210474e-002, 7.50144050e-002 ]
      - [ 1.00759462e-001, 1.76003695e-001, 3.65816683e-001,
          2.46873662e-001, 1.45844564e-001, 7.26299584e-002,
          7.07686618e-002, 5.69944791e-002, 7.14096501e-002,
          4.53983098e-002, 7.47518986e-002, 1.52412385e-001,
          1.20076716e-001, 1.05411336e-001, 8.96082446e-002,
          7.22070858e-002, 4.76807430e-002, 2.81219315e-002,
          7.91316330e-002, 8.91909301e-002, 2.06010669e-001,
          2.81738788e-001, 1.84741333e-001, 2.14487806e-001,
          2.21262157e-001, 1.42721564e-001, 1.76223800e-001,
          1.16428338e-001, 3.83996814e-001, 3.11855614e-001,
          8.59993398e-002, 8.19000676e-002, 7.66326413e-002,
          7.97604099e-002, 7.48400688e-002, 2.02228293e-001,
          4.16379198e-002, 1.59471527e-001, 1.14118315e-001,
          1.04525741e-002, 2.04927642e-002, 1.61226094e-002,
          1.21612828e-002, 1.20873302e-002, 5.04202582e-003,
          5.88977337e-002, 4.17284161e-001, 3.73623252e-001,
          9.78001580e-003, 1.32810771e-002, 0., 1.57550431e-003,
          9.76999663e-003, 3.63644795e-003, 6.94742575e-002,
          4.17284161e-001, 3.12363833e-001, 3.71573842e-003,
          4.53859009e-002, 4.52546403e-003, 4.49095247e-003,
          9.65332892e-003, 3.11762188e-002, 9.20649543e-002,
          4.17284161e-001, 4.17284161e-001, 2.44500395e-003,
          1.84918027e-002, 0., 3.47813853e-004, 1.50395336e-003,
          1.34323882e-002, 8.23903456e-002, 3.75217527e-001,
          3.63662273e-001, 1.39995851e-003, 8.60603712e-003,
          5.23233495e-004, 2.22754432e-003, 6.72296761e-003,
          2.71319645e-003, 2.08055839e-001, 3.75217527e-001,
          1.78025723e-001, 0., 3.81211005e-002, 1.46080151e-001,
          9.98597443e-002, 6.15503117e-002, 9.33332071e-002,
          5.38778864e-002, 3.75217527e-001, 3.59120637e-001,
          2.38975068e-003, 8.01417604e-003, 2.09293328e-003,
          2.86969333e-003, 3.82612110e-003, 7.04640942e-003,
          1.12283118e-001, 1.90952957e-001, 1.39393851e-001,
          8.15904327e-003, 7.73297176e-002, 2.93944269e-001,
          1.24305740e-001, 4.61404733e-002, 6.26159906e-002 ]
      - [ 4.53778654e-002, 2.58097261e-001, 3.41879934e-001,
          1.34926721e-001, 1.26149729e-001, 7.36849606e-002,
          6.47128969e-002, 4.61658724e-002, 8.94348547e-002,
          5.95839359e-002, 9.14792567e-002, 1.69797838e-001,
          7.43841454e-002, 1.78122610e-001, 6.85082749e-002,
          6.68749735e-002, 4.65971977e-002, 9.08671692e-002,
          3.62278745e-002, 8.25910941e-002, 2.79508293e-001,
          1.67063206e-001, 2.02081621e-001, 2.62885362e-001,
          3.41879934e-001, 1.62889645e-001, 5.90816848e-002,
          1.58425093e-001, 3.41879934e-001, 2.60577679e-001,
          7.13435560e-002, 1.13209933e-001, 1.00199655e-001,
          1.37437657e-001, 1.59121975e-001, 8.06346908e-002,
          6.21170029e-002, 1.69938505e-001, 3.08234580e-002,
          1.17656300e-002, 4.72866669e-002, 2.69378442e-002,
          1.69928167e-002, 1.15919830e-002, 1.99491773e-002,
          4.85429838e-002, 4.43206459e-001, 2.27552727e-001,
          2.46744696e-002, 1.35651268e-002, 1.77355316e-002,
          1.01314448e-002, 2.31078193e-002, 6.18768297e-003,
          1.22551769e-001, 4.43206459e-001, 2.93126285e-001,
          1.56903807e-002, 5.29738255e-002, 1.32821351e-002,
          4.69569769e-003, 2.60462780e-002, 4.50224951e-002,
          5.91349602e-002, 4.43206459e-001, 4.43206459e-001,
          6.97092563e-002, 2.52095684e-002, 1.13234185e-002,
          4.74590994e-003, 7.48082064e-003, 1.48397684e-002,
          6.16365038e-002, 3.66554916e-001, 3.55730921e-001,
          3.88788134e-002, 7.24612782e-003, 1.08470051e-002,
          2.49421247e-003, 8.50654580e-003, 3.20382006e-002,
          1.23531930e-001, 2.66449034e-001, 2.85218984e-001,
          5.19421436e-002, 5.45699298e-002, 1.89847440e-001,
          1.39247030e-001, 7.71532357e-002, 1.25064835e-001,
          4.14221287e-002, 3.66554916e-001, 3.66554916e-001,
          7.01300874e-002, 1.91703066e-002, 3.15812193e-002,
          1.49081359e-002, 3.04249697e-003, 9.96882562e-003,
          1.13152921e-001, 1.04737826e-001, 2.01817632e-001,
          2.63268407e-002, 5.48386276e-002, 2.61831522e-001,
          1.96715176e-001, 1.26564324e-001, 1.00040197e-001 ]
      - [ 6.83425739e-002, 1.46505132e-001, 3.39019716e-001,
          1.32548586e-001, 1.57231852e-001, 1.04557738e-001,
          1.09730124e-001, 6.11783750e-002, 3.54035124e-002,
          1.42920703e-001, 2.44903535e-001, 1.26793981e-001,
          7.26427063e-002, 2.82033924e-002, 2.39180643e-002,
          3.25114988e-002, 4.44691069e-002, 3.90454195e-002,
          1.40191555e-001, 8.12347233e-002, 6.47160262e-002,
          5.68496920e-002, 9.27394181e-002, 1.39449045e-001,
          3.68864030e-001, 3.68864030e-001, 1.40366510e-001,
          3.68864030e-001, 3.68864030e-001, 7.56422058e-002,
          1.71506722e-002, 7.44179962e-003, 8.12340621e-003,
          8.26795250e-002, 1.41988784e-001, 1.36024743e-001,
          1.06437005e-001, 3.67340654e-001, 7.44032115e-002,
          8.36221222e-003, 4.56997426e-003, 1.24434393e-003, 0.,
          6.14404259e-003, 1.44156814e-002, 1.16979793e-001,
          4.74570334e-001, 1.58541679e-001, 1.02905452e-003,
          5.85292466e-003, 0., 0., 0., 6.42545708e-003, 2.16489211e-001,
          4.74570334e-001, 1.06964305e-001, 1.02905452e-003,
          1.81476364e-003, 2.34361272e-003, 6.62992103e-003,
          1.53601030e-003, 1.72357410e-002, 2.23366216e-001,
          4.74570334e-001, 1.41392902e-001, 2.08624313e-003,
          3.15852114e-003, 0., 0., 0., 3.15735699e-003, 2.01984599e-001,
          3.89866948e-001, 1.28224626e-001, 0., 6.89033885e-003,
          3.33096110e-003, 4.93810605e-003, 1.69110559e-002,
          1.92545857e-002, 2.95880109e-001, 3.89866948e-001,
          5.13618067e-002, 1.24284476e-002, 5.63290641e-002,
          7.20064119e-002, 3.39249671e-002, 1.28127322e-001,
          1.51835263e-001, 1.66744456e-001, 3.89866948e-001,
          1.27213493e-001, 6.73096441e-003, 5.14830910e-002,
          1.66228414e-002, 6.96014473e-003, 1.82449948e-002,
          1.18437493e-002, 1.25184104e-001, 1.83684960e-001,
          6.36007637e-002, 5.34221902e-002, 3.89866948e-001,
          2.55332172e-001, 4.74873036e-002, 1.24889508e-001,
          6.31390959e-002 ]
      - [ 7.59002268e-002, 1.59488812e-001, 4.02214915e-001,
          1.85806260e-001, 1.17874593e-001, 7.98543245e-002,
          3.93656716e-002, 2.73595769e-002, 2.58262921e-002,
          6.97929785e-002, 3.50603014e-001, 1.85317129e-001,
          1.46011800e-001, 1.11253962e-001, 3.25998664e-002,
          7.90373888e-003, 1.66165084e-002, 1.43882064e-002,
          1.05221815e-001, 2.15774536e-001, 1.72588944e-001,
          1.21305041e-001, 1.10195436e-001, 1.32918715e-001,
          2.58370399e-001, 2.05675036e-001, 1.48083344e-001,
          1.57531366e-001, 4.04263973e-001, 2.74947971e-001,
          5.22200167e-002, 6.65314868e-002, 8.72985739e-003,
          3.93415391e-002, 6.57581612e-002, 8.89583677e-002,
          6.59449771e-002, 4.28463340e-001, 1.01150215e-001,
          1.40952235e-002, 2.18036361e-002, 0., 0., 1.31794356e-003,
          5.22021623e-003, 8.48727375e-002, 4.60465044e-001,
          1.63727045e-001, 1.34175236e-003, 6.02365518e-003, 0., 0.,
          1.97691540e-003, 3.33798560e-003, 7.00978190e-002,
          4.60465044e-001, 2.32135162e-001, 3.75569542e-003,
          3.54215913e-002, 4.18011216e-004, 2.55634804e-004, 0., 0.,
          1.26124963e-001, 4.60465044e-001, 2.24227294e-001,
          3.35438031e-004, 1.03802970e-002, 0., 1.82046741e-003,
          6.08368136e-004, 4.80440445e-003, 9.86962840e-002,
          4.32090282e-001, 1.99815735e-001, 5.80474734e-003,
          1.74441412e-002, 1.37381814e-002, 6.21002354e-003,
          3.19942250e-003, 3.24966647e-002, 1.37235552e-001,
          4.32090282e-001, 1.65957212e-001, 5.60045876e-002,
          1.16528280e-001, 5.66397682e-002, 5.03397956e-002,
          1.36486098e-001, 2.29746506e-001, 1.13304511e-001,
          4.32090282e-001, 1.50836900e-001, 1.45118684e-003,
          3.57281268e-002, 6.28594756e-002, 9.07230563e-003,
          3.08314362e-003, 1.98720843e-002, 6.94294199e-002,
          2.64895499e-001, 1.08265013e-001, 1.49741486e-001,
          1.61754146e-001, 1.88915581e-001, 6.04777671e-002,
          9.75750014e-002, 1.36242777e-001 ]
      - [ 4.98081706e-002, 1.55621141e-001, 3.22372496e-001,
          1.70383394e-001, 1.94147959e-001, 7.97188357e-002,
          1.06008656e-001, 4.06049974e-002, 5.37754707e-002,
          6.59662038e-002, 2.22602442e-001, 2.59142220e-001,
          7.69492835e-002, 9.29454267e-002, 3.17671299e-002,
          4.89182658e-002, 2.72311587e-002, 2.55024079e-002,
          1.34255916e-001, 9.16282460e-002, 1.48929656e-001,
          8.12166706e-002, 1.84830397e-001, 1.35087892e-001,
          2.02780113e-001, 2.76155114e-001, 1.82869658e-001,
          2.63373733e-001, 4.33189005e-001, 3.10851127e-001,
          1.81713961e-002, 6.65906817e-002, 2.61385851e-002,
          5.38992770e-002, 9.15533155e-002, 8.34766552e-002,
          5.73414341e-002, 2.95122087e-001, 1.43197849e-001,
          4.34736488e-003, 9.30233952e-003, 2.79569370e-003,
          1.22526539e-002, 2.30427412e-003, 1.36021152e-002,
          1.08510785e-001, 4.21267569e-001, 1.29211798e-001,
          1.74106041e-003, 2.79180915e-003, 2.71463580e-003,
          9.59909707e-003, 1.15211643e-002, 9.56262741e-003,
          2.79688329e-001, 4.21267569e-001, 2.14007318e-001,
          7.68518541e-004, 2.75641922e-002, 2.87250010e-003,
          2.03113332e-002, 7.12398672e-004, 3.51861492e-002,
          4.21267569e-001, 4.21267569e-001, 1.22116596e-001,
          1.16070686e-003, 6.35848101e-003, 1.91499991e-003,
          1.77574288e-002, 6.20273128e-003, 6.34100437e-002,
          9.97644067e-002, 4.26895589e-001, 1.15184955e-001,
          6.81755692e-003, 3.77190788e-003, 7.02959625e-003,
          1.29140532e-002, 3.85377370e-002, 1.55621972e-002,
          1.38701230e-001, 3.29124272e-001, 6.47603273e-002,
          4.54503810e-003, 1.47902900e-002, 7.84311518e-002,
          1.64281845e-001, 1.58467740e-001, 1.47305027e-001,
          2.54789770e-001, 4.26895589e-001, 1.12857528e-001,
          4.54503810e-003, 8.64883978e-003, 2.57478300e-002,
          1.57448668e-002, 3.53750326e-002, 3.68070565e-002,
          8.42576176e-002, 2.47152910e-001, 6.44131824e-002,
          3.03002493e-003, 6.96640089e-002, 3.78884971e-001,
          2.62746692e-001, 1.37417138e-001, 6.44271150e-002 ]
      - [ 4.01181243e-002, 1.76071197e-001, 3.73717040e-001,
          1.06856123e-001, 9.14390683e-002, 4.01514918e-002,
          4.21997532e-002, 2.77339742e-002, 5.03394306e-002,
          4.47894000e-002, 1.36239618e-001, 1.90893576e-001,
          3.87835838e-002, 3.70566845e-002, 4.08598706e-002,
          8.84760022e-002, 1.17516242e-001, 8.22925344e-002,
          1.81331366e-001, 1.36204287e-001, 1.39923200e-001,
          7.69187734e-002, 2.33168200e-001, 2.64063776e-001,
          2.33267486e-001, 1.81382164e-001, 7.62020126e-002,
          2.65152156e-001, 3.73717040e-001, 3.73717040e-001,
          6.72807246e-002, 7.38502964e-002, 5.53333499e-002,
          1.18052386e-001, 1.64392829e-001, 9.88331512e-002,
          6.38809707e-003, 5.86902648e-002, 2.67698646e-001,
          3.39158252e-002, 1.57812461e-002, 2.85265949e-002,
          3.11813410e-002, 7.40911737e-002, 4.02014256e-002,
          1.59123149e-002, 2.99311817e-001, 4.02391762e-001,
          3.55588794e-002, 8.89679044e-003, 1.72850564e-002,
          4.97673219e-003, 3.16148549e-002, 3.11488975e-002,
          4.06099036e-002, 4.02391762e-001, 4.02391762e-001,
          4.32606414e-002, 2.76958700e-002, 8.10157321e-003,
          1.77391171e-002, 2.91492026e-002, 1.96842216e-002,
          7.65895750e-003, 4.02391762e-001, 4.02391762e-001,
          3.66274491e-002, 1.04835257e-002, 2.96906359e-003,
          1.56411994e-003, 4.01786668e-003, 5.00076311e-003,
          4.90456894e-002, 3.58791202e-001, 3.58791202e-001,
          2.28793602e-002, 1.14746867e-002, 1.80468510e-003,
          7.05885375e-003, 5.51140215e-003, 3.62824090e-002,
          1.29994646e-001, 2.15134501e-001, 2.63718605e-001,
          8.85181800e-002, 1.22213759e-001, 5.15602343e-002,
          1.39318034e-001, 1.00626841e-001, 1.57460824e-001,
          1.64557993e-002, 3.58791202e-001, 3.58791202e-001,
          3.43226306e-002, 1.92134269e-002, 4.51171247e-004,
          8.32446665e-003, 5.31557295e-003, 2.15363652e-002,
          4.73413728e-002, 1.02966353e-001, 1.87921599e-001,
          2.24497288e-001, 3.58791202e-001, 1.30091965e-001,
          1.02366596e-001, 2.48640180e-002, 8.27858672e-002 ]
      - [ 5.06388508e-002, 2.59543985e-001, 2.70426869e-001,
          1.16596520e-001, 6.13908023e-002, 7.22720101e-002,
          6.87720552e-002, 8.23947713e-002, 3.57029215e-002,
          4.14590836e-002, 3.11268955e-001, 2.10057557e-001,
          4.56801765e-002, 2.30778921e-002, 1.88312009e-002,
          3.42052467e-002, 3.72521617e-002, 2.43576411e-002,
          2.38721281e-001, 1.99683636e-001, 5.55221401e-002,
          4.61688489e-002, 6.45036027e-002, 8.18714276e-002,
          1.42211065e-001, 3.33325297e-001, 2.35749975e-001,
          3.18897814e-001, 3.51758420e-001, 3.51758420e-001,
          4.65692990e-002, 3.06055862e-002, 8.54250882e-003,
          7.91466236e-003, 5.47359958e-002, 1.18081897e-001,
          1.79440062e-002, 3.32523823e-001, 2.17565402e-001,
          8.35138187e-003, 1.07631329e-002, 3.10812215e-003,
          1.34536512e-002, 1.19215706e-002, 3.07922740e-003,
          2.88744364e-002, 3.76673967e-001, 3.76673967e-001,
          3.34971282e-003, 6.83824345e-003, 1.19530677e-003,
          1.70322193e-003, 4.59417468e-003, 1.93649472e-003,
          8.36071670e-002, 3.76673967e-001, 3.59557807e-001,
          3.71815674e-002, 1.55440485e-002, 4.56627226e-004,
          1.43238180e-003, 2.70060031e-004, 5.85760036e-003,
          6.28554299e-002, 3.76673967e-001, 3.55136007e-001,
          1.38238771e-002, 1.86705068e-002, 1.95627403e-003, 0.,
          4.09069378e-003, 2.14675423e-002, 4.51744832e-002,
          3.46025079e-001, 3.46025079e-001, 1.20990900e-002,
          2.27082111e-002, 3.52737261e-003, 9.36143193e-003,
          4.94822487e-003, 3.95669937e-002, 7.98054785e-002,
          3.05048496e-001, 1.66287392e-001, 6.09783866e-002,
          3.10174495e-001, 1.49113178e-001, 1.86715245e-001,
          6.73969686e-002, 1.48708329e-001, 3.05147227e-002,
          3.46025079e-001, 2.58923054e-001, 4.76038307e-002,
          2.66015735e-002, 5.92956040e-003, 6.12115441e-003,
          1.66510101e-002, 4.36955653e-002, 4.41862419e-002,
          1.27621144e-001, 7.39344433e-002, 1.64838761e-001,
          3.46025079e-001, 2.15584189e-001, 1.53325617e-001,
          4.42117900e-002, 8.02381486e-002 ]
      - [ 1.39974654e-001, 6.12025335e-002, 2.11051032e-002,
          1.17299154e-001, 1.97910279e-001, 1.98677972e-001,
          6.33646175e-002, 1.25585958e-001, 1.63423821e-001,
          3.03300828e-001, 3.03300828e-001, 7.37632886e-002,
          1.81703009e-002, 4.98735346e-002, 1.68754995e-001,
          3.55694927e-002, 1.00087628e-001, 2.34983012e-001,
          1.41175702e-001, 1.26058817e-001, 4.33979072e-002,
          1.07548222e-001, 1.99178338e-001, 1.93156749e-001,
          1.11139037e-001, 1.96560502e-001, 2.29205266e-001,
          3.03300828e-001, 3.03300828e-001, 1.23967193e-001,
          1.56597514e-002, 3.01258303e-002, 5.65083921e-002,
          8.45457315e-002, 1.37602478e-001, 2.95831263e-001,
          3.01862299e-001, 1.71966538e-001, 5.27517311e-002,
          5.47302142e-003, 1.59604028e-002, 1.20790027e-001,
          9.25740302e-002, 1.08159557e-001, 1.73716426e-001,
          2.05144048e-001, 3.43580060e-002, 1.72418505e-002,
          5.79628795e-002, 9.46415365e-002, 1.79036662e-001,
          1.31773740e-001, 2.10909501e-001, 1.80704921e-001,
          1.98705241e-001, 2.54985154e-001, 6.87324107e-002, 0.,
          2.68978458e-002, 8.21150988e-002, 2.55800962e-001,
          1.80864647e-001, 1.80637747e-001, 2.95891047e-001,
          3.93202491e-002, 1.90502927e-002, 1.33934580e-002,
          4.26891893e-002, 1.16018228e-001, 3.01862299e-001,
          3.01862299e-001, 3.01862299e-001, 1.82288706e-001,
          1.14740320e-001, 2.56960280e-003, 3.40779200e-002,
          8.88032466e-002, 1.30054399e-001, 6.67727068e-002,
          1.67683959e-001, 1.45847812e-001, 1.27449274e-001,
          1.04152970e-001, 1.49030657e-003, 1.72046740e-002,
          1.02043450e-001, 3.11539859e-001, 2.20930323e-001,
          1.21304497e-001, 6.49325550e-002, 3.11539859e-001,
          2.15105951e-001, 3.06724943e-002, 1.14297634e-002,
          2.95182262e-002, 4.92369793e-002, 1.07652113e-001,
          2.16787040e-001, 3.11539859e-001, 3.11539859e-001,
          3.04509550e-001, 1.85814589e-001, 1.17162362e-001,
          2.29924843e-001, 2.10284173e-001, 1.18381664e-001,
          6.55466095e-002, 1.06328674e-001 ]
      - [ 7.08963424e-002, 6.04527742e-002, 3.74933742e-002,
          1.48093268e-001, 2.87909567e-001, 1.38840273e-001,
          6.29205778e-002, 1.01273432e-001, 1.35341018e-001,
          2.96816945e-001, 2.96816945e-001, 9.07996297e-002,
          2.75805462e-002, 1.06591620e-001, 9.50661376e-002,
          8.21660087e-002, 7.15507492e-002, 1.50646314e-001,
          1.22698098e-001, 1.11749731e-001, 8.14390108e-002,
          1.23694517e-001, 2.55685776e-001, 2.11870864e-001,
          1.40406713e-001, 1.13921002e-001, 2.36109957e-001,
          2.96816945e-001, 2.96816945e-001, 2.55657703e-001,
          2.37517897e-002, 4.09099944e-002, 5.80100119e-002,
          8.43837559e-002, 1.05884925e-001, 2.76528388e-001,
          3.08960617e-001, 1.98825270e-001, 6.09157160e-002,
          1.74970254e-002, 4.08596508e-002, 1.17954455e-001,
          1.01869561e-001, 1.17193975e-001, 1.30580083e-001,
          1.51824251e-001, 5.64813130e-002, 3.05432212e-002,
          5.43075986e-002, 1.07729353e-001, 1.74706921e-001,
          1.94914356e-001, 1.64185882e-001, 2.21871629e-001,
          1.64277866e-001, 2.65610993e-001, 1.13356471e-001,
          2.08723769e-002, 2.69065667e-002, 9.40102413e-002,
          3.05309236e-001, 1.69100493e-001, 1.58461213e-001,
          1.94700018e-001, 6.54573888e-002, 4.68732528e-002,
          4.42430563e-002, 7.47386366e-002, 1.40428871e-001,
          3.08960617e-001, 2.91317880e-001, 3.08960617e-001,
          1.53034031e-001, 1.18395790e-001, 3.37141454e-002,
          3.42216007e-002, 9.67243984e-002, 8.40109661e-002,
          1.13592744e-001, 1.67852879e-001, 1.28216952e-001,
          1.15668945e-001, 1.04337461e-001, 2.67273169e-002,
          1.46259833e-002, 1.65330276e-001, 3.05223852e-001,
          1.81583077e-001, 1.48310542e-001, 2.85957474e-002,
          3.05223852e-001, 2.13823915e-001, 7.64437616e-002,
          7.85491094e-002, 6.51064515e-002, 4.02656682e-002,
          7.00118765e-002, 1.36431634e-001, 3.05223852e-001,
          3.05223852e-001, 2.87503719e-001, 1.05959758e-001,
          2.57745147e-001, 3.05223852e-001, 2.09508196e-001,
          5.01935557e-002, 9.95157361e-002, 7.35374987e-002 ]
      - [ 7.53211230e-002, 1.13573574e-001, 1.29296213e-001,
          1.32924065e-001, 2.70798475e-001, 1.11040473e-001,
          1.34248137e-001, 4.27817181e-002, 1.31669072e-002,
          2.70798475e-001, 2.70798475e-001, 2.70798475e-001,
          1.03101209e-001, 1.27728477e-001, 1.07919373e-001,
          1.59733862e-001, 8.59465599e-002, 9.02113616e-002,
          2.69380480e-001, 1.68673187e-001, 1.15623318e-001,
          5.81271946e-002, 2.70798475e-001, 3.86449583e-002,
          1.49469078e-001, 7.56391510e-002, 1.16121151e-001,
          2.70798475e-001, 2.70798475e-001, 2.70798475e-001,
          2.23370064e-002, 1.20473973e-001, 4.34312895e-002,
          1.48036584e-001, 1.19213581e-001, 1.78505510e-001,
          2.52060622e-001, 1.05179273e-001, 1.47249922e-001,
          5.35479151e-002, 6.37077317e-002, 2.00640455e-001,
          1.93949416e-001, 1.56233534e-001, 1.34159982e-001,
          2.15340167e-001, 1.15183920e-001, 3.57971936e-002,
          2.46164408e-002, 9.83965248e-002, 1.59114704e-001,
          1.91413179e-001, 1.57039389e-001, 1.99216083e-001,
          2.81861186e-001, 7.66227767e-002, 8.51503909e-002,
          8.57551023e-003, 6.20898381e-002, 9.74638984e-002,
          2.51168758e-001, 2.62249887e-001, 1.95659950e-001,
          2.81861186e-001, 2.14224622e-001, 3.32812779e-002,
          6.84476050e-004, 8.72396529e-002, 5.73887974e-002,
          1.87316135e-001, 2.19457969e-001, 2.81861186e-001,
          1.26302496e-001, 2.33302578e-001, 1.97739199e-001,
          8.64141211e-002, 1.63826808e-001, 4.89773378e-002,
          1.39634162e-001, 9.00164098e-002, 6.60429075e-002,
          1.73550639e-002, 1.36446789e-001, 2.86248654e-001,
          2.21548140e-001, 2.86248654e-001, 8.15469548e-002,
          2.13945642e-001, 5.47960289e-002, 3.62687651e-003,
          2.86248654e-001, 2.86248654e-001, 1.95029512e-001,
          4.10923027e-002, 9.87373069e-002, 1.51758475e-004,
          1.43497661e-002, 3.34449597e-002, 2.76264906e-001,
