%YAML:1.0
my_svm: !!opencv-ml-svm
   svm_type: C_SVC
   kernel: { type:RBF, gamma:8.9999999999999997e-002 }
   C: 100.
   term_criteria: { epsilon:2.2204460492503131e-016, iterations:3000 }
   var_all: 108
   var_count: 108
   class_count: 2
   class_labels: !!opencv-matrix
      rows: 1
      cols: 2
      dt: i
      data: [ 0, 1 ]
   sv_total: 9
   support_vectors:
      - [ 3.90237600e-001, 4.80024107e-002, 8.12454224e-002,
          9.42411087e-003, 9.87294689e-002, 1.25338227e-001,
          5.56986295e-002, 1.04219168e-001, 3.90237600e-001,
          3.90237600e-001, 8.85447487e-003, 6.55309251e-003,
          2.05548131e-003, 4.86361869e-002, 3.73061677e-003,
          1.36063946e-002, 2.64176801e-002, 3.90237600e-001,
          1.86559588e-001, 3.79005820e-003, 1.02602057e-002,
          2.48169117e-002, 3.67972776e-002, 5.90249784e-002,
          1.28860936e-001, 5.04600331e-002, 1.99476466e-001,
          3.64419490e-001, 5.15448302e-003, 1.65425111e-002,
          1.35027934e-002, 4.83983383e-002, 3.03512402e-002,
          4.54470180e-002, 1.33357299e-002, 3.11521620e-001,
          3.98984760e-001, 8.79376777e-004, 2.61534518e-003,
          1.23630092e-003, 1.68867558e-002, 3.15374666e-004,
          9.55102441e-004, 4.17724717e-003, 3.98984760e-001,
          3.98984760e-001, 2.19844165e-004, 4.84249118e-004, 0.,
          1.91083793e-002, 1.46663899e-003, 1.97922764e-003,
          6.78161904e-003, 3.98984760e-001, 2.86263853e-001,
          7.81320594e-003, 1.17785130e-002, 4.94520180e-003,
          1.88794322e-002, 8.49527493e-003, 5.62631618e-003,
          5.63563872e-003, 2.47513101e-001, 3.22680831e-001,
          1.31984977e-002, 1.23860193e-002, 0., 1.57500035e-003,
          5.86655410e-003, 1.03152283e-002, 1.38947740e-002,
          3.31384599e-001, 3.20504308e-001, 1.03763293e-003,
          3.69683933e-003, 1.09120263e-002, 4.01034579e-002,
          8.09543300e-003, 3.90905924e-002, 4.58405986e-002,
          3.20504308e-001, 3.20504308e-001, 1.55644957e-003,
          5.54525945e-003, 8.08706060e-002, 3.20504308e-001,
          1.12808980e-001, 1.61981151e-001, 1.47810698e-001,
          3.20504308e-001, 1.84513494e-001, 3.19881411e-003,
          1.07126525e-002, 5.87210581e-002, 8.11438709e-002,
          2.70237029e-002, 4.62732278e-002, 4.13871445e-002,
          1.88176394e-001, 8.46223757e-002, 5.07265329e-002,
          7.06134066e-002, 3.05606753e-001, 3.20504308e-001,
          1.10388897e-001, 2.33048379e-001, 9.36825573e-002,
          2.00126171e-001 ]
      - [ 4.17865843e-001, 6.15071729e-002, 3.88784669e-002, 0.,
          1.81452967e-002, 9.26856771e-002, 1.17492728e-001,
          9.11752731e-002, 3.10369313e-001, 4.17865843e-001,
          6.40640110e-002, 3.92602384e-003, 0., 3.09527176e-003,
          4.68762475e-004, 2.77648065e-002, 3.26954387e-002,
          4.17865843e-001, 1.84303313e-001, 3.08306850e-002,
          2.56359447e-002, 1.02637718e-002, 2.17328817e-002,
          4.19968553e-002, 7.14290589e-002, 5.36353737e-002,
          1.40904933e-001, 4.17865843e-001, 6.47802427e-002,
          1.88643150e-002, 8.57413560e-003, 1.70962252e-002,
          2.47861966e-002, 6.64269701e-002, 4.24446911e-002,
          2.85045922e-001, 3.91696721e-001, 2.00937595e-002,
          2.38047927e-004, 0., 3.91848106e-003, 0., 4.45417408e-003,
          2.84567219e-003, 3.91696721e-001, 3.91696721e-001,
          6.61250502e-002, 2.21495610e-003, 0., 7.25754583e-003, 0.,
          4.80312761e-003, 1.16453785e-002, 3.91696721e-001,
          2.95323551e-001, 4.27712761e-002, 1.12012429e-002,
          4.79531009e-003, 3.44298594e-002, 9.91747621e-003,
          2.88792942e-002, 2.24582423e-002, 2.47556776e-001,
          3.36794376e-001, 6.80628419e-002, 1.39774447e-002,
          6.52756542e-003, 4.74216007e-002, 7.71132205e-003,
          1.64764058e-002, 3.46262306e-002, 3.19633842e-001,
          3.14179033e-001, 7.97140300e-002, 2.77143763e-003,
          9.87875275e-003, 3.71906869e-002, 4.00792174e-002,
          1.58503428e-002, 4.72042523e-002, 3.14179033e-001,
          3.14179033e-001, 3.05792969e-002, 9.25716828e-004,
          8.68964493e-002, 3.14179033e-001, 1.98533311e-001,
          1.13397002e-001, 1.12096086e-001, 3.14179033e-001,
          1.80195317e-001, 4.79798578e-002, 8.82118475e-003,
          2.85857432e-002, 1.15685336e-001, 8.61134902e-002,
          1.15522351e-002, 3.24218161e-002, 1.90904066e-001,
          1.12114772e-001, 1.06880255e-002, 9.16616246e-002,
          1.74134329e-001, 3.14179033e-001, 3.14179033e-001,
          4.49823290e-002, 1.23695463e-001, 2.40454823e-001 ]
      - [ 4.10623163e-001, 2.23993480e-001, 7.16903852e-003,
          7.27325454e-002, 8.80622044e-002, 5.92809357e-003,
          2.86897738e-003, 7.14389160e-002, 1.41131595e-001,
          4.10623163e-001, 2.89448142e-001, 2.58658407e-003,
          4.18064324e-003, 8.59951507e-003, 0., 1.12920078e-002,
          6.39065262e-003, 1.20623395e-001, 4.10623163e-001,
          1.57820776e-001, 6.67930814e-003, 4.71774861e-002,
          6.59791753e-002, 9.82914586e-003, 3.73206176e-002,
          1.05802409e-001, 8.63198712e-002, 4.10623163e-001,
          2.68595755e-001, 2.40868665e-002, 1.04498062e-002,
          7.97510520e-003, 2.59101717e-003, 3.60659361e-002,
          9.10608284e-003, 9.25670043e-002, 3.97046655e-001,
          2.63071775e-001, 1.43296877e-002, 2.92813359e-003,
          1.38205141e-002, 0., 5.46282344e-003, 1.07821655e-002,
          1.35119557e-001, 3.97046655e-001, 3.97046655e-001,
          2.09881533e-002, 1.95208867e-003, 4.94310707e-002,
          1.46686817e-002, 0., 1.26972925e-002, 1.11700006e-001,
          3.97046655e-001, 1.72135279e-001, 2.05895808e-002,
          1.50425704e-002, 5.75026730e-003, 1.78588624e-003,
          1.47055620e-002, 1.56750940e-002, 1.61802858e-001,
          3.26936275e-001, 2.66254455e-001, 1.35937128e-002,
          1.17558902e-002, 6.92343712e-002, 7.10218772e-002,
          4.56284247e-002, 3.84525247e-002, 1.15040317e-001,
          3.09389979e-001, 3.09389979e-001, 3.89946322e-003,
          1.61374696e-002, 1.13515876e-001, 1.11208297e-001,
          1.69567615e-002, 2.16501914e-002, 1.01455122e-001,
          2.14317620e-001, 1.14166796e-001, 1.26335304e-003,
          2.27780044e-001, 3.09389979e-001, 3.09389979e-001,
          6.31053746e-002, 7.77325258e-002, 1.23110458e-001,
          1.36182860e-001, 1.25722378e-001, 1.30727384e-002,
          9.70976055e-002, 2.37172171e-001, 1.74305201e-001,
          4.81495894e-002, 1.60578135e-002, 6.37993887e-002,
          7.10464865e-002, 7.39917904e-002, 1.83951315e-002,
          3.09389979e-001, 3.09389979e-001, 3.09389979e-001,
          5.43559678e-002, 7.82697462e-003, 5.60015514e-002 ]
      - [ 3.54315609e-001, 9.10745040e-002, 9.38934553e-003,
          3.06151365e-003, 3.33994366e-002, 4.43864465e-002,
          5.72101120e-003, 2.31644008e-002, 3.13365042e-001,
          3.54315609e-001, 2.32649833e-001, 2.20296890e-004,
          5.08736470e-004, 4.11540130e-003, 0., 0., 1.20672882e-002,
          3.54315609e-001, 3.54315609e-001, 9.13473070e-002,
          1.56779587e-002, 2.04100902e-003, 2.65877228e-002,
          2.95909587e-002, 7.88868684e-003, 3.05466335e-002,
          2.17252865e-001, 3.54315609e-001, 1.38607457e-001,
          6.50699856e-003, 2.03494495e-003, 1.32031068e-002, 0., 0.,
          2.97549795e-002, 3.54315609e-001, 3.56016010e-001,
          1.38026178e-001, 7.59611081e-004, 1.75418647e-003,
          2.17691646e-003, 0., 0., 3.68258753e-003, 3.08956325e-001,
          3.56016010e-001, 1.56804696e-001, 7.64823519e-003,
          1.11276507e-002, 9.43087321e-003, 3.80358513e-004,
          3.71149299e-003, 1.17025161e-002, 3.56016010e-001,
          3.56016010e-001, 7.02395663e-002, 3.03844339e-003,
          7.01674400e-003, 1.01494566e-002, 0., 4.90033487e-003,
          1.15325879e-002, 3.29455018e-001, 3.56016010e-001,
          9.62499976e-002, 6.40737126e-003, 1.43745644e-002,
          4.16582040e-002, 7.94550311e-003, 1.63786635e-002,
          1.21547757e-002, 3.12490016e-001, 2.95714378e-001,
          7.33655095e-002, 1.02001233e-002, 4.81842719e-002,
          7.69903362e-002, 1.14631578e-002, 7.52676874e-002,
          6.16810322e-002, 2.48597398e-001, 2.08559394e-001,
          9.16183647e-003, 4.49142419e-003, 2.29933918e-001,
          2.95714378e-001, 1.14064232e-001, 1.93288416e-001,
          1.47842750e-001, 2.95714378e-001, 2.44095400e-001,
          4.06574085e-002, 6.25810679e-003, 1.05165631e-001,
          1.82063833e-001, 1.01007000e-001, 6.45278618e-002,
          4.17702459e-002, 1.89784035e-001, 1.63162217e-001,
          1.65740354e-003, 4.89716269e-002, 2.95714378e-001,
          2.95714378e-001, 2.33306363e-001, 1.16517521e-001,
          8.15493762e-002, 2.11379498e-001 ]
      - [ 4.26306546e-001, 4.49104495e-002, 5.79226911e-002,
          1.62264034e-002, 6.29066974e-002, 6.55448958e-002,
          8.83565024e-002, 1.54428631e-001, 4.26306546e-001,
          4.26306546e-001, 6.54482245e-002, 1.97824128e-002,
          7.86581729e-003, 1.83698460e-002, 8.40330496e-003,
          2.16533113e-002, 9.35120210e-002, 4.26306546e-001,
          1.29389182e-001, 1.02735668e-001, 7.54546151e-002,
          1.04130477e-001, 3.66999842e-002, 9.54807643e-003,
          6.10319041e-002, 6.32535992e-003, 9.38249677e-002,
          2.28857934e-001, 1.71090811e-001, 9.27340984e-002,
          2.74795275e-002, 2.79170629e-002, 1.08480332e-002,
          1.57658160e-002, 1.87267233e-002, 2.41976529e-001,
          3.66844207e-001, 3.07021793e-002, 2.39652507e-002,
          2.28448305e-002, 1.25745963e-002, 9.08971485e-003,
          2.08078846e-002, 4.79283631e-002, 4.42723751e-001,
          3.18015546e-001, 8.14584345e-002, 2.64213178e-002,
          1.82599872e-002, 3.04753911e-002, 2.40897182e-002,
          2.29481105e-002, 2.00795621e-001, 4.42723751e-001,
          1.57399118e-001, 8.45472515e-002, 4.31518517e-002,
          2.11541597e-002, 4.38623205e-002, 1.43434443e-002,
          2.60920487e-002, 6.79148138e-002, 2.82909304e-001,
          7.83677250e-002, 7.87558556e-002, 2.28230227e-002,
          2.74934825e-002, 9.07132626e-002, 4.27779332e-002,
          9.09459516e-002, 1.83371514e-001, 3.54345351e-001,
          1.23105653e-001, 8.93010497e-002, 5.44910952e-002,
          1.29911769e-002, 8.78471509e-002, 3.11839096e-002,
          5.40532582e-002, 1.69252291e-001, 3.40571433e-001,
          1.09585978e-001, 5.17344251e-002, 6.64723068e-002,
          7.54887909e-002, 3.40571433e-001, 1.20837100e-001,
          1.44927576e-001, 2.19810501e-001, 3.40571433e-001,
          3.34414504e-002, 6.64892122e-002, 5.55817261e-002,
          8.34547505e-002, 1.81633398e-001, 7.53430426e-002,
          8.16343427e-002, 8.05450007e-002, 1.33912846e-001,
          2.33217046e-001, 3.80438939e-002, 8.85933489e-002,
          3.05771202e-001, 3.40571433e-001, 1.83348194e-001,
          1.48720026e-001, 4.17587683e-002, 2.39554569e-001 ]
      - [ 3.30231249e-001, 8.97705108e-002, 0., 1.23091349e-002,
          3.84446904e-002, 3.88802923e-002, 6.88333288e-002,
          2.30421975e-001, 2.65560746e-001, 3.33146304e-001,
          2.49726009e-002, 0., 7.04095373e-003, 4.07156944e-002,
          3.15037817e-002, 1.39902020e-002, 1.56746075e-001,
          3.33146304e-001, 3.33146304e-001, 5.72250038e-002,
          6.14158064e-002, 7.47911073e-003, 4.03409861e-002,
          2.77080648e-002, 4.78920974e-002, 1.67442933e-001,
          3.20626050e-001, 3.33146304e-001, 4.48097102e-002, 0.,
          1.76023843e-003, 1.72583386e-002, 9.66818631e-003,
          1.08987512e-002, 1.41041517e-001, 3.33146304e-001,
          3.24190944e-001, 4.12676483e-002, 2.83218678e-002,
          4.66215909e-002, 7.02437311e-002, 5.29836379e-002,
          7.15026483e-002, 1.54074907e-001, 2.52365857e-001,
          3.24190944e-001, 6.55876398e-002, 4.91325036e-002,
          5.97215518e-002, 4.71314341e-002, 3.30013297e-002,
          9.63097885e-002, 2.83303469e-001, 2.82525659e-001,
          3.24190944e-001, 8.77986103e-002, 4.77072299e-002,
          1.91720929e-002, 5.18897213e-002, 2.56148763e-002,
          8.16200003e-002, 1.74851686e-001, 2.62435734e-001,
          3.24190944e-001, 7.37659559e-002, 8.15354139e-002,
          4.49971519e-002, 9.92952511e-002, 6.27888516e-002,
          1.06799059e-001, 2.21451834e-001, 2.83337027e-001,
          3.20441693e-001, 1.23929279e-002, 6.26083743e-003,
          6.81293197e-003, 8.22899770e-003, 6.63364073e-003,
          1.21198473e-002, 1.20526560e-001, 3.20441693e-001,
          3.20441693e-001, 6.34472519e-002, 1.00915777e-002,
          4.17108536e-002, 2.27211807e-002, 3.21177170e-002,
          5.35707735e-002, 2.00042561e-001, 3.20441693e-001,
          3.20441693e-001, 5.84259816e-003, 1.01804258e-002,
          8.44171550e-003, 2.33344715e-002, 2.50199810e-002,
          1.53723778e-002, 1.23212576e-001, 3.20441693e-001,
          3.20441693e-001, 7.96130002e-002, 3.92267518e-002,
          2.72302460e-002, 7.34246001e-002, 9.17457864e-002,
          6.77657872e-002, 2.57278860e-001, 3.20441693e-001 ]
      - [ 2.61548936e-001, 3.65939662e-002, 5.24212718e-002,
          3.68023152e-003, 1.02662183e-001, 1.74479485e-002,
          6.33186027e-002, 2.50329673e-001, 2.70141721e-001,
          2.99572170e-001, 6.23802617e-002, 1.56243593e-002,
          7.62833888e-003, 6.95787892e-002, 3.42813618e-002,
          1.55618172e-002, 2.59170741e-001, 2.96409070e-001,
          2.26235196e-001, 8.91497284e-002, 6.19748607e-002,
          1.27980777e-003, 8.02475139e-002, 1.58762727e-002,
          5.75952791e-002, 2.73485571e-001, 2.99572170e-001,
          2.99572170e-001, 7.02874511e-002, 2.44029704e-002,
          2.12312061e-002, 6.43880144e-002, 1.75806023e-002,
          3.98608930e-002, 2.99572170e-001, 2.99572170e-001,
          3.15034896e-001, 7.30178729e-002, 1.28710670e-002,
          5.41585498e-003, 1.02556892e-001, 9.36064348e-002,
          7.23398291e-003, 1.28497601e-001, 1.91065714e-001,
          3.15034896e-001, 5.91799952e-002, 3.21776583e-003, 0.,
          5.58567867e-002, 7.35586584e-002, 1.78417396e-002,
          2.62937874e-001, 2.87571073e-001, 2.03298137e-001,
          4.94252034e-002, 3.56039926e-002, 8.01057294e-002,
          1.62342638e-001, 6.40350655e-002, 2.10842211e-002,
          3.15034896e-001, 3.15034896e-001, 1.97029352e-001,
          4.33754995e-002, 8.90099816e-003, 7.27477968e-002,
          1.63240403e-001, 6.38619065e-002, 1.18944915e-002,
          3.15034896e-001, 3.15034896e-001, 3.05738360e-001,
          2.57682167e-002, 1.53690837e-002, 1.70122564e-003,
          1.19552892e-002, 5.49978064e-003, 9.30268783e-003,
          2.27469698e-001, 3.05738360e-001, 3.05738360e-001,
          4.37086113e-002, 8.67367908e-002, 1.23762950e-001,
          4.35326882e-002, 9.88908950e-003, 2.85664722e-002,
          1.21588431e-001, 3.05738360e-001, 1.95036381e-001,
          2.35551968e-002, 2.05632672e-002, 1.38794733e-002,
          3.86542976e-002, 7.23622926e-003, 2.27309484e-002,
          3.05738360e-001, 3.05738360e-001, 1.71998292e-001,
          8.17975309e-003, 1.20807968e-001, 1.49195403e-001,
          1.71154842e-001, 1.01189375e-001, 8.11077654e-002,
          3.05738360e-001, 3.05738360e-001 ]
      - [ 3.30888242e-001, 8.95900652e-002, 7.85518959e-002,
          8.95987153e-002, 5.49957938e-002, 9.13678184e-002,
          3.72264981e-002, 1.62595794e-001, 3.30888242e-001,
          3.30888242e-001, 1.31610319e-001, 4.71083596e-002,
          1.65248215e-002, 3.09351012e-002, 1.06560113e-002,
          2.38705929e-002, 1.69614911e-001, 3.30888242e-001,
          2.89420992e-001, 1.39132276e-001, 7.86537006e-002,
          9.85016003e-002, 8.86427611e-002, 5.03457040e-002,
          1.34099284e-002, 6.64296672e-002, 2.28444651e-001,
          3.30888242e-001, 2.42498651e-001, 2.50540860e-002,
          5.17277233e-002, 7.36981034e-002, 2.78615449e-002,
          3.38233151e-002, 1.00352943e-001, 2.68142462e-001,
          3.00612301e-001, 2.13643074e-001, 1.22352824e-001,
          2.50642020e-002, 8.75309184e-002, 3.99464443e-002,
          3.52890790e-002, 5.77360094e-002, 2.91338086e-001,
          2.87422955e-001, 2.00907186e-001, 1.17448300e-001,
          1.98575426e-002, 8.61599073e-002, 7.46630654e-002,
          2.80279666e-002, 2.11205468e-001, 2.66362727e-001,
          3.00612301e-001, 1.73447162e-001, 3.57656702e-002,
          3.41066048e-002, 1.46831751e-001, 7.36333355e-002,
          4.97288480e-002, 4.43203188e-002, 1.95269734e-001,
          3.00612301e-001, 1.14022367e-001, 6.92819655e-002,
          1.16234310e-002, 2.17972189e-001, 1.88279539e-001,
          4.52563465e-002, 1.63565427e-001, 2.60112137e-001,
          2.89966077e-001, 9.28121284e-002, 1.23285931e-002,
          3.62240197e-003, 1.39471050e-002, 1.49968369e-002,
          1.69195458e-002, 2.41455212e-001, 2.58353651e-001,
          2.89966077e-001, 1.78651378e-001, 2.64463369e-002,
          1.53890429e-002, 3.23907919e-002, 3.33196446e-002,
          7.37499520e-002, 2.68014282e-001, 2.25639164e-001,
          2.89966077e-001, 4.82970215e-002, 2.99100392e-002,
          9.05600318e-004, 6.12013713e-002, 4.97242995e-002,
          2.99570449e-002, 2.54000664e-001, 2.68244267e-001,
          2.89966077e-001, 3.51469181e-002, 6.05959855e-002,
          4.52404618e-002, 1.26024470e-001, 2.83898003e-002,
          1.56319156e-001, 2.89966077e-001, 2.89966077e-001 ]
      - [ 2.88778365e-001, 6.46911561e-002, 5.22287153e-002,
          5.24819419e-002, 2.98090763e-002, 2.38924809e-002,
          5.37355915e-002, 2.04929918e-001, 2.97763824e-001,
          3.31325948e-001, 5.22618368e-002, 2.11281832e-002,
          2.16970909e-002, 2.50329301e-002, 0., 2.12284643e-003,
          2.23743290e-001, 3.31325948e-001, 3.31325948e-001,
          1.24164537e-001, 4.97821160e-002, 5.13392575e-002,
          2.28468608e-002, 9.91529003e-002, 6.89612105e-002,
          1.45210922e-001, 2.84214139e-001, 3.31325948e-001,
          5.22416383e-002, 5.01922984e-003, 8.91273189e-003,
          1.24271633e-002, 0., 1.31431157e-002, 1.57268181e-001,
          3.31325948e-001, 2.44720206e-001, 4.26431000e-002,
          2.26673763e-002, 9.54802185e-002, 9.99487340e-002,
          6.53883209e-004, 1.47942815e-003, 6.61150143e-002,
          3.27413648e-001, 3.27413648e-001, 4.47311401e-002,
          1.63891818e-002, 1.29418030e-001, 1.06971890e-001,
          9.80824931e-004, 2.21914239e-003, 1.94780067e-001,
          3.27413648e-001, 3.27413648e-001, 6.47122711e-002,
          9.29415878e-003, 6.01913854e-002, 7.95336068e-002,
          2.61553214e-003, 5.91771072e-003, 4.32943515e-002,
          3.27413648e-001, 3.27413648e-001, 1.91880807e-001,
          2.44526770e-002, 9.75992531e-002, 8.65318924e-002,
          3.92329833e-003, 1.00512691e-002, 1.46761775e-001,
          3.27413648e-001, 3.21812481e-001, 2.81607583e-002,
          7.02521345e-003, 2.27058232e-002, 1.18410094e-002,
          1.21220444e-004, 4.54788515e-003, 1.91527903e-001,
          3.21812481e-001, 3.21812481e-001, 3.83915678e-002,
          7.95416683e-002, 4.64362465e-002, 4.56038117e-002,
          3.65817957e-002, 7.80786127e-002, 1.32082954e-001,
          3.21812481e-001, 3.21812481e-001, 9.11516771e-002,
          2.80836653e-002, 1.81071032e-002, 1.23061519e-002,
          4.84881661e-004, 8.22657812e-003, 1.53807238e-001,
          3.21812481e-001, 3.21812481e-001, 9.10042971e-002,
          6.45848513e-002, 1.23872250e-001, 6.20501302e-002,
          4.94778566e-002, 7.70435780e-002, 1.40807718e-001,
          3.21812481e-001 ]
   decision_functions:
      -
         sv_count: 9
         rho: -8.5903929050748923e-002
         alpha: [ 2.6702166761278621e+000, 3.6011600565698085e+000,
             1.7654105123351310e-001, 7.3383587448716323e+000,
             5.1940935898046732e+000, -4.3286171622928854e-001,
             -1.0613374234926296e+000, -6.0569480797754398e+000,
             -1.1429222899110133e+001 ]
         index: [ 0, 1, 2, 3, 4, 5, 6, 7, 8 ]
