%YAML:1.0
my_svm: !!opencv-ml-svm
   svm_type: C_SVC
   kernel: { type:RBF, gamma:8.9999999999999997e-002 }
   C: 100.
   term_criteria: { epsilon:2.2204460492503131e-016, iterations:3000 }
   var_all: 108
   var_count: 108
   class_count: 10
   class_labels: !!opencv-matrix
      rows: 1
      cols: 10
      dt: i
      data: [ 0, 1, 2, 3, 4, 5, 6, 7, 8, 9 ]
   sv_total: 130
   support_vectors:
      - [ 2.04801023e-001, 3.07140827e-001, 1.96806729e-001,
          7.51000270e-002, 2.43261997e-002, 3.29103731e-002,
          1.24107581e-002, 4.35849512e-003, 2.66165938e-002,
          3.07140827e-001, 2.93765336e-001, 6.77076280e-002,
          2.02583838e-002, 1.34685189e-002, 2.02184264e-002,
          2.58851275e-002, 3.36877443e-002, 2.45663598e-001,
          5.68117984e-002, 1.49568349e-001, 1.66016951e-001,
          9.21645463e-002, 8.87430757e-002, 1.35996342e-001,
          1.94643468e-001, 2.10247174e-001, 8.75082761e-002,
          3.07140827e-001, 2.89910704e-001, 8.63405913e-002,
          1.97457019e-002, 5.05168214e-002, 8.08736905e-002,
          9.56429392e-002, 2.97948062e-001, 3.07140827e-001,
          3.46556991e-001, 4.89937365e-002, 4.94456850e-003,
          8.11099890e-005, 2.56898650e-003, 1.19979109e-003,
          4.40288335e-003, 1.26604410e-002, 3.46556991e-001,
          3.18018645e-001, 1.38823343e-002, 1.60978101e-002,
          4.81921341e-003, 8.42231046e-003, 3.00830882e-003,
          1.63581390e-002, 1.28421515e-001, 3.46556991e-001,
          3.46556991e-001, 7.00587332e-002, 7.41685322e-003, 0.,
          1.02364914e-002, 4.79916297e-003, 1.36474576e-002,
          6.59631640e-002, 3.46556991e-001, 3.46556991e-001,
          8.66658315e-002, 4.52025943e-002, 1.92768499e-002,
          1.69152115e-002, 0., 1.97880864e-002, 1.20540775e-001,
          3.46556991e-001, 9.01765302e-002, 1.50368959e-002,
          3.37561555e-002, 2.39537489e-002, 2.92110462e-002,
          1.52786979e-002, 1.17517002e-001, 2.74764299e-001,
          2.74764299e-001, 6.97186366e-002, 3.25983427e-002,
          1.57052521e-002, 3.72933596e-002, 6.47716448e-002,
          1.22874111e-001, 2.74764299e-001, 2.74764299e-001,
          1.71110764e-001, 2.74764299e-001, 2.15403482e-001,
          1.23717025e-001, 9.58149731e-002, 6.28478453e-002,
          8.28180276e-003, 1.32669866e-001, 2.53524601e-001,
          2.74764299e-001, 5.81676587e-002, 2.05948666e-001,
          2.69592315e-001, 1.98807761e-001, 1.51407927e-001,
          1.56690910e-001, 2.74764299e-001, 1.54715240e-001,
          3.85946184e-002 ]
      - [ 5.20927422e-002, 1.19654298e-001, 8.63168985e-002,
          1.51930228e-001, 1.09089322e-001, 9.24027786e-002,
          1.58817500e-001, 2.01581970e-001, 5.03202118e-002,
          3.21324468e-001, 2.14377195e-001, 4.81185876e-002,
          8.56058300e-002, 4.47520465e-002, 3.02011631e-002,
          3.81878614e-002, 3.19522589e-001, 3.28222305e-001,
          4.17308733e-002, 1.16603067e-002, 9.49096680e-003,
          3.19920816e-002, 4.26633731e-002, 1.01189375e-001,
          2.69373864e-001, 3.28222305e-001, 2.03808516e-001,
          1.78092882e-001, 7.56279286e-003, 9.41807404e-003,
          1.99344847e-002, 1.65826958e-002, 2.63685398e-002,
          4.13238406e-002, 3.28222305e-001, 3.28222305e-001,
          3.44035506e-001, 5.87147586e-002, 1.41702453e-002,
          5.76588651e-003, 1.46461362e-002, 2.08495613e-002,
          6.89247483e-003, 8.34949166e-002, 3.54901016e-001,
          3.54901016e-001, 1.01839378e-001, 3.14010456e-002,
          1.39551834e-004, 1.18664186e-002, 7.08679995e-003,
          4.20415215e-003, 7.08756894e-002, 3.54901016e-001,
          2.72902131e-001, 4.96373791e-003, 4.06689569e-003,
          1.79035100e-003, 3.32983909e-003, 5.21238940e-003,
          2.43860274e-003, 1.08085811e-001, 3.54901016e-001,
          3.54901016e-001, 8.76054913e-002, 8.81762616e-003,
          1.39562006e-003, 3.96933220e-003, 5.59840165e-003,
          1.05103792e-003, 1.94145460e-002, 3.54901016e-001,
          3.16731781e-001, 2.16434717e-001, 7.72446990e-002,
          3.38641624e-003, 4.64063585e-002, 5.14671430e-002,
          2.61540860e-002, 1.56286150e-001, 2.83793241e-001,
          1.23752393e-001, 2.14195490e-001, 2.06784621e-001,
          1.38995945e-001, 1.22876637e-001, 1.50382519e-001,
          1.68299794e-001, 1.57843828e-001, 1.13440238e-001,
          3.16731781e-001, 3.16731781e-001, 4.15852889e-002,
          8.22724402e-003, 1.48232020e-002, 1.92218255e-002,
          3.88461119e-003, 1.19053619e-002, 8.60269442e-002,
          3.08170080e-001, 3.16731781e-001, 2.43864924e-001,
          1.73947543e-001, 5.78754544e-002, 3.57558839e-002,
          5.10556996e-002, 1.75792761e-002, 5.48330247e-002 ]
      - [ 3.20667267e-001, 2.18161538e-001, 3.01117618e-002,
          3.07364366e-003, 3.58742252e-002, 7.72479475e-002,
          1.47131840e-002, 1.15574621e-001, 2.07842618e-001,
          3.54904085e-001, 4.64453511e-002, 0., 0., 5.00091631e-003,
          1.21533526e-002, 7.95782171e-003, 3.57192978e-002,
          3.54904085e-001, 1.45571858e-001, 4.77210321e-002,
          5.87961823e-003, 7.68410857e-004, 2.48372555e-002,
          5.14986292e-002, 1.64660718e-002, 3.40373367e-001,
          3.54904085e-001, 3.54904085e-001, 9.56565421e-003, 0., 0.,
          7.16488389e-003, 8.10223352e-003, 5.98391704e-003,
          6.70329258e-002, 3.54904085e-001, 3.25014561e-001,
          3.36096063e-002, 0., 1.32732373e-002, 1.19313961e-002, 0., 0.,
          6.53437078e-002, 3.25014561e-001, 2.07024083e-001,
          1.53478324e-001, 1.03918947e-002, 1.03453487e-001,
          9.64643285e-002, 5.61829889e-003, 5.97519130e-002,
          3.22617531e-001, 3.25014561e-001, 3.25014561e-001,
          6.73269853e-002, 0., 8.84882361e-003, 2.33218912e-002,
          1.50250201e-003, 1.44772499e-003, 1.29063092e-002,
          3.25014561e-001, 3.25014561e-001, 3.25014561e-001,
          4.71200049e-002, 7.74483010e-002, 1.05808973e-001,
          7.41458079e-003, 1.31151089e-002, 4.71576527e-002,
          1.73746854e-001, 4.72697653e-002, 1.57908246e-001,
          1.04818098e-001, 2.05140457e-001, 1.93992645e-001,
          1.10998727e-001, 2.27654040e-001, 2.76704520e-001,
          1.05165459e-001, 4.71524615e-003, 2.65298486e-002,
          1.25792250e-001, 2.00466067e-001, 2.56166458e-001,
          1.90176517e-001, 1.69373572e-001, 7.05152601e-002,
          3.03833988e-002, 1.99084654e-001, 2.76704520e-001,
          2.76704520e-001, 2.12131441e-001, 1.93295717e-001,
          3.47734764e-002, 2.18791161e-002, 5.76941855e-002,
          1.23302869e-001, 4.53530028e-002, 1.50049359e-001,
          2.76704520e-001, 2.57374913e-001, 2.44522080e-001,
          5.56585863e-002, 1.10044237e-002, 4.22565974e-002,
          8.34263116e-002 ]
      - [ 3.08777213e-001, 3.23387265e-001, 1.41371280e-001,
          3.45219746e-002, 5.31417504e-002, 1.51313310e-002,
          1.53786372e-004, 7.02919392e-003, 9.00352076e-002,
          3.23387265e-001, 2.86281019e-001, 9.47191566e-003,
          9.68609005e-004, 3.22234593e-002, 1.76359825e-002,
          4.05305967e-004, 1.06209991e-002, 2.35355750e-001,
          8.58984664e-002, 2.18626097e-001, 1.26818702e-001,
          5.26700802e-002, 1.83190674e-001, 8.51947367e-002,
          9.78751332e-002, 2.35103801e-001, 8.82493630e-002,
          3.23387265e-001, 2.28274047e-001, 1.25659676e-002,
          3.87443486e-003, 1.44199148e-001, 7.05439076e-002,
          1.99363427e-003, 2.15110242e-001, 3.23387265e-001,
          3.44771415e-001, 4.09577712e-002, 2.47979979e-003,
          8.66442919e-004, 3.05463723e-003, 3.58851929e-003,
          9.83953869e-005, 1.56690422e-002, 3.44771415e-001,
          2.95805991e-001, 7.33538670e-003, 3.71970003e-003,
          5.31113427e-003, 1.90241728e-002, 0., 1.01831590e-003,
          1.53622642e-001, 3.44771415e-001, 3.44771415e-001,
          3.68121825e-002, 9.91919637e-003, 3.46577051e-003,
          1.72750223e-002, 1.43540706e-002, 3.93581373e-004,
          5.70774339e-002, 3.44771415e-001, 3.44771415e-001,
          1.17210634e-001, 1.53902117e-002, 2.12445352e-002,
          8.97917151e-002, 0., 6.78877230e-004, 1.52494490e-001,
          3.44771415e-001, 1.24681294e-001, 2.08395757e-002,
          1.32699660e-003, 9.93164349e-003, 5.11308685e-002,
          2.00420199e-003, 6.97969794e-002, 2.71133155e-001,
          2.71133155e-001, 6.98401481e-002, 4.66581173e-002,
          1.27696490e-003, 1.28660239e-002, 8.36649165e-002,
          4.12492678e-002, 2.71133155e-001, 2.71133155e-001,
          1.50596485e-001, 2.56485790e-001, 2.71133155e-001,
          3.92299257e-002, 4.68809046e-002, 2.24082276e-001,
          8.14681686e-003, 5.18452711e-002, 2.58924782e-001,
          2.69926667e-001, 2.56596226e-002, 1.94970354e-001,
          2.71133155e-001, 1.31197050e-001, 2.65879333e-001,
          5.86938672e-002, 2.71133155e-001, 1.63083553e-001,
          3.89470533e-002 ]
      - [ 1.99728996e-001, 3.01701874e-001, 2.23247886e-001,
          3.25657316e-002, 4.34383862e-002, 2.52858400e-002,
          5.36015444e-003, 1.34582142e-003, 2.74450406e-002,
          3.01701874e-001, 3.01701874e-001, 9.17633176e-002,
          1.19942590e-003, 1.64793078e-002, 1.88294612e-002,
          6.77619921e-003, 5.38328383e-003, 1.70432672e-001,
          6.36149794e-002, 1.85815915e-001, 2.15216801e-001,
          4.90582436e-002, 1.91549480e-001, 1.16175480e-001,
          1.65250689e-001, 2.53331304e-001, 1.13648184e-001,
          3.01701874e-001, 2.13101879e-001, 1.19081989e-001,
          1.93340518e-003, 1.02584749e-001, 7.42556378e-002,
          3.23613882e-002, 3.01701874e-001, 3.01701874e-001,
          3.57262224e-001, 6.92268461e-002, 5.20316279e-003, 0.,
          1.48000498e-003, 1.67545350e-003, 7.30906730e-004,
          2.03748234e-003, 2.99345940e-001, 3.57262224e-001,
          1.16881460e-003, 0., 0., 3.71099124e-003, 0., 0.,
          6.37167646e-003, 3.57262224e-001, 3.57262224e-001,
          4.52753976e-002, 7.80474534e-003, 0., 1.06840907e-002,
          6.70181168e-003, 2.92362599e-003, 7.84145966e-002,
          3.57262224e-001, 3.57262224e-001, 6.89035514e-003, 0., 0.,
          2.03177240e-003, 0., 0., 2.21501500e-003, 3.57262224e-001,
          2.43342131e-001, 2.97785597e-003, 4.80333529e-003,
          1.02378929e-003, 7.48631079e-003, 0., 1.04025248e-002,
          9.09987688e-002, 3.14876854e-001, 1.12960495e-001,
          4.36923932e-003, 1.92133337e-002, 2.09914725e-002,
          5.08266278e-002, 1.96280405e-002, 1.13773577e-001,
          3.14876854e-001, 3.14876854e-001, 3.14876854e-001,
          9.78526101e-002, 1.92133337e-002, 4.09515575e-003,
          1.59653313e-002, 0., 1.56037891e-002, 5.49770221e-002,
          3.14876854e-001, 3.14876854e-001, 3.14876854e-001,
          8.96503851e-002, 8.17531869e-002, 1.50446907e-001,
          2.48431414e-002, 1.46335796e-001, 1.88384920e-001,
          3.11879873e-001 ]
      - [ 2.31317118e-001, 3.19491595e-001, 1.00458562e-001,
          4.77948152e-002, 1.67838745e-002, 0., 1.52337095e-002,
          1.99346647e-001, 1.07479297e-001, 3.19491595e-001,
          3.19491595e-001, 6.70657232e-002, 3.36523838e-002,
          1.18120592e-002, 5.72096882e-003, 4.07297583e-003,
          4.77912091e-002, 1.85426250e-001, 2.05291867e-001,
          2.27494866e-001, 1.86923549e-001, 1.47556692e-001,
          5.60730696e-002, 4.77869064e-002, 2.02849343e-001,
          1.32785618e-001, 9.09229815e-002, 3.19491595e-001,
          1.76487461e-001, 1.15031719e-001, 4.30432633e-002,
          1.98284052e-002, 4.16520936e-003, 7.43507296e-002,
          2.25833058e-001, 3.19491595e-001, 3.46566230e-001,
          1.32181928e-001, 3.36258635e-002, 2.79556438e-002,
          1.65464990e-002, 1.58756375e-002, 7.67600955e-003,
          6.26610126e-003, 3.33541155e-001, 2.02341869e-001,
          7.33854473e-002, 3.00880875e-002, 6.98891003e-003,
          3.36236209e-002, 6.48529232e-002, 4.31955196e-002,
          1.60587549e-001, 3.46566230e-001, 3.46566230e-001,
          2.80193891e-002, 9.00880620e-003, 0., 6.89601852e-003, 0.,
          2.70623108e-003, 4.69584577e-002, 3.46566230e-001,
          3.46566230e-001, 1.45573869e-001, 7.50737563e-002,
          2.05591810e-003, 2.23139077e-002, 3.04386187e-002,
          9.73761901e-002, 1.53274804e-001, 3.46566230e-001,
          8.70645717e-002, 4.26129811e-002, 2.39558239e-002,
          2.93811969e-003, 3.06579154e-002, 1.07961781e-001,
          1.60304412e-001, 2.56991863e-001, 2.56991863e-001,
          1.05624326e-001, 6.10882118e-002, 8.46272931e-002,
          5.30845709e-002, 9.09406617e-002, 7.85318092e-002,
          2.56991863e-001, 2.56991863e-001, 1.64313599e-001,
          1.69207215e-001, 1.65055469e-001, 2.09257677e-001,
          2.27523316e-002, 5.52720167e-002, 1.05398439e-001,
          2.25063011e-001, 2.56991863e-001, 2.56991863e-001,
          2.00829376e-002, 5.33629358e-002, 2.04294875e-001,
          2.56991863e-001, 2.56991863e-001, 1.65049821e-001,
          2.56991863e-001, 2.15582505e-001, 6.89162016e-002 ]
      - [ 2.03379661e-001, 3.19303364e-001, 1.16961971e-001,
          3.59275155e-002, 1.89938266e-002, 0., 2.01896578e-002,
          1.77525893e-001, 1.01668127e-001, 3.19303364e-001,
          3.19303364e-001, 6.42915666e-002, 3.72943133e-002,
          1.58107542e-002, 6.16870122e-003, 9.79272998e-004,
          4.16599736e-002, 1.97653890e-001, 1.75369248e-001,
          2.75801837e-001, 1.83350518e-001, 1.23398930e-001,
          5.78261390e-002, 4.73103672e-002, 2.04014406e-001,
          1.35877967e-001, 9.64825377e-002, 3.19303364e-001,
          2.40653664e-001, 8.33580345e-002, 3.89472991e-002,
          2.21844390e-002, 3.66912177e-003, 7.14861006e-002,
          1.97051808e-001, 3.19303364e-001, 3.45096856e-001,
          1.33272171e-001, 3.12478282e-002, 3.17536704e-002,
          1.51748639e-002, 1.64011121e-002, 0., 7.71924271e-004,
          3.29601854e-001, 2.34909445e-001, 6.58973232e-002,
          3.94274481e-002, 7.93841667e-003, 2.73417719e-002,
          6.69808760e-002, 3.52262184e-002, 1.40629023e-001,
          3.45096856e-001, 3.45096856e-001, 4.18721065e-002,
          5.24121197e-003, 0., 3.17816064e-003, 0., 7.94180669e-004,
          3.08472011e-002, 3.45096856e-001, 3.45096856e-001,
          1.78197071e-001, 6.49204105e-002, 3.33086005e-003,
          1.63717158e-002, 3.82619090e-002, 8.67474750e-002,
          1.33205116e-001, 3.45096856e-001, 1.13184907e-001,
          2.46268604e-002, 3.87446247e-002, 4.68515209e-004,
          2.81490460e-002, 1.15474947e-001, 1.55410171e-001,
          2.58375913e-001, 2.58375913e-001, 1.47906795e-001,
          7.41362199e-002, 5.19949012e-002, 4.07409929e-002,
          6.68775290e-002, 1.08010992e-001, 2.58375913e-001,
          2.58375913e-001, 1.08056694e-001, 1.90792620e-001,
          1.80751100e-001, 2.24991918e-001, 3.97416018e-002,
          4.89376299e-002, 1.40808985e-001, 2.04050869e-001,
          2.55968481e-001, 2.58375913e-001, 1.48312869e-002,
          4.24351916e-002, 2.58375913e-001, 2.22939059e-001,
          1.20994836e-001, 2.58375913e-001, 2.58375913e-001,
          1.79948017e-001, 3.47601362e-002 ]
      - [ 5.33942357e-002, 5.11824042e-002, 2.77014300e-002,
          4.40796232e-003, 7.18490928e-002, 6.24885932e-002,
          8.85765254e-002, 2.53331602e-001, 3.26237231e-001,
          3.25223416e-001, 5.24064526e-002, 9.21163522e-003,
          1.30293611e-003, 1.68517139e-002, 2.75031757e-002,
          2.12567318e-002, 1.00986391e-001, 3.26237231e-001,
          3.26237231e-001, 1.66459620e-001, 4.62073274e-002,
          7.81761575e-003, 6.72259778e-002, 3.97375673e-002,
          4.79940772e-002, 1.98062450e-001, 3.26237231e-001,
          3.26237231e-001, 3.80625352e-002, 2.03779596e-003,
          5.21174353e-003, 5.07012121e-002, 3.12675647e-002,
          3.39357294e-002, 2.58455902e-001, 3.26237231e-001,
          3.22215915e-001, 1.33400066e-002, 4.94775886e-004, 0.,
          2.52814079e-003, 8.53301375e-004, 1.83725439e-003,
          1.24113271e-002, 3.22215915e-001, 3.22215915e-001,
          1.93857044e-001, 8.21061432e-003, 3.93752567e-002,
          9.34917387e-003, 1.43106689e-003, 9.11597349e-003,
          5.18481955e-002, 2.26116940e-001, 3.22215915e-001,
          1.85657423e-002, 1.40704475e-002, 0., 2.84055676e-002,
          3.41320434e-003, 2.76887529e-002, 3.22215915e-001,
          3.22215915e-001, 3.22215915e-001, 2.04678193e-001,
          1.13468952e-001, 2.73428820e-002, 5.17614633e-002,
          9.54044401e-004, 1.65529158e-002, 1.78823858e-001,
          2.89675415e-001, 2.92984933e-001, 2.92984933e-001,
          7.96337351e-002, 1.77127689e-001, 4.96959165e-002,
          6.39783451e-003, 3.20738703e-002, 7.24105835e-002,
          5.79395220e-002, 9.58731920e-002, 2.92984933e-001,
          1.92179501e-001, 2.92984933e-001, 9.79354456e-002,
          3.65874358e-002, 4.93424572e-002, 2.11855341e-002,
          2.10788306e-002, 2.92984933e-001, 2.92984933e-001,
          1.37619019e-001, 8.75408277e-002, 9.62945819e-002,
          2.24898988e-003, 4.02566977e-002, 1.37124017e-001,
          2.31715918e-001, 1.65498018e-001, 2.92984933e-001,
          1.12004273e-001, 1.21015526e-001, 1.03380911e-001,
          6.02892553e-003, 1.60038501e-001, 2.52764523e-001,
          1.45437062e-001 ]
      - [ 3.11588258e-001, 3.31725895e-001, 6.65258467e-002,
          5.29263690e-002, 6.74601048e-002, 5.56732481e-003,
          1.31296432e-002, 4.12660688e-002, 7.17272162e-002,
          3.31725895e-001, 1.81284025e-001, 1.10582840e-002,
          2.40079705e-002, 3.02297734e-002, 0., 2.11766548e-003,
          2.73585059e-002, 3.31725895e-001, 1.04813829e-001,
          1.49231017e-001, 2.14678273e-002, 7.71294832e-002,
          1.00893453e-001, 9.01555177e-003, 1.16439514e-001,
          3.08470786e-001, 3.31725895e-001, 3.31725895e-001,
          1.02580793e-001, 1.38350315e-002, 3.60119529e-002,
          4.16063368e-002, 0., 1.20608239e-002, 1.12966120e-001,
          3.31725895e-001, 3.19725484e-001, 1.35334497e-002,
          5.66759426e-003, 3.78158269e-003, 1.04687940e-002, 0.,
          2.34398060e-003, 1.69253293e-002, 3.19725484e-001,
          2.26985306e-001, 5.51314391e-002, 1.38723403e-002,
          1.84651483e-002, 9.00143608e-002, 6.00795960e-004,
          2.21815743e-002, 2.92326361e-001, 3.19725484e-001,
          3.19725484e-001, 2.13935710e-002, 8.50139186e-003,
          5.67237381e-003, 1.30795920e-002, 0., 3.51597136e-003,
          1.18922302e-002, 3.19725484e-001, 3.19725484e-001,
          3.18790048e-001, 2.02915166e-002, 2.40815077e-002,
          1.22662947e-001, 6.84902596e-004, 1.30769378e-002,
          1.17528595e-001, 3.18035752e-001, 5.26807867e-002,
          5.39419204e-002, 3.09156030e-002, 2.87032798e-002,
          1.65017426e-001, 5.23120090e-002, 1.38287678e-001,
          2.67998099e-001, 2.67998099e-001, 2.04066262e-002,
          8.05908535e-003, 4.19315770e-002, 7.06786588e-002,
          2.09852532e-001, 2.67998099e-001, 2.46838138e-001,
          2.43802309e-001, 7.67348111e-002, 2.01189771e-001,
          2.67998099e-001, 2.08353698e-001, 6.47042692e-002,
          2.28104666e-001, 3.70747298e-002, 5.44176586e-002,
          1.39185950e-001, 6.74925745e-002, 3.13042812e-002,
          2.33392060e-001, 2.67998099e-001, 2.36826852e-001,
          2.67998099e-001, 2.05787629e-001, 9.39833447e-002,
          3.41087915e-002, 6.63980283e-003 ]
      - [ 1.73665211e-001, 9.57472399e-002, 7.29280990e-004,
          5.60746677e-002, 2.64148712e-002, 9.16299876e-003,
          9.82572958e-002, 2.52327085e-001, 3.22575301e-001,
          3.22575301e-001, 4.53804582e-002, 1.07849162e-004, 0.,
          4.53347951e-004, 0., 3.27411457e-003, 5.09132259e-002,
          3.22575301e-001, 9.61398408e-002, 1.31526381e-001,
          3.15097831e-002, 3.84382755e-002, 4.73303832e-002,
          8.72365013e-003, 5.06416336e-002, 3.15902621e-001,
          3.22575301e-001, 3.22575301e-001, 2.97986329e-001,
          1.25611499e-001, 7.01029375e-002, 5.58415279e-002,
          1.60822482e-003, 8.48487299e-003, 6.95653632e-002,
          3.22575301e-001, 3.09501797e-001, 4.07485031e-002,
          4.62029548e-003, 0., 3.59118363e-004, 0., 0., 1.09592136e-002,
          3.09501797e-001, 3.09501797e-001, 2.50030577e-001,
          1.12617470e-001, 4.87675052e-003, 1.87833160e-002,
          4.18338366e-002, 3.58102880e-002, 9.72138271e-002,
          3.09501797e-001, 3.09501797e-001, 2.24625990e-001,
          1.01131283e-001, 3.90474871e-002, 4.46258150e-002,
          7.70726521e-003, 1.03865396e-002, 1.74211878e-002,
          2.80928642e-001, 3.09501797e-001, 2.70165056e-001,
          8.76099840e-002, 7.34367361e-003, 8.90547708e-002,
          6.20885640e-002, 5.24024889e-002, 1.49698228e-001,
          2.66547561e-001, 2.76210904e-001, 2.76210904e-001,
          2.76210904e-001, 6.54246062e-002, 1.07776552e-001,
          1.36506334e-001, 8.11043307e-002, 1.20343477e-001,
          1.38309464e-001, 7.07390755e-002, 2.47697026e-001,
          2.76210904e-001, 2.21909046e-001, 1.64070278e-001,
          1.31246030e-001, 1.47320792e-001, 4.12361100e-002,
          1.28640458e-002, 2.76210904e-001, 2.76210904e-001,
          2.43552685e-001, 3.22595052e-002, 1.09790601e-001,
          5.98329529e-002, 1.04600310e-001, 1.32214308e-001,
          1.59881637e-001, 9.13694054e-002, 2.33990490e-001,
          2.71720827e-001, 9.19984430e-002, 3.80793698e-002,
          1.62698999e-002, 5.63416965e-002, 5.15095983e-003,
          3.40833776e-002 ]
      - [ 3.40679407e-001, 2.69537985e-001, 1.44057959e-001,
          2.80862935e-002, 3.41576561e-002, 2.98648681e-002,
          1.30136507e-002, 2.51737013e-002, 4.96212356e-002,
          3.40679407e-001, 1.74204081e-001, 1.34333493e-002, 0.,
          6.80656917e-003, 5.34051238e-003, 3.25341267e-003,
          1.07157696e-002, 2.60055363e-001, 2.20819890e-001,
          2.37004161e-001, 1.40885666e-001, 2.33046450e-002,
          6.97998255e-002, 1.30653024e-001, 3.23861130e-002,
          2.47772217e-001, 2.36545771e-001, 3.40679407e-001,
          2.33230397e-001, 1.24337180e-002, 0., 2.28899363e-002,
          2.03499384e-002, 3.73860030e-003, 1.15368813e-001,
          3.40679407e-001, 3.10506701e-001, 3.96609604e-002,
          1.41274102e-003, 0., 4.15687542e-003, 0., 2.38585705e-003,
          8.95321965e-002, 3.10506701e-001, 1.42630696e-001,
          2.47675311e-002, 1.32956626e-002, 8.81435443e-003,
          2.37854030e-002, 1.37443142e-003, 9.51142237e-002,
          3.10506701e-001, 3.10506701e-001, 3.10506701e-001,
          1.10849947e-001, 0., 0., 1.53669799e-002, 0., 3.57878581e-003,
          9.82343629e-002, 3.10506701e-001, 3.10506701e-001,
          2.07063884e-001, 8.87482539e-002, 3.52574065e-002,
          4.74140644e-002, 8.59167543e-004, 1.14422999e-001,
          3.10506701e-001, 3.09223741e-001, 2.18723509e-002,
          2.80508883e-002, 2.29580011e-002, 3.34060490e-002,
          8.61391723e-002, 7.75466487e-002, 2.21640527e-001,
          3.10954660e-001, 2.00662881e-001, 4.34770659e-002,
          2.08344590e-002, 2.94935983e-002, 1.95234150e-001,
          3.10954660e-001, 2.98383117e-001, 1.58144802e-001,
          7.60024562e-002, 7.83001706e-002, 1.47440672e-001,
          1.30297348e-001, 1.58644795e-001, 1.46839112e-001,
          1.63520470e-001, 9.72930565e-002, 2.12739691e-001,
          1.98875397e-001, 6.16457760e-002, 3.44166234e-002,
          2.12368034e-002, 1.05524518e-001, 3.10463130e-001,
          3.10954660e-001, 3.10954660e-001, 1.21672124e-001,
          3.04052904e-002, 4.45204489e-002 ]
      - [ 3.57124656e-001, 2.70572782e-001, 3.03547345e-002,
          7.61931241e-002, 3.38791534e-002, 0., 7.78193912e-003,
          5.13334088e-002, 1.50219053e-001, 3.57124656e-001,
          8.45683068e-002, 9.20916814e-003, 2.11615693e-002,
          3.19673084e-002, 0., 0., 3.37854028e-002, 3.57124656e-001,
          1.65174544e-001, 9.86761600e-002, 2.91457772e-002,
          1.13498911e-001, 3.53067443e-002, 3.93743487e-003,
          5.74259013e-002, 2.25975305e-001, 3.57124656e-001,
          3.57124656e-001, 4.70911823e-002, 1.30642662e-002,
          2.41718199e-002, 1.03311976e-002, 0., 0., 7.45348036e-002,
          3.57124656e-001, 3.22611988e-001, 2.25992445e-002,
          6.30581781e-005, 1.41755422e-003, 2.80764867e-002,
          8.36497452e-003, 4.00283886e-003, 3.86261456e-002,
          3.22611988e-001, 2.18712792e-001, 4.02576104e-002,
          1.50404591e-002, 2.20426405e-003, 7.26037249e-002,
          1.09148167e-001, 6.13720305e-002, 3.22611988e-001,
          3.22611988e-001, 3.22611988e-001, 6.00727648e-002, 0., 0.,
          8.71557277e-003, 1.21214101e-002, 6.00425852e-003,
          2.20550206e-002, 3.22611988e-001, 3.22611988e-001,
          2.87790895e-001, 8.78191367e-002, 1.23432772e-002,
          8.10438767e-002, 1.41116574e-001, 3.48021574e-002,
          1.13426879e-001, 2.43123263e-001, 6.36747554e-002,
          4.19619344e-002, 3.59234177e-002, 3.03748380e-002,
          1.14061929e-001, 2.01789245e-001, 2.59002060e-001,
          2.59002060e-001, 1.29450217e-001, 3.76073159e-002,
          3.43050808e-002, 5.48561215e-002, 1.03806153e-001,
          1.97133109e-001, 2.45768204e-001, 2.59002060e-001,
          1.13383099e-001, 1.92504656e-002, 1.61412179e-001,
          2.59002060e-001, 2.59002060e-001, 1.07701153e-001,
          1.50159076e-001, 2.14815781e-001, 1.15960598e-001,
          1.09750025e-001, 4.34367321e-002, 1.37826651e-002,
          2.00268418e-001, 2.59002060e-001, 2.59002060e-001,
          2.59002060e-001, 2.39084616e-001, 1.46940768e-001,
          2.18074434e-002, 1.10773891e-002 ]
      - [ 1.36410132e-001, 3.21736246e-001, 2.38451317e-001,
          7.12008914e-003, 9.46775731e-003, 3.72419581e-002,
          3.84783149e-002, 6.29232600e-002, 1.54908195e-001,
          3.21736246e-001, 1.99316487e-001, 6.92624599e-002,
          6.92047132e-003, 4.26366702e-002, 1.09734774e-001,
          1.27264902e-001, 1.02434792e-001, 3.21736246e-001,
          3.21736246e-001, 1.59657031e-001, 7.79517516e-002,
          4.74672578e-003, 6.16151504e-002, 5.21356612e-002,
          5.55805750e-002, 1.26376465e-001, 3.21736246e-001,
          3.21736246e-001, 1.19435817e-001, 1.68561358e-002, 0.,
          3.86429131e-002, 2.94803828e-002, 2.41935477e-002,
          7.72867501e-002, 3.21736246e-001, 3.06925863e-001,
          1.00741610e-002, 3.45945987e-003, 2.04902161e-002,
          4.81378026e-002, 7.41348714e-002, 8.12736750e-002,
          5.86798638e-002, 3.43189776e-001, 3.55772734e-001,
          1.26155540e-002, 1.78740099e-002, 1.83290280e-002,
          1.40954768e-002, 7.24111311e-003, 1.71335861e-002,
          1.31912502e-002, 3.55772734e-001, 3.55772734e-001,
          1.45703107e-002, 1.78553630e-003, 0., 5.72653674e-003,
          1.92881636e-002, 1.37723237e-002, 4.60058227e-002,
          3.55772734e-001, 3.55772734e-001, 0., 3.40570835e-003,
          4.56152266e-005, 1.04256840e-002, 1.46962504e-003,
          3.31147923e-003, 4.50436212e-002, 3.55772734e-001,
          3.27431560e-001, 3.05824354e-002, 2.65917014e-002,
          7.11904233e-003, 1.41764700e-003, 0., 5.32045448e-003,
          2.62490250e-002, 3.27431560e-001, 3.17952275e-001,
          6.76159784e-002, 4.43840921e-002, 7.17243999e-002,
          2.79656984e-002, 9.35687870e-003, 7.04492107e-002,
          1.39626577e-001, 3.27431560e-001, 3.27431560e-001,
          3.17954719e-002, 1.36304870e-002, 6.18117163e-003,
          4.12457250e-002, 0., 1.49159192e-003, 1.06331713e-001,
          3.27431560e-001, 3.27431560e-001, 1.88728854e-001,
          6.57623336e-002, 1.07980542e-001, 1.02797709e-001,
          6.23791758e-003, 4.31383327e-002, 1.65568143e-001,
          3.27431560e-001 ]
      - [ 2.37809971e-001, 3.06903511e-001, 1.06545873e-001,
          6.29848742e-004, 5.48508726e-002, 4.72920910e-002,
          3.11097242e-002, 7.06854761e-002, 1.28628343e-001,
          2.43872702e-001, 9.86334831e-002, 3.76638696e-002,
          1.10552106e-002, 1.20872371e-001, 9.91743952e-002,
          6.45313188e-002, 9.99570563e-002, 1.55920982e-001,
          3.10753375e-001, 3.10753375e-001, 1.81748107e-001,
          1.09186443e-002, 8.60379860e-002, 1.52213067e-001,
          8.17332044e-002, 1.08821668e-001, 3.10753375e-001,
          3.10753375e-001, 5.09739779e-002, 2.76324637e-002,
          3.35955643e-003, 1.81299955e-001, 1.85909629e-001,
          1.22566588e-001, 1.49922743e-001, 3.10753375e-001,
          1.53402001e-001, 4.52595502e-002, 3.92831340e-002,
          1.76671278e-002, 3.46709490e-002, 2.68015116e-002,
          2.41073202e-002, 4.17682901e-002, 1.83346003e-001,
          2.35617727e-001, 4.01785336e-002, 2.88202185e-002,
          4.50161938e-003, 1.11473706e-002, 3.10473004e-003, 0.,
          3.04093584e-002, 3.08291018e-001, 4.34595793e-001,
          1.60921495e-002, 2.01918837e-002, 5.44641959e-003,
          4.74621393e-002, 3.19658518e-002, 3.76420245e-002,
          4.58052903e-002, 4.34595793e-001, 4.34595793e-001,
          5.05545735e-002, 6.39911555e-003, 1.38281414e-003,
          8.00443999e-003, 0., 2.10410487e-002, 1.00959197e-001,
          4.34595793e-001, 2.29230031e-001, 5.85512333e-002,
          5.77009730e-002, 9.74873826e-003, 2.76130922e-002,
          1.58068091e-002, 0., 2.62293182e-002, 3.07643980e-001,
          5.13300747e-002, 3.36795487e-002, 4.67324629e-002,
          2.21194234e-002, 2.42941715e-002, 1.57126188e-002,
          5.64444903e-003, 3.63450833e-002, 1.08539321e-001,
          3.76390159e-001, 1.93951592e-001, 9.08105448e-002,
          1.79432090e-002, 2.70906035e-002, 9.74592492e-002,
          1.99980259e-001, 3.10957730e-001, 3.76390159e-001,
          8.48746672e-002, 1.20633066e-001, 1.41030401e-001,
          5.57600260e-002, 8.42443854e-002, 2.95982778e-001,
          2.13040605e-001, 2.27813229e-001, 3.26948941e-001 ]
      - [ 9.86645296e-002, 2.81610340e-001, 2.01059908e-001,
          2.89035998e-002, 1.25090787e-002, 3.89157538e-003,
          1.49714318e-003, 2.14183852e-002, 8.47242102e-002,
          2.23719120e-001, 2.69384861e-001, 1.26588628e-001,
          1.21791232e-002, 9.82208624e-002, 1.12341434e-001,
          3.29607353e-002, 1.28307581e-001, 1.71272352e-001,
          1.52040079e-001, 2.81610340e-001, 2.81610340e-001,
          1.04038268e-001, 4.41538058e-002, 2.99490727e-002,
          3.02692652e-002, 8.05126205e-002, 2.48534113e-001,
          2.81610340e-001, 2.81610340e-001, 1.35706082e-001,
          1.03978422e-002, 1.79065883e-001, 2.42920786e-001,
          6.74786866e-002, 1.85751855e-001, 2.81610340e-001,
          1.56728432e-001, 1.01433180e-001, 3.75823788e-002,
          1.12121264e-002, 1.32944033e-001, 1.29739910e-001,
          4.47151847e-002, 9.89799574e-002, 1.23189211e-001,
          2.48913616e-001, 6.37892410e-002, 3.44589539e-002,
          5.46740880e-003, 4.91138846e-002, 3.62780057e-002,
          1.84101872e-002, 3.57380472e-002, 1.72997415e-001,
          4.08968359e-001, 6.55287057e-002, 1.09239323e-002,
          1.48990925e-003, 1.88542321e-001, 1.98433533e-001,
          5.11157066e-002, 1.92133293e-001, 4.08968359e-001,
          4.08968359e-001, 3.95532511e-002, 8.80805124e-003,
          5.10428392e-004, 5.05777150e-002, 3.60582136e-002,
          5.89506747e-003, 4.58781011e-002, 4.08968359e-001,
          2.04764798e-001, 2.26346422e-002, 1.72785707e-002,
          1.12139352e-003, 1.63200796e-002, 2.20661168e-003,
          9.30164941e-003, 4.54655066e-002, 2.11123407e-001,
          1.12628929e-001, 1.13154231e-002, 8.46516620e-003,
          6.52665214e-004, 1.21186478e-002, 1.89811073e-003,
          2.03675907e-002, 6.91932142e-002, 2.18054757e-001,
          3.94656360e-001, 4.85932902e-002, 3.73393716e-003,
          2.55527208e-004, 1.28811719e-002, 3.16351739e-004,
          2.19498053e-002, 1.26555860e-001, 3.94656360e-001,
          3.87405813e-001, 1.30754530e-001, 7.26928189e-002,
          1.62276328e-002, 6.11864068e-002, 1.24173418e-001,
          2.34901488e-001, 3.27357650e-001, 3.94656360e-001 ]
      - [ 9.33175609e-002, 2.81534672e-001, 1.96606845e-001,
          1.93425566e-002, 1.11030834e-002, 7.10298726e-003,
          2.03090906e-002, 3.95605862e-002, 7.92051703e-002,
          2.81534672e-001, 2.34167054e-001, 9.46002826e-002,
          8.24015215e-003, 7.46406391e-002, 1.00388624e-001,
          3.83780561e-002, 1.53783336e-001, 2.07350269e-001,
          1.45332038e-001, 2.81534672e-001, 2.81534672e-001,
          1.18188128e-001, 4.07878570e-002, 3.74610610e-002,
          4.47192900e-002, 5.43444529e-002, 2.02791795e-001,
          2.81534672e-001, 2.81534672e-001, 1.41222939e-001,
          1.64790656e-002, 1.68249950e-001, 2.29856402e-001,
          8.29699636e-002, 2.14709759e-001, 2.81534672e-001,
          2.04408422e-001, 5.25682606e-002, 5.01943845e-003,
          2.97395661e-002, 1.05269238e-001, 1.14017457e-001,
          4.59470861e-002, 1.09629065e-001, 1.46850556e-001,
          2.06467882e-001, 6.45328388e-002, 4.37945966e-003,
          2.45296229e-002, 5.82303070e-002, 3.10923923e-002,
          1.03473356e-002, 2.60465369e-002, 1.68575540e-001,
          4.10934061e-001, 3.77043597e-002, 5.35284262e-003,
          1.85771957e-002, 1.61341980e-001, 1.99553967e-001,
          7.08744079e-002, 2.23443493e-001, 4.10934061e-001,
          4.10934061e-001, 7.57525712e-002, 3.34605505e-003,
          1.30093861e-002, 4.16531898e-002, 3.75723876e-002,
          6.10281620e-003, 5.01889698e-002, 4.10934061e-001,
          1.63320437e-001, 4.10295911e-002, 7.35953916e-003,
          8.51437636e-003, 3.26721258e-002, 3.48513504e-003,
          9.25949682e-003, 4.88400273e-002, 2.08371893e-001,
          8.82871300e-002, 7.25272857e-003, 3.39199007e-002,
          9.81486589e-003, 2.32104771e-002, 1.40278144e-002,
          3.89763862e-002, 8.24283734e-002, 2.17424408e-001,
          4.07356411e-001, 1.02539755e-001, 1.34468246e-002,
          1.60943496e-003, 1.23752635e-002, 0., 2.96362881e-002,
          1.23183660e-001, 4.07356411e-001, 3.93598616e-001,
          1.51524052e-001, 1.48240820e-001, 5.20772710e-002,
          6.20958284e-002, 1.36550963e-001, 2.03757077e-001,
          2.52495348e-001, 4.07356411e-001 ]
      - [ 1.41270429e-001, 2.39250600e-001, 2.41332412e-001,
          5.44388546e-003, 5.60846180e-003, 3.06860777e-003,
          1.20566981e-002, 1.10322339e-002, 9.63353068e-002,
          2.42499709e-001, 1.46209627e-001, 8.05188343e-002,
          7.34878413e-004, 3.70412357e-002, 1.25040978e-001,
          1.23967931e-001, 9.69089791e-002, 2.22878873e-001,
          2.18958706e-001, 2.96068311e-001, 2.96068311e-001,
          7.19765127e-002, 1.18214488e-002, 2.00093500e-002,
          5.76139614e-002, 8.03968087e-002, 2.37892643e-001,
          2.96068311e-001, 2.03772277e-001, 1.16286203e-001,
          2.12461222e-002, 6.31640330e-002, 1.91387728e-001,
          2.96068311e-001, 1.39417738e-001, 2.96068311e-001,
          1.44860089e-001, 5.11455610e-002, 6.19996479e-003, 0.,
          4.05238084e-002, 1.48746222e-001, 1.00988008e-001,
          8.67228583e-002, 1.47696957e-001, 1.92046016e-001,
          4.85203490e-002, 9.83165391e-003, 1.39805935e-002,
          1.23914164e-002, 4.39640172e-002, 4.23015989e-002,
          5.28811663e-002, 1.80350170e-001, 4.25819546e-001,
          4.36466075e-002, 9.17761645e-004, 2.18589301e-003,
          6.33053333e-002, 1.85119644e-001, 2.00562760e-001,
          1.19691864e-001, 4.25819546e-001, 4.25819546e-001,
          5.08759469e-002, 2.29985593e-003, 3.49514815e-003,
          1.84495952e-002, 3.73291522e-002, 3.74472290e-002,
          6.56472519e-002, 4.25819546e-001, 1.89160779e-001,
          3.04463636e-002, 3.36570032e-002, 1.68000236e-002,
          1.70269087e-002, 1.02261538e-002, 1.33878235e-002,
          3.52602601e-002, 1.92879051e-001, 9.30555314e-002,
          5.15700057e-002, 7.66233504e-002, 3.22015993e-002,
          5.70615083e-002, 1.46361068e-002, 2.27837153e-002,
          4.26200554e-002, 1.29746631e-001, 3.78344476e-001,
          1.14302211e-001, 3.79148461e-002, 8.36194772e-003,
          1.69252791e-002, 4.48484858e-003, 4.74510379e-002,
          1.57670215e-001, 3.78344476e-001, 3.20250779e-001,
          2.99693763e-001, 1.77215979e-001, 6.60137311e-002,
          1.72518969e-001, 1.86503872e-001, 1.71514362e-001,
          2.91002125e-001, 3.78344476e-001 ]
      - [ 2.22474828e-001, 3.20721924e-001, 2.54937291e-001,
          1.31575586e-002, 8.97717383e-003, 3.37891616e-002,
          2.04707664e-002, 6.86658472e-002, 1.96510255e-001,
          3.20721924e-001, 1.44887730e-001, 5.09839132e-002, 0.,
          4.37710583e-002, 1.16256133e-001, 1.59905419e-001,
          1.29075989e-001, 3.20721924e-001, 3.20721924e-001,
          1.28030941e-001, 8.45769346e-002, 8.77170544e-003,
          5.82072278e-003, 3.84886041e-002, 1.54749416e-002,
          6.63461909e-002, 3.20721924e-001, 3.20721924e-001,
          4.59363870e-002, 1.15509592e-002, 5.60392672e-003,
          9.90287866e-003, 1.49690043e-002, 3.82181183e-002,
          4.50992472e-002, 3.20721924e-001, 3.48579198e-001,
          8.17449484e-003, 1.10929599e-003, 0., 4.60630208e-002,
          6.21608496e-002, 9.64246690e-002, 4.94279228e-002,
          3.48579198e-001, 3.48579198e-001, 2.26381384e-002,
          4.43718210e-003, 0., 1.99493375e-002, 6.51598955e-003,
          1.77778006e-002, 7.65546178e-003, 3.48579198e-001,
          3.48579198e-001, 1.14033176e-002, 6.14537019e-003,
          3.10359010e-003, 1.35899791e-002, 3.05231404e-003,
          1.98221020e-002, 2.47472469e-002, 3.48579198e-001,
          3.48579198e-001, 4.21631858e-002, 1.12505583e-002, 0.,
          3.22925597e-002, 0., 1.48182316e-002, 2.77870353e-002,
          3.48579198e-001, 3.29495013e-001, 5.41369542e-002,
          1.14974333e-002, 0., 1.18462797e-002, 0., 1.15090646e-002,
          7.01669529e-002, 3.29495013e-001, 2.22746864e-001,
          1.09011061e-001, 8.30437541e-002, 4.28347699e-002,
          4.40241732e-002, 2.13314854e-002, 1.16039559e-001,
          1.60317883e-001, 3.29495013e-001, 3.29495013e-001,
          1.38699532e-001, 2.43020356e-002, 0., 4.85553183e-002, 0.,
          1.63379274e-002, 5.74203432e-002, 3.29495013e-001,
          3.29495013e-001, 2.26464972e-001, 1.28202349e-001,
          6.05260506e-002, 9.76233631e-002, 1.42209902e-002,
          8.35005790e-002, 1.45024642e-001, 3.00638855e-001 ]
      - [ 1.36064559e-001, 2.75135934e-001, 1.65734902e-001,
          1.67532731e-002, 2.50687022e-002, 2.07806025e-002,
          4.39943224e-002, 1.60327137e-001, 2.43607193e-001,
          2.75135934e-001, 2.75135934e-001, 4.53690141e-002,
          3.05702556e-002, 1.06843337e-001, 1.03037819e-001,
          9.34089571e-002, 7.63288662e-002, 2.75135934e-001,
          2.41467312e-001, 2.75135934e-001, 2.03025028e-001,
          1.20392926e-002, 6.70841336e-002, 5.79913966e-002,
          5.00269756e-002, 5.98025098e-002, 2.68441617e-001,
          2.75135934e-001, 1.87025055e-001, 4.06331718e-002,
          1.09312739e-002, 1.29564703e-001, 1.48686737e-001,
          1.50698140e-001, 9.71645191e-002, 2.75135934e-001,
          2.57219493e-001, 2.68934131e-001, 4.71487083e-002,
          4.06530984e-002, 9.80376899e-002, 9.84672457e-002,
          7.07376078e-002, 5.49300499e-002, 1.57134131e-001,
          2.79097885e-001, 1.12167187e-001, 4.66309264e-002,
          4.98050749e-002, 8.37456733e-002, 6.34531081e-002,
          3.53142470e-002, 7.13068172e-002, 3.17836046e-001,
          3.69432062e-001, 2.73555238e-002, 2.80098524e-003,
          2.10515466e-002, 8.57301950e-002, 1.10490039e-001,
          8.47687498e-002, 1.05745599e-001, 3.69432062e-001,
          3.69432062e-001, 1.58674829e-002, 2.31644860e-003,
          1.33248679e-002, 7.81838410e-003, 1.79242324e-002,
          1.92426126e-002, 4.65921648e-002, 3.69432062e-001,
          2.94587970e-001, 2.00760812e-002, 9.46369767e-003,
          1.93517525e-002, 5.77944405e-002, 6.49152845e-002,
          4.74472679e-002, 1.12867057e-001, 3.20470124e-001,
          2.72234023e-001, 7.33493268e-002, 8.31620470e-002,
          7.21299946e-002, 8.26811939e-002, 3.68409567e-002,
          2.99560409e-002, 1.08755291e-001, 3.10523987e-001,
          3.20470124e-001, 5.14427423e-002, 2.30429159e-003,
          2.45339506e-005, 4.14335653e-002, 5.48716821e-002,
          2.56969687e-002, 7.69592002e-002, 3.20470124e-001,
          2.79301465e-001, 1.31886512e-001, 3.82705331e-002,
          3.32391076e-002, 2.72469103e-001, 1.30491152e-001,
          4.65155132e-002, 2.47951388e-001, 3.20470124e-001 ]
      - [ 2.09589824e-001, 2.85255790e-001, 1.68899700e-001,
          1.04106730e-003, 9.69695672e-003, 1.96810011e-002,
          3.21695767e-002, 4.34476919e-002, 1.01738885e-001,
          2.71052659e-001, 1.10682912e-001, 2.24379525e-002, 0.,
          1.19903602e-001, 1.05517566e-001, 8.39880332e-002,
          1.41963705e-001, 1.42663658e-001, 2.60866106e-001,
          2.85255790e-001, 2.85255790e-001, 2.68307067e-002,
          1.79614183e-002, 5.92042543e-002, 1.00737132e-001,
          7.59211332e-002, 2.85255790e-001, 2.85255790e-001,
          1.10646799e-001, 3.65614295e-002, 0., 1.52782843e-001,
          1.82272121e-001, 2.39968881e-001, 2.17203900e-001,
          2.85255790e-001, 1.68099850e-001, 2.58609727e-002,
          1.33661563e-002, 3.63587169e-003, 7.95493349e-002,
          6.55136108e-002, 4.99872603e-002, 9.09723341e-002,
          1.18346281e-001, 2.24742264e-001, 1.36519037e-002,
          2.41761040e-002, 1.67914759e-002, 2.71379780e-002,
          1.16771618e-002, 1.43477265e-002, 4.38004546e-002,
          2.08140776e-001, 4.42551672e-001, 1.33861555e-002,
          8.59210826e-003, 2.42391438e-003, 9.74613354e-002,
          7.81293586e-002, 9.97466967e-002, 1.37126356e-001,
          4.42551672e-001, 4.42551672e-001, 2.30075661e-002,
          1.56394076e-002, 7.05035171e-003, 1.07073560e-002,
          2.91929021e-003, 1.29221063e-002, 6.35791197e-002,
          4.42551672e-001, 1.90903902e-001, 4.82193604e-002,
          2.42386200e-002, 2.92416718e-002, 4.27182876e-002,
          1.63565986e-002, 7.91478145e-004, 5.04439920e-002,
          2.47072041e-001, 9.13545862e-002, 6.86062351e-002,
          4.99884635e-002, 9.54104811e-002, 7.89937675e-002,
          3.93976606e-002, 4.73580696e-002, 8.44849125e-002,
          1.54431477e-001, 3.63749176e-001, 1.59591243e-001,
          7.14315102e-002, 1.96252652e-002, 1.96272004e-002,
          5.35751320e-002, 1.11578606e-001, 2.43406221e-001,
          3.63749176e-001, 1.93631917e-001, 1.77323848e-001,
          1.57060936e-001, 1.93526268e-001, 1.54874280e-001,
          2.12985739e-001, 1.94862947e-001, 2.89081365e-001,
          3.63749176e-001 ]
      - [ 2.60759443e-001, 2.67031610e-001, 1.85820475e-001,
          3.28922458e-002, 2.11845115e-002, 1.48374923e-002,
          6.29053488e-002, 8.02290589e-002, 2.99047410e-001,
          3.28851789e-001, 5.60027510e-002, 1.08328089e-002,
          9.22159571e-003, 1.20873384e-001, 6.07999489e-002,
          1.40387818e-001, 1.16217524e-001, 3.28851789e-001,
          3.28851789e-001, 5.19401319e-002, 5.92803881e-002,
          2.56586205e-002, 2.39239950e-002, 7.51924934e-003,
          1.29534323e-002, 5.88079393e-002, 3.28851789e-001,
          3.28851789e-001, 1.33216251e-002, 6.03458658e-003,
          4.30584792e-003, 2.01277174e-002, 2.11507194e-002,
          2.77737975e-002, 6.78673685e-002, 3.28851789e-001,
          3.50390792e-001, 0., 0., 1.43493684e-002, 4.88800965e-002,
          3.06117367e-002, 4.02575359e-002, 2.31618062e-002,
          3.50390792e-001, 3.50390792e-001, 7.11150141e-003, 0.,
          6.00227574e-003, 8.51705112e-003, 3.27496277e-003,
          3.69364605e-003, 1.69322975e-002, 3.50390792e-001,
          3.50390792e-001, 3.97906872e-003, 6.68973546e-004,
          5.82421385e-003, 1.73533298e-002, 6.51908154e-003,
          4.90107713e-003, 2.02700552e-002, 3.50390792e-001,
          3.50390792e-001, 5.64005598e-002, 1.73769407e-002,
          1.62243228e-002, 5.39949089e-002, 0., 5.24618570e-003,
          2.51371749e-002, 3.50390792e-001, 3.26845646e-001,
          7.40330070e-002, 3.50549631e-002, 1.00559133e-004,
          7.21033057e-003, 1.78723224e-002, 5.38874194e-002,
          8.81836340e-002, 3.26845646e-001, 1.99910164e-001,
          1.18438259e-001, 1.36717632e-001, 4.78737317e-002,
          5.41312546e-002, 9.43055898e-002, 1.01212338e-001,
          9.19903815e-002, 2.92300791e-001, 3.26845646e-001,
          1.72956228e-001, 6.84149563e-002, 6.94706477e-003,
          6.62496164e-002, 1.19148782e-002, 4.15192954e-002,
          9.99553874e-002, 3.26845646e-001, 3.26845646e-001,
          1.76562101e-001, 1.97902620e-001, 8.55281726e-002,
          1.31316811e-001, 8.72230604e-002, 8.63336548e-002,
          1.44294918e-001, 2.68733710e-001 ]
      - [ 2.96186626e-001, 6.39296547e-002, 1.00911401e-001,
          9.06743482e-002, 1.36240246e-002, 8.12117234e-002,
          1.17401831e-001, 1.61756337e-001, 2.07876265e-001,
          3.41920525e-001, 4.69557866e-002, 4.18256558e-002,
          7.79385446e-003, 5.15472889e-003, 8.85486826e-002,
          1.27731308e-001, 1.40851825e-001, 3.41920525e-001,
          3.41920525e-001, 2.08871365e-002, 5.37144467e-002,
          7.59294182e-002, 5.38036227e-002, 5.08917905e-002,
          6.15070052e-002, 1.31251439e-001, 3.33169937e-001,
          3.41920525e-001, 2.58848574e-002, 1.90745927e-002,
          3.24988291e-002, 8.73891786e-002, 2.83594932e-002,
          3.87697183e-002, 7.22521469e-002, 3.41920525e-001,
          3.47608805e-001, 2.02874392e-002, 9.79800522e-003,
          2.10275268e-003, 2.40633776e-003, 1.42481253e-002,
          1.86569337e-002, 2.06978526e-002, 3.47608805e-001,
          3.47608805e-001, 7.14306980e-002, 2.92395763e-002,
          3.75611847e-003, 3.60105070e-003, 1.21177360e-003,
          1.83803157e-003, 2.25491207e-002, 3.47608805e-001,
          3.47608805e-001, 2.42758784e-002, 3.35721159e-003,
          1.63874757e-002, 5.27028963e-002, 4.69879061e-003,
          1.62814874e-002, 1.08052818e-002, 3.47608805e-001,
          3.47608805e-001, 9.66655910e-002, 6.81410283e-002,
          7.40240235e-003, 5.00264652e-002, 0., 8.65529943e-003,
          3.47344950e-002, 3.47608805e-001, 1.89511508e-001,
          1.05035916e-001, 8.70761946e-002, 8.37069452e-002,
          1.12627596e-001, 4.23283167e-002, 1.63688660e-002,
          6.89897910e-002, 3.02536666e-001, 4.61630784e-002,
          3.44097316e-002, 1.00590773e-001, 3.19680452e-001,
          3.44051212e-001, 1.40433818e-001, 2.18085367e-002,
          4.05198187e-002, 5.80547377e-002, 3.44051212e-001,
          1.22974753e-001, 1.26295313e-001, 5.82290627e-002,
          1.57290295e-001, 5.96567094e-002, 1.56606175e-002,
          8.21226537e-002, 3.18094879e-001, 1.06695361e-001,
          5.43805733e-002, 5.13205491e-002, 1.22411802e-001,
          3.44051212e-001, 3.42397690e-001, 2.34909281e-002,
          4.05672751e-002, 7.55713657e-002 ]
      - [ 2.54326165e-001, 1.44645721e-001, 1.11647740e-001,
          5.57057522e-002, 1.41985631e-002, 6.83655515e-002,
          7.21879303e-002, 1.41925707e-001, 2.47142494e-001,
          3.28264266e-001, 6.39059842e-002, 2.67167967e-002,
          3.54438350e-002, 7.72043457e-003, 1.04860343e-001,
          7.97132328e-002, 1.33772910e-001, 3.50000948e-001,
          3.50000948e-001, 6.89880848e-002, 7.72918090e-002,
          2.59415302e-002, 4.54221591e-002, 3.07311863e-002,
          3.73264886e-002, 1.22693829e-001, 3.50000948e-001,
          3.50000948e-001, 3.79710346e-002, 1.12316841e-002, 0.,
          3.03241126e-002, 2.21266244e-002, 3.83720584e-002,
          8.42126980e-002, 3.50000948e-001, 3.44383538e-001,
          3.22822072e-002, 7.10198563e-003, 9.39722918e-003,
          2.39510858e-003, 1.69097353e-002, 1.80295333e-002,
          2.62503792e-002, 3.49747330e-001, 3.49747330e-001,
          4.76009734e-002, 8.39230791e-003, 4.30645049e-003,
          3.70775745e-003, 5.05618518e-004, 5.67814615e-003,
          4.25093025e-002, 3.49747330e-001, 3.49747330e-001,
          3.36699709e-002, 7.35168438e-003, 0., 1.80219132e-002,
          3.65610351e-003, 2.14406606e-002, 3.15236151e-002,
          3.49747330e-001, 3.49747330e-001, 8.70289728e-002,
          1.55936489e-002, 6.45967619e-003, 4.41077836e-002, 0.,
          1.22032445e-002, 4.48984541e-002, 3.49747330e-001,
          3.05186510e-001, 8.23857114e-002, 7.23438263e-002,
          8.44149813e-002, 5.62610626e-002, 3.28090675e-002,
          5.91150261e-002, 1.11990325e-001, 2.83146977e-001,
          6.80659637e-002, 4.39098738e-002, 9.40645188e-002,
          2.98181057e-001, 3.05186510e-001, 2.45077237e-001,
          9.25543755e-002, 6.52156696e-002, 4.76879552e-002,
          3.05186510e-001, 1.20738231e-001, 5.55272624e-002,
          8.77649859e-002, 1.30453408e-001, 4.78672646e-002,
          4.26057242e-002, 8.67088363e-002, 3.05186510e-001,
          1.18061543e-001, 7.82792121e-002, 4.41404842e-002,
          2.68880248e-001, 3.05186510e-001, 2.67838776e-001,
          7.49991089e-002, 5.47631234e-002, 5.91812879e-002 ]
      - [ 1.85184419e-001, 2.49327034e-001, 8.93398076e-002,
          3.75480461e-003, 3.03944554e-002, 6.80069923e-002,
          4.26317826e-002, 6.68362156e-002, 1.61029041e-001,
          1.79587781e-001, 7.88024217e-002, 2.78072637e-002,
          1.69050340e-002, 3.73820737e-002, 1.78143755e-001,
          1.69446275e-001, 1.15251392e-001, 2.26001069e-001,
          2.92186141e-001, 3.01566720e-001, 1.85473710e-001,
          3.02046873e-002, 2.06347965e-002, 1.26212299e-001,
          1.02392569e-001, 9.15576592e-002, 3.01566720e-001,
          3.01566720e-001, 3.98265235e-002, 1.79188438e-002,
          1.30509986e-002, 4.17401120e-002, 2.77264655e-001,
          2.13124126e-001, 2.07966760e-001, 3.01566720e-001,
          1.73587620e-001, 4.52166386e-002, 3.15433554e-002,
          1.31918285e-002, 2.50926204e-002, 6.64842948e-002,
          1.01913758e-001, 4.81301136e-002, 2.01964587e-001,
          2.22401977e-001, 5.94363734e-002, 1.93823390e-002,
          2.62793340e-003, 2.91933585e-002, 7.67515739e-004,
          3.80271412e-002, 3.40353139e-002, 2.21019730e-001,
          4.36701030e-001, 3.45404111e-002, 1.56063670e-002,
          8.39054398e-003, 1.59171224e-002, 8.78570527e-002,
          8.27506334e-002, 6.18799776e-002, 4.36701030e-001,
          4.36701030e-001, 9.88394991e-002, 4.38242219e-003, 0.,
          6.78496948e-003, 1.38116939e-005, 3.62912193e-002,
          6.26545474e-002, 4.36701030e-001, 2.18819648e-001,
          6.36032298e-002, 3.08428146e-002, 5.07875811e-003,
          1.52507108e-002, 3.01594468e-004, 2.33397316e-002,
          2.75431126e-002, 2.73643225e-001, 1.28080532e-001,
          9.23509449e-002, 3.97322997e-002, 1.50695900e-002,
          1.77299567e-002, 4.14144993e-003, 2.48099435e-002,
          5.22202812e-002, 1.40895411e-001, 3.72561783e-001,
          2.06836581e-001, 9.13763866e-002, 1.77112836e-002,
          5.44768311e-002, 1.00950189e-001, 1.31122291e-001,
          1.97108284e-001, 3.72561783e-001, 2.01665089e-001,
          1.56179339e-001, 2.38134205e-001, 1.54168010e-001,
          2.46321186e-001, 1.69551969e-001, 1.43295199e-001,
          1.55387580e-001, 3.72561783e-001 ]
      - [ 6.00043274e-002, 3.35865021e-002, 2.57059857e-002,
          5.94070032e-002, 1.90579951e-001, 1.36310562e-001,
          2.42169604e-001, 2.18898803e-001, 2.55996555e-001,
          3.06389421e-001, 2.94467241e-001, 4.74349074e-002,
          5.27407303e-002, 8.58435184e-002, 1.65968854e-002,
          4.98347990e-002, 2.35542953e-001, 3.06389421e-001,
          9.67324153e-002, 2.51795873e-002, 3.89433019e-002,
          4.98861782e-002, 7.06401095e-002, 9.25116092e-002,
          1.77710831e-001, 1.65470377e-001, 3.06389421e-001,
          3.06389421e-001, 1.51139498e-001, 3.52917090e-002,
          1.78599339e-002, 2.96309050e-002, 1.44684669e-002,
          3.37901972e-002, 1.45447299e-001, 3.06389421e-001,
          3.13932627e-001, 3.52980465e-001, 1.27960697e-001,
          4.24316153e-002, 2.15525385e-002, 1.04728260e-003,
          5.22901723e-003, 4.67860587e-002, 1.71062231e-001,
          1.43082753e-001, 3.52980465e-001, 3.52980465e-001,
          3.10910325e-002, 4.31213677e-002, 1.11161498e-002,
          1.84179153e-002, 1.92827657e-002, 1.11956568e-002,
          3.28161269e-001, 3.52980465e-001, 3.41143124e-002,
          2.56803837e-002, 3.19919176e-002, 7.29710143e-003,
          7.94241205e-003, 5.06396927e-002, 1.85866728e-001,
          1.37110218e-001, 3.52980465e-001, 1.53628692e-001,
          6.02905750e-002, 6.64194971e-002, 1.61852948e-002,
          3.16670947e-002, 2.90539451e-002, 1.56863146e-002,
          1.37806758e-001, 2.90826917e-001, 2.47056276e-001,
          4.48712595e-002, 1.47679925e-001, 6.59919605e-002,
          4.62377109e-002, 7.24865720e-002, 9.27101672e-002,
          2.33201638e-001, 1.23291895e-001, 1.28964081e-001,
          1.91338226e-001, 2.90826917e-001, 1.18420869e-001,
          6.06109835e-002, 8.67106691e-002, 2.58394092e-001,
          1.16552211e-001, 1.44932315e-001, 1.41648799e-001,
          6.20272011e-002, 1.76024452e-001, 4.42318432e-002,
          8.05539191e-002, 5.37456721e-002, 1.49691492e-001,
          2.90826917e-001, 1.98214993e-001, 1.89954966e-001,
          7.19943717e-002, 1.90501511e-001, 1.14148878e-001,
          1.54735416e-001, 2.06697673e-001, 2.90826917e-001 ]
      - [ 2.91634351e-002, 6.00615032e-002, 4.75585982e-002,
          3.66084687e-002, 2.03280330e-001, 1.04697742e-001,
          2.92687118e-001, 2.45737210e-001, 1.78796649e-001,
          2.92687118e-001, 2.92687118e-001, 3.92605811e-002,
          2.42863968e-002, 1.31364584e-001, 4.04863469e-002,
          1.02017522e-001, 2.37672001e-001, 2.92687118e-001,
          5.93581237e-002, 9.74761695e-003, 2.88486946e-003,
          3.82514410e-002, 1.06112361e-001, 1.03392534e-001,
          2.62175083e-001, 2.22789451e-001, 1.46598965e-001,
          2.92687118e-001, 1.70108140e-001, 7.42777437e-003,
          2.72787623e-002, 2.50295456e-002, 3.06346398e-002,
          7.27298185e-002, 1.97398558e-001, 2.92687118e-001,
          3.47762197e-001, 3.47762197e-001, 1.45713508e-001,
          1.59981027e-002, 3.18674073e-002, 4.35501104e-003,
          8.31027981e-003, 3.92430760e-002, 1.69767812e-001,
          1.52155593e-001, 3.47762197e-001, 3.47762197e-001,
          4.99673840e-003, 4.94345576e-002, 7.07986811e-003,
          1.68842077e-002, 3.51416729e-002, 3.49133126e-002,
          3.32033783e-001, 3.47762197e-001, 5.38524352e-002,
          1.35386512e-002, 5.42096514e-003, 2.72664001e-005,
          6.55601220e-003, 5.38817309e-002, 1.65662453e-001,
          1.06950693e-001, 3.35768729e-001, 1.48194164e-001,
          1.06084524e-002, 3.82244252e-002, 7.20332982e-003,
          1.14529831e-002, 6.12356514e-002, 1.22775443e-001,
          1.66142121e-001, 3.08016509e-001, 2.42535993e-001,
          3.25531475e-002, 1.77942127e-001, 1.16175666e-001,
          7.61712044e-002, 1.71215668e-001, 7.10801631e-002,
          1.81003630e-001, 2.07038268e-001, 1.98842406e-001,
          2.10068226e-001, 3.08016509e-001, 1.75819442e-001,
          7.97037110e-002, 2.38433167e-001, 1.76004693e-001,
          5.28450869e-002, 1.20806731e-001, 8.89084414e-002,
          2.68595088e-002, 8.85770395e-002, 8.80687833e-002,
          4.39562649e-002, 1.23580538e-001, 1.17703348e-001,
          1.74901143e-001, 2.77528018e-001, 1.94083273e-001,
          1.49459958e-001, 1.42858937e-001, 1.74279004e-001,
          7.32064322e-002, 1.41742364e-001, 1.82883725e-001 ]
      - [ 2.39289567e-001, 2.06814110e-001, 1.52121112e-001,
          5.66207357e-002, 6.20034477e-003, 1.17215654e-002,
          3.86472084e-002, 4.39168140e-002, 1.04385458e-001,
          2.67594725e-001, 1.61180794e-001, 1.90898195e-001,
          1.07477248e-001, 3.47912237e-002, 1.75509695e-002,
          4.61497456e-002, 8.37867707e-002, 1.12174973e-001,
          1.47572309e-001, 2.97827125e-001, 2.25119889e-001,
          1.24946341e-001, 9.26977172e-002, 1.89711496e-001,
          1.51464969e-001, 5.76875135e-002, 2.15685368e-001,
          2.97827125e-001, 2.97827125e-001, 2.73068935e-001,
          1.62390143e-001, 7.59835467e-002, 6.70075268e-002,
          9.25585330e-002, 8.54797736e-002, 2.97827125e-001,
          1.07629620e-001, 1.56876996e-001, 1.27669781e-001,
          8.06331336e-002, 2.16534324e-002, 8.96043517e-003,
          9.35960002e-003, 3.34877372e-002, 5.16616702e-002,
          1.12801231e-001, 3.89012992e-001, 2.27362379e-001,
          2.13373154e-002, 1.86086318e-003, 0., 1.24936178e-002,
          1.91907194e-002, 8.07088614e-002, 3.81010681e-001,
          3.89012992e-001, 2.44281501e-001, 1.24744639e-001,
          7.24094808e-002, 5.97362174e-003, 5.74395014e-003,
          1.40452599e-002, 7.21975937e-002, 1.18293062e-001,
          3.89012992e-001, 3.89012992e-001, 3.45359333e-002,
          6.08784445e-002, 3.47174006e-003, 1.80083769e-003,
          1.21727716e-002, 7.25989938e-002, 2.89208084e-001,
          2.89208084e-001, 1.63541883e-001, 6.27843011e-003,
          3.51937604e-003, 6.66866731e-003, 1.56055102e-002,
          5.05702244e-003, 8.07155073e-002, 2.89208084e-001,
          1.94835857e-001, 6.55904934e-002, 3.37808505e-002,
          6.34618551e-002, 7.63358623e-002, 5.36466725e-002,
          9.30582806e-002, 2.11163595e-001, 2.29348451e-001,
          2.89208084e-001, 2.89208084e-001, 1.04927002e-002,
          1.10289566e-001, 6.87435716e-002, 1.60745531e-002,
          3.80763784e-002, 1.92981467e-001, 2.60611564e-001,
          1.29579514e-001, 1.25248179e-001, 2.15109199e-001,
          2.89208084e-001, 1.92256317e-001, 5.72217591e-002,
          8.33241343e-002, 2.23273128e-001 ]
      - [ 2.29168743e-001, 2.52479583e-001, 2.19953746e-001,
          3.70110385e-002, 3.07517662e-003, 2.31484300e-003,
          3.57808545e-002, 5.84870316e-002, 1.77220792e-001,
          1.91474870e-001, 1.83689937e-001, 9.20118690e-002,
          1.34102717e-001, 8.59074220e-002, 7.47545250e-003,
          1.17406346e-001, 7.87259266e-002, 1.49566159e-001,
          1.60970330e-001, 2.77508080e-001, 2.77508080e-001,
          5.93900047e-002, 2.66071111e-001, 5.64117357e-002,
          6.62280768e-002, 8.55655745e-002, 1.59768447e-001,
          2.77508080e-001, 2.77508080e-001, 2.77508080e-001,
          1.86357707e-001, 1.97336495e-001, 3.77554297e-002,
          8.35140347e-002, 6.28871992e-002, 1.91625074e-001,
          6.16243035e-002, 1.33988947e-001, 1.17731839e-001,
          8.16217735e-002, 7.92605504e-002, 1.66678708e-002,
          4.72306162e-002, 2.28836033e-002, 4.82362323e-002,
          2.19116941e-001, 3.65308464e-001, 2.03936875e-001,
          7.33788405e-003, 2.77792662e-002, 2.22122502e-002,
          1.79138891e-002, 3.90819134e-003, 5.70618697e-002,
          1.57779798e-001, 3.65308464e-001, 3.65308464e-001,
          1.09651186e-001, 1.25762686e-001, 7.83857424e-003,
          2.25790441e-002, 4.51551098e-003, 4.46258187e-002,
          2.96378940e-001, 3.65308464e-001, 3.65308464e-001,
          1.22569799e-002, 1.33564353e-001, 3.92506681e-002,
          2.74757370e-002, 1.05266469e-002, 1.30831689e-001,
          3.12194765e-001, 3.12194765e-001, 5.26959784e-002,
          1.52667565e-002, 2.71564741e-002, 3.38151306e-002,
          3.05299312e-002, 2.55149566e-002, 1.52327150e-001,
          2.19970837e-001, 8.57620239e-002, 1.52397249e-002,
          7.92616978e-002, 2.02934608e-001, 1.44305527e-001,
          8.96404013e-002, 8.94217417e-002, 2.70018637e-001,
          3.11803401e-001, 3.12194765e-001, 1.25427380e-001,
          5.31315915e-002, 2.16450810e-001, 9.05225798e-002,
          6.17706180e-002, 4.63115685e-002, 2.23774642e-001,
          1.24874339e-001, 5.79645000e-002, 2.89984420e-002,
          1.38633415e-001, 3.12194765e-001, 2.47941822e-001,
          8.42220336e-002, 7.21968487e-002, 1.56474039e-001 ]
      - [ 2.82208949e-001, 2.41777003e-001, 1.92395851e-001,
          3.50286886e-002, 3.16048600e-003, 6.70698611e-003,
          3.09906602e-002, 5.46864197e-002, 1.48531601e-001,
          1.99084431e-001, 1.01779401e-001, 8.40954483e-002,
          1.00105196e-001, 8.28281417e-002, 3.37051973e-002,
          9.58421752e-002, 7.96146393e-002, 1.36811674e-001,
          2.30278090e-001, 2.82208949e-001, 2.82208949e-001,
          6.58207610e-002, 2.82208949e-001, 6.35607392e-002,
          6.03731498e-002, 1.13375559e-001, 1.37686148e-001,
          2.82208949e-001, 2.82208949e-001, 2.82208949e-001,
          1.53742343e-001, 2.16198802e-001, 6.43885806e-002,
          8.74764323e-002, 9.25773904e-002, 1.41389623e-001,
          3.81916314e-002, 1.43779263e-001, 1.06299445e-001,
          3.83392237e-002, 6.20414838e-002, 2.10783537e-002,
          4.06663977e-002, 1.47026628e-002, 4.21198644e-002,
          1.69438913e-001, 3.83803636e-001, 2.03848064e-001,
          6.52508764e-003, 3.17426515e-003, 3.56033840e-003,
          1.27424886e-002, 3.63095216e-002, 6.01073839e-002,
          9.58143324e-002, 3.83803636e-001, 3.83803636e-001,
          6.05522953e-002, 1.35127679e-001, 2.05245744e-002,
          2.63937302e-002, 8.14678613e-003, 2.85055190e-002,
          2.58255452e-001, 3.83803636e-001, 3.83803636e-001,
          3.61809600e-003, 1.15696199e-001, 2.01478396e-002,
          1.15960445e-002, 5.38871735e-002, 1.57279804e-001,
          3.08098972e-001, 3.08098972e-001, 6.37610257e-002,
          1.66993700e-002, 2.61988752e-002, 3.60907204e-002,
          2.24462375e-002, 8.37189108e-002, 1.42726257e-001,
          2.59031326e-001, 6.48089647e-002, 4.88229468e-003,
          4.90801893e-002, 1.76343471e-001, 1.18471883e-001,
          1.41695529e-001, 1.55361652e-001, 2.13597596e-001,
          3.08098972e-001, 3.08098972e-001, 1.27681792e-001,
          5.14825545e-002, 2.55314410e-001, 9.98744741e-002,
          4.23846394e-002, 1.14184357e-001, 1.99786782e-001,
          1.12516023e-001, 5.83855473e-002, 3.63246426e-002,
          1.93373844e-001, 3.08098972e-001, 2.03028485e-001,
          1.17390022e-001, 9.99430791e-002, 1.03654251e-001 ]
      - [ 1.66510209e-001, 2.47062519e-001, 1.42615810e-001,
          8.87158364e-002, 1.29348459e-002, 7.16968775e-002,
          1.22621670e-001, 1.36774883e-001, 1.03360392e-001,
          2.58215725e-001, 3.13822210e-001, 2.31525183e-001,
          6.34766892e-002, 3.05217300e-002, 5.10885268e-002,
          4.89879362e-002, 7.39709660e-002, 6.20571747e-002,
          2.89881140e-001, 7.73110017e-002, 2.25663017e-002,
          2.11797394e-002, 6.77552540e-003, 3.73418406e-002,
          1.14408575e-001, 3.13822210e-001, 3.13822210e-001,
          3.13822210e-001, 3.13822210e-001, 1.10780291e-001,
          3.89249250e-003, 1.53635675e-002, 4.07902943e-003,
          1.64649021e-002, 6.06234558e-002, 2.76002973e-001,
          9.02101472e-002, 3.34009141e-001, 3.34009141e-001,
          2.35763267e-002, 2.19730791e-002, 1.34134470e-002,
          9.75464657e-003, 1.13683501e-002, 6.77066622e-003,
          1.48092538e-001, 3.34009141e-001, 2.91873068e-001,
          2.01954413e-002, 1.13941118e-001, 8.17680433e-002,
          9.51233041e-003, 8.06868449e-002, 8.99301246e-002,
          1.96867913e-001, 3.34009141e-001, 2.52756000e-001,
          2.88071670e-003, 3.90693732e-002, 0., 1.30607223e-003,
          7.24655995e-003, 4.03648317e-002, 1.29594937e-001,
          3.34009141e-001, 2.12616429e-001, 6.07368397e-003,
          2.48710483e-001, 1.97881222e-001, 6.29035830e-002,
          8.31345692e-002, 8.69425237e-002, 1.13524809e-001,
          2.16294259e-001, 6.64806962e-002, 7.90498182e-002,
          3.03460509e-001, 1.49771079e-001, 4.14771959e-002,
          1.20729424e-001, 1.32032543e-001, 1.47069041e-002,
          4.23893109e-002, 2.21864358e-002, 2.49347553e-001,
          3.03460509e-001, 1.35721713e-001, 4.59037386e-002,
          3.07030566e-002, 4.37521487e-002, 1.61497563e-001,
          2.43077695e-001, 6.74746111e-002, 8.33701789e-002,
          3.03460509e-001, 2.40506083e-001, 1.37861863e-001,
          1.62748218e-001, 1.97745696e-001, 9.63184386e-002,
          1.94263473e-001, 9.14138779e-002, 2.76602268e-001,
          3.03460509e-001, 1.19110696e-001, 7.64969662e-002,
          8.18599612e-002, 1.27745554e-001 ]
      - [ 1.55494273e-001, 2.23369673e-001, 1.51850954e-001,
          7.93707669e-002, 2.29811054e-002, 6.34161010e-002,
          1.38206810e-001, 1.36301324e-001, 1.14817806e-001,
          2.55993038e-001, 2.99976707e-001, 2.99976707e-001,
          1.93687640e-002, 3.59514467e-002, 5.11741713e-002,
          5.77492192e-002, 5.26561737e-002, 8.51034895e-002,
          2.99976707e-001, 4.92789634e-002, 2.15955079e-002,
          1.98426880e-002, 9.44783445e-003, 3.33739407e-002,
          1.21500701e-001, 2.99976707e-001, 2.99976707e-001,
          2.99976707e-001, 2.99976707e-001, 1.37927383e-001,
          3.53973289e-003, 1.01836361e-002, 3.97018017e-003,
          2.36832630e-002, 6.95478246e-002, 2.85097212e-001,
          9.07155201e-002, 3.30140322e-001, 3.30140322e-001,
          7.00576697e-003, 2.14700755e-002, 1.74625572e-002,
          8.79592542e-003, 0., 9.61981155e-003, 1.62010938e-001,
          3.30140322e-001, 2.61924058e-001, 3.86868306e-002,
          1.24534398e-001, 3.80642675e-002, 1.19566880e-002,
          3.92899998e-002, 9.64119583e-002, 2.98108727e-001,
          3.30140322e-001, 2.65978813e-001, 1.12669012e-002,
          2.46215053e-002, 0., 3.80581175e-003, 1.35967257e-002,
          2.54416056e-002, 1.33108258e-001, 3.30140322e-001,
          2.02171043e-001, 6.51766807e-002, 2.59735912e-001,
          8.63397345e-002, 7.31930807e-002, 7.08362535e-002,
          9.44001824e-002, 1.74755350e-001, 2.53461868e-001,
          5.61279617e-002, 8.56929645e-002, 3.32722813e-001,
          8.21159855e-002, 5.09869680e-002, 6.49163425e-002,
          1.54153138e-001, 3.14964131e-002, 3.45374122e-002,
          3.32166813e-002, 1.16773590e-001, 3.32722813e-001,
          1.19202405e-001, 4.94095199e-002, 1.54395401e-002,
          4.93609421e-002, 1.48785591e-001, 2.30689615e-001,
          1.08321391e-001, 9.02659670e-002, 3.32722813e-001,
          1.08687475e-001, 1.31993577e-001, 1.58754319e-001,
          2.39363015e-001, 7.68761560e-002, 1.83508724e-001,
          1.79989159e-001, 2.37544626e-001, 3.32722813e-001,
          4.62689996e-002, 5.84171116e-002, 1.24496289e-001,
          1.36313453e-001 ]
      - [ 2.07385644e-001, 2.28339925e-001, 9.70231444e-002,
          1.45301908e-001, 1.34419903e-001, 2.25097761e-002,
          6.66223140e-003, 8.59110877e-002, 1.35357991e-001,
          2.54601359e-001, 3.03024232e-001, 9.35356766e-002,
          9.76441428e-002, 8.78233016e-002, 6.31690994e-002,
          2.77560763e-002, 7.58502558e-002, 1.25869632e-001,
          2.47333065e-001, 1.65622175e-001, 4.11281586e-002,
          5.91645576e-002, 1.79924846e-001, 8.77259448e-002,
          7.96321407e-002, 2.84533322e-001, 3.03024232e-001,
          3.03024232e-001, 3.03024232e-001, 2.53973961e-001,
          4.15743329e-002, 9.06836540e-002, 2.63144914e-002,
          2.32442538e-003, 7.64344558e-002, 2.00861812e-001,
          1.40481398e-001, 3.13049853e-001, 2.54866838e-001,
          3.62211801e-002, 2.86035016e-002, 2.56056692e-002,
          1.46992719e-002, 4.54084314e-002, 1.06394865e-001,
          2.30479330e-001, 3.13049853e-001, 3.13049853e-001,
          4.18288447e-002, 4.93297540e-002, 2.63721799e-003,
          3.34883183e-002, 1.71118751e-002, 1.99270979e-001,
          1.19475096e-001, 3.13049853e-001, 3.13049853e-001,
          1.56839937e-002, 3.85857560e-002, 2.15176661e-002, 0.,
          9.17445775e-003, 6.06017970e-002, 1.72821298e-001,
          3.13049853e-001, 2.66858280e-001, 3.23670767e-002,
          1.97880641e-001, 8.43860433e-002, 4.29606251e-002,
          9.25201997e-002, 1.74127936e-001, 2.04851836e-001,
          1.73715830e-001, 8.26807246e-002, 4.18124944e-002,
          2.06895679e-001, 7.90406093e-002, 1.18610136e-001,
          6.68535568e-003, 1.95365548e-001, 4.61897962e-002,
          6.70003565e-003, 2.65397187e-002, 2.66889662e-001,
          3.48529428e-001, 2.95417607e-001, 1.18308857e-001,
          1.24258334e-002, 9.44404826e-002, 1.54688820e-001,
          1.28270745e-001, 7.30003044e-002, 1.31939933e-001,
          3.48529428e-001, 9.15512592e-002, 7.13302717e-002,
          7.10887834e-002, 1.06383637e-001, 6.99371621e-002,
          4.94431816e-002, 5.12736514e-002, 3.48529428e-001,
          3.48529428e-001, 1.94589734e-001, 4.79228795e-002,
          6.88860100e-003, 3.12764458e-002 ]
      - [ 2.11586714e-001, 2.77544200e-001, 2.08874330e-001,
          3.99599150e-002, 1.63570065e-002, 7.70724788e-002,
          7.84453675e-002, 4.75333370e-002, 2.40395680e-001,
          1.25822797e-001, 3.11667919e-001, 2.13502035e-001,
          6.91850856e-002, 3.37637924e-002, 8.77130553e-002,
          4.66078147e-002, 5.56931533e-002, 1.76446766e-001,
          1.99463710e-001, 3.11667919e-001, 1.83732688e-001,
          2.90235616e-002, 4.25441675e-002, 9.77012217e-002,
          9.85450372e-002, 1.48929730e-001, 2.44846836e-001,
          2.52912015e-001, 3.11667919e-001, 3.11667919e-001,
          5.12700379e-002, 5.06437942e-002, 2.19282620e-002,
          2.76835579e-002, 1.51209524e-002, 9.61453021e-002,
          1.55575126e-001, 3.18306804e-001, 2.45980993e-001,
          1.74395666e-002, 1.00159729e-002, 1.41538065e-002,
          1.59570551e-003, 1.49132283e-002, 8.07381421e-002,
          3.18306804e-001, 3.18306804e-001, 2.43820980e-001,
          1.26977796e-002, 2.60063894e-002, 1.56932641e-002,
          2.12043319e-002, 2.09420398e-002, 1.73275113e-001,
          9.75225568e-002, 3.18306804e-001, 3.18306804e-001,
          2.13754904e-002, 2.40694657e-002, 2.09219325e-002,
          1.42577859e-002, 5.52881695e-003, 1.86869111e-002,
          2.12026730e-001, 3.18306804e-001, 2.47282237e-001,
          2.14308798e-002, 1.81955040e-001, 1.40434518e-001,
          1.58458039e-001, 4.08916511e-002, 8.75160992e-002,
          3.45935553e-001, 1.68020070e-001, 5.93936443e-002,
          2.13434268e-002, 2.71252215e-001, 9.97893885e-002,
          7.75385574e-002, 1.28894463e-001, 2.85301030e-001,
          4.90437821e-002, 1.52434884e-002, 2.96823997e-002,
          4.53279130e-002, 3.45935553e-001, 1.74669310e-001,
          7.86138847e-002, 1.54431283e-001, 1.55665860e-001,
          1.18746623e-001, 1.19350314e-001, 6.25896901e-002,
          1.11848839e-001, 3.45935553e-001, 1.82135999e-001,
          1.37829304e-001, 7.15263113e-002, 6.47843927e-002,
          1.89506020e-002, 2.72050723e-002, 4.84348051e-002,
          2.67245531e-001, 3.45935553e-001, 1.59118503e-001,
          2.02161036e-002, 2.34121699e-002, 1.85639020e-002 ]
      - [ 2.22401202e-001, 2.68736541e-001, 2.10070208e-001,
          2.30293367e-002, 6.59058476e-003, 6.60693496e-002,
          9.13145021e-002, 3.71733047e-002, 2.43162692e-001,
          1.02847777e-001, 3.13187987e-001, 2.06679195e-001,
          4.12548780e-002, 5.91988070e-003, 7.97604546e-002,
          9.02292728e-002, 5.02271131e-002, 1.88296884e-001,
          2.06248373e-001, 3.13187987e-001, 1.99224606e-001,
          2.08069701e-002, 4.14468125e-002, 1.10540651e-001,
          9.88375098e-002, 1.65865660e-001, 2.34385312e-001,
          2.28163108e-001, 3.13187987e-001, 3.13187987e-001,
          2.62853075e-002, 3.90976332e-002, 2.30759047e-002,
          3.75763029e-002, 1.66812483e-002, 1.09984748e-001,
          1.00399412e-001, 3.39714527e-001, 2.04003766e-001,
          1.48200002e-002, 3.37159541e-003, 1.52461072e-002,
          2.71098427e-002, 2.56520156e-002, 7.45700523e-002,
          3.35849971e-001, 3.39714527e-001, 1.83767155e-001,
          6.78875810e-003, 1.86391585e-002, 1.74401756e-002,
          3.01727671e-002, 2.78474353e-002, 1.43240571e-001,
          1.05385594e-001, 3.39714527e-001, 3.39714527e-001,
          5.96388988e-003, 2.14751046e-002, 1.48397945e-002,
          2.73688287e-002, 8.41332600e-003, 6.07214123e-003,
          2.36957878e-001, 3.39714527e-001, 1.87853321e-001,
          6.88531063e-003, 1.80956125e-001, 1.39350176e-001,
          1.71305776e-001, 5.80005571e-002, 4.42274287e-002,
          3.01756799e-001, 2.51405478e-001, 3.94244567e-002,
          1.55845210e-002, 2.18874946e-001, 1.37868926e-001,
          9.75355431e-002, 1.35635391e-001, 2.37227604e-001,
          6.18012808e-002, 1.06148552e-002, 4.90200659e-003,
          5.07083610e-002, 3.18360627e-001, 2.68550873e-001,
          1.16893157e-001, 1.31162956e-001, 1.12904273e-001,
          1.19202584e-001, 1.72727451e-001, 4.55676429e-002,
          1.16631575e-001, 3.18360627e-001, 2.05937788e-001,
          1.40555695e-001, 8.85528177e-002, 5.12437075e-002,
          1.82537958e-002, 6.90355003e-002, 2.74430923e-002,
          2.98343420e-001, 3.18360627e-001, 1.81346714e-001,
          4.46810387e-002, 2.88466532e-002, 2.00741123e-002 ]
      - [ 1.55245677e-001, 2.66954392e-001, 2.21864805e-001,
          4.48135957e-002, 1.58661813e-001, 4.67819199e-002,
          2.55031101e-002, 4.31454852e-002, 6.96642920e-002,
          2.24151835e-001, 2.66954392e-001, 2.00607240e-001,
          8.87418240e-002, 1.87386915e-001, 9.80184749e-002,
          4.96486649e-002, 8.88243020e-002, 1.40886560e-001,
          7.82254338e-002, 1.06781371e-001, 1.07321262e-001,
          2.71020439e-002, 2.21990362e-001, 7.34865963e-002,
          1.91760659e-001, 2.66954392e-001, 2.25884631e-001,
          2.66954392e-001, 2.66954392e-001, 2.26295769e-001,
          3.33438851e-002, 1.69347703e-001, 5.44011183e-002,
          3.34499478e-002, 1.70491979e-001, 2.66954392e-001,
          1.74253672e-001, 1.47876173e-001, 9.03011337e-002,
          6.73681498e-002, 9.04160663e-002, 9.47974846e-002,
          9.45128128e-002, 6.17180578e-002, 1.36689946e-001,
          1.50567472e-001, 1.16014495e-001, 5.05577512e-002,
          2.25880537e-002, 1.20883934e-001, 2.26039961e-001,
          1.16590582e-001, 2.11974636e-001, 2.18262106e-001,
          2.78075963e-001, 2.78075963e-001, 1.27715915e-001,
          3.37008424e-002, 5.65111451e-002, 9.75726545e-002,
          1.43298075e-001, 2.08554506e-001, 2.78075963e-001,
          2.78075963e-001, 1.27185181e-001, 2.10912731e-002,
          9.86171514e-003, 9.43672508e-002, 1.91134393e-001,
          2.28774220e-001, 2.78075963e-001, 2.78075963e-001,
          9.85029265e-002, 1.04006700e-001, 5.07738627e-002,
          3.78866424e-003, 1.22116685e-001, 1.58524320e-001,
          9.24711525e-002, 2.54026771e-001, 2.09579229e-001,
          3.52697335e-002, 2.77288035e-002, 4.34718244e-002,
          3.63778174e-002, 1.29170850e-001, 2.54026771e-001,
          2.37836391e-001, 2.54026771e-001, 1.70227140e-001,
          2.54026771e-001, 2.54026771e-001, 1.35931477e-001,
          4.43079462e-003, 1.51284933e-001, 1.04254864e-001,
          7.56810680e-002, 2.09058240e-001, 2.43488550e-001,
          1.29393458e-001, 2.54026771e-001, 2.54026771e-001,
          1.82317257e-001, 1.93764463e-001, 2.47848913e-001,
          8.67780298e-002, 6.90074712e-002, 2.11889725e-002 ]
      - [ 1.55353293e-001, 2.18113929e-001, 2.21835196e-001,
          1.33289441e-001, 9.02796686e-002, 3.80641706e-002,
          1.04582474e-001, 5.66474311e-002, 1.44882992e-001,
          2.71849304e-001, 1.86861575e-001, 1.69351995e-001,
          5.78166470e-002, 8.19912925e-002, 7.19471648e-002,
          1.86185241e-001, 1.14604779e-001, 1.23808019e-001,
          2.71849304e-001, 2.13564694e-001, 1.29435852e-001,
          9.68534946e-002, 6.41931146e-002, 1.26190279e-002,
          7.84096792e-002, 1.64340153e-001, 2.71849304e-001,
          2.71849304e-001, 2.31909379e-001, 1.32024869e-001,
          3.02797277e-002, 7.26285949e-002, 3.61398123e-002,
          2.01474980e-001, 2.71849304e-001, 2.71849304e-001,
          1.76963329e-001, 5.77313043e-002, 3.03658359e-002,
          2.01729648e-002, 8.01741034e-002, 1.05529420e-001,
          2.32821405e-001, 1.65208533e-001, 1.07539393e-001,
          1.43189937e-001, 8.29028860e-002, 1.24515638e-001,
          5.22325076e-002, 8.31739753e-002, 1.76915169e-001,
          2.58898824e-001, 2.58898824e-001, 1.90885052e-001,
          2.58898824e-001, 8.57812613e-002, 2.28971969e-002,
          7.32608093e-003, 8.66708979e-002, 5.27852587e-002,
          2.50491798e-001, 2.58898824e-001, 2.58898824e-001,
          2.58898824e-001, 2.58898824e-001, 1.91733003e-001,
          9.58220735e-002, 7.64880553e-002, 8.89218897e-002,
          1.74803093e-001, 1.51910737e-001, 2.58898824e-001,
          4.81556021e-002, 3.54151726e-002, 1.47617266e-001,
          1.50918841e-001, 8.16346109e-002, 2.71978825e-001,
          2.71978825e-001, 2.48933762e-001, 1.44030198e-001,
          6.22486928e-003, 1.26954559e-002, 6.93040043e-002,
          1.67631045e-001, 1.95038795e-001, 2.71978825e-001,
          2.03782484e-001, 7.56582841e-002, 1.95480548e-002,
          1.83732226e-001, 2.71978825e-001, 2.71978825e-001,
          2.71978825e-001, 1.01382039e-001, 1.61931142e-001,
          8.17790329e-002, 3.71424183e-002, 5.08682132e-002,
          3.70685756e-002, 9.39283594e-002, 2.71978825e-001,
          2.71978825e-001, 1.88188210e-001, 1.40613958e-001,
          3.77014056e-002, 3.39278840e-002, 1.84168182e-002 ]
      - [ 1.46968707e-001, 2.46720821e-001, 2.26035729e-001,
          1.07437201e-001, 7.88375884e-002, 5.92387654e-002,
          8.10729638e-002, 5.32090627e-002, 1.67060226e-001,
          2.69499928e-001, 1.83986649e-001, 1.52332321e-001,
          2.52281465e-002, 8.34034532e-002, 1.22990735e-001,
          1.56827390e-001, 1.52398124e-001, 1.26902863e-001,
          2.69499928e-001, 2.44502693e-001, 1.30271882e-001,
          8.25359970e-002, 5.51828593e-002, 6.91735325e-003,
          7.85450041e-002, 1.36583969e-001, 2.69499928e-001,
          2.69499928e-001, 2.57228643e-001, 1.16260506e-001,
          1.81545280e-002, 8.33642259e-002, 8.39296281e-002,
          1.42104045e-001, 2.69499928e-001, 2.69499928e-001,
          1.77545324e-001, 7.21840784e-002, 2.26939116e-002,
          1.34585183e-002, 8.80385712e-002, 1.32021114e-001,
          2.24812701e-001, 1.82774335e-001, 7.95208812e-002,
          1.66060597e-001, 1.22710772e-001, 1.28971964e-001,
          3.74549814e-002, 8.20765123e-002, 2.17527941e-001,
          2.64126271e-001, 2.66485542e-001, 1.15249246e-001,
          2.66485542e-001, 9.32243168e-002, 1.86379459e-002,
          2.99737882e-003, 8.74895304e-002, 8.29770342e-002,
          1.88178867e-001, 2.66485542e-001, 2.66485542e-001,
          2.66485542e-001, 2.66485542e-001, 2.28281856e-001,
          4.99890037e-002, 7.57435784e-002, 1.11962162e-001,
          1.29692614e-001, 1.57642484e-001, 2.16899261e-001,
          5.60199283e-002, 4.64738794e-002, 1.60000846e-001,
          1.16176173e-001, 9.21944752e-002, 2.71725595e-001,
          2.71725595e-001, 2.71725595e-001, 9.07805264e-002,
          7.77681777e-003, 1.27134873e-002, 8.28319639e-002,
          1.48782805e-001, 2.01091483e-001, 1.58864960e-001,
          2.71725595e-001, 7.50765502e-002, 1.14840139e-002,
          2.10652545e-001, 2.71725595e-001, 2.71725595e-001,
          2.14570969e-001, 1.33365005e-001, 1.53791189e-001,
          7.82049820e-002, 4.57324348e-002, 1.53212119e-002,
          2.82202587e-002, 1.82486966e-001, 2.71725595e-001,
          2.68409044e-001, 2.47900411e-001, 7.15181381e-002,
          6.46666065e-002, 2.86125112e-002, 2.51927357e-002 ]
      - [ 7.74158910e-002, 1.76774353e-001, 8.00790638e-002,
          7.10622892e-002, 1.44440413e-001, 3.99333909e-002,
          1.88232467e-001, 2.21189141e-001, 7.67493472e-002,
          3.07189196e-001, 3.07189196e-001, 2.02374622e-001,
          9.44762826e-002, 1.24097146e-001, 2.83608641e-002,
          5.50827570e-002, 1.42081708e-001, 1.88736975e-001,
          1.20900132e-001, 1.24715520e-002, 5.29770926e-003,
          1.38167189e-002, 3.81651968e-002, 2.53301915e-002,
          2.09143475e-001, 3.07189196e-001, 3.07189196e-001,
          3.07189196e-001, 2.00779811e-001, 9.03678685e-002,
          2.30251905e-002, 2.21041292e-002, 5.63936774e-003,
          4.45045419e-002, 1.79055661e-001, 3.07189196e-001,
          2.85493910e-001, 2.54489332e-001, 1.93931967e-001,
          2.68271100e-002, 3.87901142e-002, 5.19662574e-002,
          4.14209217e-002, 5.61679080e-002, 1.82666615e-001,
          1.68334484e-001, 6.60497323e-002, 5.35866246e-002,
          1.78934243e-002, 5.21854013e-002, 1.34739444e-001,
          2.38038853e-001, 2.53778100e-001, 2.88950413e-001,
          2.88950413e-001, 1.81031048e-001, 9.60336402e-002,
          6.49308646e-003, 4.38636169e-003, 2.04062928e-002,
          2.24632137e-002, 1.57339469e-001, 2.88950413e-001,
          2.85190642e-001, 3.46506424e-002, 2.37310175e-002,
          2.97975354e-003, 9.85474512e-003, 6.13208301e-002,
          1.41689956e-001, 2.88950413e-001, 2.88950413e-001,
          1.33935094e-001, 8.08838308e-002, 3.47621851e-002,
          2.47595012e-002, 6.23681545e-002, 8.26920122e-002,
          1.31194755e-001, 3.00951093e-001, 2.13600442e-001,
          1.64857373e-001, 2.44867682e-001, 1.79625109e-001,
          3.81462462e-002, 9.37151089e-002, 1.00541435e-001,
          9.52553824e-002, 3.00951093e-001, 1.05079204e-001,
          3.00951093e-001, 1.20277405e-001, 2.01768409e-002,
          4.55375155e-003, 8.40089936e-003, 2.16688570e-002,
          7.52364472e-002, 3.00951093e-001, 3.00951093e-001,
          3.00951093e-001, 3.00951093e-001, 1.42411977e-001,
          2.19656993e-002, 2.01873556e-002, 2.04625819e-002,
          1.37122450e-002, 3.19538452e-002, 2.43650883e-001 ]
      - [ 1.86604504e-002, 8.80727097e-002, 1.74122795e-001,
          1.23259917e-001, 8.65149498e-002, 1.22855306e-001,
          5.36064506e-002, 5.19280881e-002, 1.84236262e-002,
          2.94964582e-001, 3.12396646e-001, 2.09195644e-001,
          6.95238933e-002, 1.19893461e-001, 2.58421451e-001,
          9.22060832e-002, 1.60231531e-001, 2.52310425e-001,
          4.00046185e-002, 7.09083164e-003, 7.21009299e-002,
          6.12845570e-002, 6.81961477e-002, 1.69911221e-001,
          1.14861652e-001, 2.12880626e-001, 4.53639738e-002,
          3.12396646e-001, 8.96498933e-002, 1.32855445e-001,
          4.74183261e-002, 1.24774829e-001, 2.23675832e-001,
          1.07626736e-001, 3.12396646e-001, 3.12396646e-001,
          2.78658956e-001, 2.69247741e-001, 9.92209315e-002,
          1.83703396e-002, 5.56866117e-002, 6.75974414e-002,
          4.82754968e-002, 6.35171980e-002, 1.52720332e-001,
          3.22060406e-001, 1.55156776e-001, 7.54068792e-002,
          2.64025368e-002, 5.04436046e-002, 3.86508629e-002,
          1.23205505e-001, 1.90826684e-001, 1.40507907e-001,
          3.22060406e-001, 1.34507775e-001, 6.43427223e-002,
          4.54305252e-003, 5.31077161e-002, 3.96486931e-002,
          8.85346998e-003, 1.23081282e-001, 3.22060406e-001,
          3.22060406e-001, 1.23383395e-001, 3.08076255e-002, 0.,
          4.25740965e-002, 1.71937943e-002, 1.03791691e-001,
          3.22060406e-001, 3.22060406e-001, 2.05990240e-001,
          3.24348956e-002, 1.71239953e-002, 3.05715669e-002,
          9.78751928e-002, 6.86687306e-002, 1.29831940e-001,
          2.91905522e-001, 1.52985513e-001, 2.06295401e-001,
          1.08983487e-001, 4.42964435e-002, 4.65606712e-002,
          1.80841804e-001, 6.79687560e-002, 4.48616967e-002,
          2.91905522e-001, 2.43426427e-001, 2.91905522e-001,
          5.98142296e-002, 2.86924001e-003, 7.07470207e-003,
          5.02400808e-002, 4.13769446e-002, 1.16961449e-001,
          2.91905522e-001, 2.91905522e-001, 2.91905522e-001,
          2.91905522e-001, 9.80370045e-002, 3.94074023e-002,
          1.17688015e-001, 3.82560454e-002, 2.50871107e-002,
          1.01623714e-001, 2.91905522e-001 ]
      - [ 3.06499779e-001, 1.67626292e-001, 1.62778378e-001,
          1.16839111e-001, 1.97464935e-002, 3.05285435e-002,
          9.81499106e-002, 1.74548462e-001, 2.18673468e-001,
          3.06499779e-001, 3.06499779e-001, 1.08545780e-001,
          2.71932036e-002, 2.25904174e-002, 3.99325369e-003,
          4.95381281e-002, 1.47618771e-001, 2.23847613e-001,
          3.06499779e-001, 7.85430446e-002, 4.76595666e-003,
          2.83333510e-002, 1.23418728e-002, 2.24364307e-002,
          6.71950728e-002, 2.03330845e-001, 2.71932155e-001,
          3.06499779e-001, 1.87907383e-001, 7.41789397e-003,
          7.58550502e-003, 4.33145789e-003, 8.48687836e-004,
          2.51549613e-002, 1.57691047e-001, 3.06499779e-001,
          2.59786069e-001, 1.33971184e-001, 9.08231921e-003,
          4.35073278e-004, 1.08393980e-002, 1.84556600e-002,
          1.52186051e-001, 2.84564465e-001, 2.54637718e-001,
          2.84564465e-001, 1.43889323e-001, 7.57896677e-002,
          6.82586711e-003, 2.36230511e-002, 3.73961180e-002,
          2.30431810e-001, 2.84564465e-001, 2.84564465e-001,
          1.98922366e-001, 4.43350859e-002, 2.62667774e-003, 0.,
          9.26841924e-004, 0., 5.12462184e-002, 2.72706538e-001,
          2.84564465e-001, 2.84564465e-001, 1.24070853e-001,
          2.12549902e-002, 4.21984680e-003, 2.72441190e-003,
          2.16676481e-003, 4.34234515e-002, 1.96187198e-001,
          2.84564465e-001, 2.83631057e-001, 2.77261347e-001,
          2.74125993e-001, 8.67726132e-002, 5.16696721e-002,
          4.79768701e-002, 1.83274001e-001, 1.17628284e-001,
          1.60151318e-001, 5.70691563e-002, 1.37346655e-001,
          2.83631057e-001, 2.83631057e-001, 1.98135510e-001,
          1.42028213e-001, 1.43574476e-001, 3.32740992e-002,
          1.13571724e-002, 2.83631057e-001, 2.83631057e-001,
          1.43433169e-001, 6.21953793e-002, 1.85562186e-002,
          1.23119950e-002, 1.17926588e-002, 2.56171636e-002,
          1.84671745e-001, 1.22788809e-001, 2.20576003e-001,
          2.83631057e-001, 1.98170334e-001, 8.89624804e-002,
          3.43996622e-002, 1.36419581e-002, 3.63491811e-002,
          6.93605468e-003 ]
      - [ 1.44035175e-001, 2.00244591e-001, 1.93774268e-001,
          3.96194644e-002, 5.68084419e-002, 9.16179270e-002,
          1.71994939e-001, 2.73500323e-001, 1.74059168e-001,
          2.73500323e-001, 2.73500323e-001, 2.73500323e-001,
          2.00897157e-002, 2.82854643e-002, 2.55288612e-002,
          7.50850439e-002, 1.56842753e-001, 2.32877120e-001,
          1.36456132e-001, 1.43611372e-001, 1.83877368e-002,
          1.04798945e-002, 1.21305343e-002, 3.16565037e-002,
          1.24721326e-001, 2.73500323e-001, 2.38070875e-001,
          2.73500323e-001, 2.73500323e-001, 6.82152882e-002,
          2.42571421e-002, 1.25115439e-002, 9.96924005e-003,
          7.22303465e-002, 1.88114733e-001, 2.38088652e-001,
          1.33083582e-001, 2.06988990e-001, 1.00415789e-001,
          1.37549564e-002, 1.15137976e-002, 7.97380507e-002,
          1.85592577e-001, 2.18861789e-001, 1.94695041e-001,
          2.34976411e-001, 2.19820276e-001, 9.31777060e-002,
          4.55905721e-002, 3.14577818e-002, 8.66356716e-002,
          2.02599570e-001, 2.65132666e-001, 2.47674331e-001,
          1.45699203e-001, 2.28950575e-001, 3.38077247e-002,
          1.33702559e-002, 2.48790663e-002, 3.15064341e-002,
          1.92602590e-001, 2.65132666e-001, 1.95032597e-001,
          2.65132666e-001, 2.18134299e-001, 4.66376543e-002,
          1.59813650e-002, 4.02914882e-002, 2.71646213e-002,
          1.37970403e-001, 2.65132666e-001, 2.65132666e-001,
          1.66817456e-001, 2.89213866e-001, 1.86008036e-001,
          1.14692286e-001, 4.39829007e-002, 3.97963934e-002,
          1.30418882e-001, 1.44666478e-001, 1.45809993e-001,
          3.54095176e-002, 2.43877903e-001, 2.89213866e-001,
          2.11488500e-001, 1.21688828e-001, 1.30659983e-001,
          1.64217606e-001, 6.56082258e-002, 3.03353444e-002,
          2.89213866e-001, 2.89213866e-001, 1.53326467e-001,
          2.88859960e-002, 5.29238097e-002, 1.57360360e-003,
          7.32647348e-003, 5.78122251e-002, 2.36548305e-001,
          2.43562192e-001, 2.89213866e-001, 2.89213866e-001,
          8.91358480e-002, 1.16980739e-001, 5.83130447e-003,
          2.70516146e-002, 4.87201996e-002, 1.29711315e-001 ]
      - [ 2.84200221e-001, 2.64594138e-001, 1.28879145e-001,
          3.84633429e-002, 5.43853343e-002, 3.98921631e-002,
          4.29802760e-002, 9.02271457e-003, 1.64116189e-001,
          1.51437134e-001, 1.13126963e-001, 9.37955379e-002,
          5.49709685e-002, 8.74600559e-002, 5.81631251e-002,
          3.83446291e-002, 2.13736426e-002, 1.45835832e-001,
          2.84200221e-001, 2.84200221e-001, 2.84200221e-001,
          7.50428438e-002, 1.27161384e-001, 6.65618852e-002,
          1.50924653e-001, 1.21484935e-001, 2.41889834e-001,
          2.84200221e-001, 2.84200221e-001, 2.84200221e-001,
          3.15647498e-002, 1.56257302e-001, 8.21539983e-002,
          1.10702008e-001, 8.51570293e-002, 2.33526736e-001,
          8.33701938e-002, 6.08951785e-002, 4.00997587e-002,
          2.87195593e-002, 6.34050965e-002, 6.90384805e-002,
          1.96369085e-002, 5.37737124e-002, 9.00115669e-002,
          1.75332218e-001, 9.70946774e-002, 3.90351340e-002,
          3.74037474e-002, 1.54663339e-001, 9.56819504e-002,
          4.83055636e-002, 2.70196736e-001, 2.70196736e-001,
          2.70196736e-001, 1.45506218e-001, 1.41532123e-001,
          3.45359854e-002, 9.65339318e-002, 1.54559582e-001,
          2.35500723e-001, 2.15059698e-001, 2.26946101e-001,
          2.70196736e-001, 2.70196736e-001, 1.33104220e-001,
          8.15076455e-002, 1.34294510e-001, 1.74803391e-001,
          2.69679129e-001, 2.70196736e-001, 2.70196736e-001,
          1.05787180e-001, 2.50474401e-002, 1.64878964e-002,
          1.84932053e-002, 5.47474697e-002, 2.79812459e-002,
          1.51672050e-001, 2.68842220e-001, 2.68842220e-001,
          1.64836887e-002, 6.97063468e-003, 3.41373347e-002,
          2.54104193e-002, 6.39843866e-002, 4.80730310e-002,
          2.33116731e-001, 2.68842220e-001, 1.31289020e-001,
          1.97947145e-001, 1.64902821e-001, 1.89823821e-001,
          1.33039623e-001, 1.13754340e-001, 6.52857050e-002,
          2.68842220e-001, 2.68842220e-001, 1.98989734e-001,
          3.29638608e-002, 4.08797637e-002, 2.31914058e-001,
          2.68842220e-001, 2.68842220e-001, 1.09730333e-001,
          2.68842220e-001, 2.25093350e-001, 6.01117909e-002 ]
      - [ 1.52955323e-001, 2.67145991e-001, 1.70548871e-001,
          1.07554272e-001, 7.89428800e-002, 6.98214769e-002,
          3.16661596e-002, 1.78462118e-001, 1.23384528e-001,
          2.67145991e-001, 1.33228451e-001, 1.23464651e-001,
          1.22172467e-001, 7.05155730e-002, 7.18065947e-002,
          3.30408514e-002, 1.19727857e-001, 2.67145991e-001,
          1.57972708e-001, 2.67145991e-001, 2.35125467e-001,
          1.32361799e-001, 1.84309870e-001, 2.84789596e-002,
          8.28047767e-002, 2.14361131e-001, 1.52634919e-001,
          2.67145991e-001, 2.67145991e-001, 2.67145991e-001,
          9.34363529e-002, 1.13320187e-001, 5.36342487e-002,
          7.62272850e-002, 9.54132602e-002, 2.30319068e-001,
          2.48469636e-001, 6.01689965e-002, 5.49829528e-002,
          5.85550852e-002, 3.16419862e-002, 4.65302318e-002,
          4.83251400e-002, 2.70204693e-002, 2.48469636e-001,
          2.48469636e-001, 2.40706399e-001, 3.85009833e-002,
          1.65122509e-001, 4.89567816e-002, 1.33632421e-001,
          1.48984939e-001, 2.05533132e-001, 1.87351555e-001,
          2.48469636e-001, 1.11739270e-001, 1.27623126e-001,
          4.49664295e-002, 7.84545988e-002, 9.19011459e-002,
          2.48469636e-001, 1.01504289e-001, 2.31377006e-001,
          2.46607780e-001, 2.35425279e-001, 1.24717928e-001,
          9.75769237e-002, 8.10498446e-002, 1.53989941e-001,
          2.48469636e-001, 2.48469636e-001, 2.48469636e-001,
          1.19005941e-001, 1.85557142e-001, 2.66826823e-002,
          7.84072652e-002, 7.60335475e-002, 6.64587989e-002,
          2.35008940e-001, 2.47968316e-001, 1.35953903e-001,
          2.74292249e-002, 6.94895238e-002, 3.56736444e-002,
          2.89836619e-002, 1.34844512e-001, 1.15204148e-001,
          2.47968316e-001, 2.47968316e-001, 5.37894927e-002,
          1.38091832e-001, 2.37669036e-001, 2.19837144e-001,
          4.94956598e-002, 1.75974712e-001, 1.38405293e-001,
          2.46604934e-001, 2.47968316e-001, 1.41357362e-001,
          2.78888009e-002, 1.24111049e-001, 2.31698439e-001,
          1.87240228e-001, 2.47968316e-001, 2.17645004e-001,
          2.47968316e-001, 1.90601826e-001, 3.61938328e-002 ]
      - [ 1.58619344e-001, 2.12104425e-001, 1.98381394e-001,
          1.28722265e-001, 8.11058804e-002, 3.72379497e-002,
          7.60053843e-002, 5.75696044e-002, 1.18430503e-001,
          2.03847036e-001, 2.82850027e-001, 2.21137524e-001,
          4.18298319e-002, 1.11237913e-001, 1.00782126e-001,
          1.10807039e-001, 4.59523164e-002, 2.44974867e-001,
          2.69426137e-001, 8.60868916e-002, 6.90600798e-002,
          8.05744305e-002, 8.32577348e-002, 3.05299629e-002,
          1.34053290e-001, 2.82850027e-001, 2.82850027e-001,
          2.82850027e-001, 2.82850027e-001, 1.54038846e-001,
          2.57172864e-002, 5.23739941e-002, 3.62005420e-002,
          6.87779933e-002, 1.43474862e-001, 2.82850027e-001,
          1.15150385e-001, 1.10804245e-001, 5.20283878e-002,
          1.43130776e-002, 9.47352275e-002, 9.04781446e-002,
          1.98013529e-001, 7.30028301e-002, 2.25280628e-001,
          1.73731744e-001, 1.02151766e-001, 9.01139304e-002,
          4.15720977e-002, 1.46490976e-001, 9.43928063e-002,
          2.71404952e-001, 1.97272971e-001, 1.65080532e-001,
          2.71404952e-001, 1.09265924e-001, 4.27546799e-002, 0.,
          3.22493762e-002, 8.53304714e-002, 1.76904947e-001,
          2.71404952e-001, 2.71404952e-001, 2.71404952e-001,
          2.59719849e-001, 9.62799713e-002, 1.43631715e-002,
          3.47162187e-002, 8.56802687e-002, 2.34304011e-001,
          2.71404952e-001, 2.71404952e-001, 1.06613502e-001,
          7.47018158e-002, 1.47600904e-001, 6.40059561e-002,
          6.58925474e-002, 1.11785710e-001, 2.79278189e-001,
          2.61837006e-001, 1.08236559e-001, 1.62597392e-002,
          1.23960013e-002, 1.12194717e-001, 1.62321433e-001,
          1.72163859e-001, 1.72622561e-001, 2.79278189e-001,
          2.19125912e-001, 5.15835546e-002, 2.79278189e-001,
          2.79278189e-001, 2.79278189e-001, 7.56220222e-002,
          3.41703184e-002, 7.15649426e-002, 1.20992154e-001,
          4.91484292e-002, 9.26919281e-002, 6.59752935e-002,
          2.79278189e-001, 2.79278189e-001, 2.79278189e-001,
          1.65947199e-001, 9.29723084e-002, 7.32807070e-002,
          5.71654411e-003, 1.53535996e-002 ]
      - [ 1.76596463e-001, 2.75194496e-001, 1.52619600e-001,
          6.12408072e-002, 1.34299219e-001, 3.97934690e-002,
          6.29480779e-002, 1.65797561e-001, 1.13632694e-001,
          2.75194496e-001, 2.75194496e-001, 1.30327106e-001,
          1.27066132e-002, 3.87436599e-002, 1.90500114e-002,
          9.81465578e-002, 1.73832074e-001, 2.23915175e-001,
          2.75194496e-001, 1.40158594e-001, 5.28049842e-002,
          1.45292077e-002, 8.66081566e-002, 3.02866697e-002,
          1.09899387e-001, 1.82141453e-001, 2.65432686e-001,
          2.75194496e-001, 2.67789185e-001, 8.07836726e-002,
          7.93848932e-003, 1.27152698e-002, 9.77032632e-003,
          1.04338914e-001, 2.74649203e-001, 2.75194496e-001,
          1.35418102e-001, 1.05445281e-001, 3.40744890e-002,
          6.71180105e-003, 1.99440829e-002, 7.24309636e-003,
          1.96268454e-001, 2.68654674e-001, 1.94953248e-001,
          1.98446840e-001, 2.10027292e-001, 1.37096792e-001,
          2.41797250e-002, 7.33976439e-002, 4.93478924e-002,
          1.60154566e-001, 2.83603311e-001, 1.49538964e-001,
          2.78067112e-001, 5.90691827e-002, 2.53032874e-002,
          1.31597081e-002, 1.58975814e-002, 1.17405714e-003,
          1.42003953e-001, 2.83603311e-001, 2.83603311e-001,
          2.83603311e-001, 2.83603311e-001, 1.31935492e-001,
          4.01643626e-002, 5.80559820e-002, 1.05277877e-002,
          6.58354610e-002, 2.17206985e-001, 2.83603311e-001,
          7.48742521e-002, 1.84044331e-001, 1.71370804e-001,
          1.19131483e-001, 1.63852692e-001, 9.06062052e-002,
          1.15934245e-001, 1.51172653e-001, 3.86928283e-002,
          2.46384982e-002, 5.45680635e-002, 8.70953649e-002,
          3.16434532e-001, 3.16434532e-001, 2.18538821e-001,
          1.14955597e-001, 2.69455407e-002, 2.51045395e-002,
          2.27281660e-001, 3.16434532e-001, 2.14707121e-001,
          1.21871464e-001, 1.20657049e-001, 2.59608347e-002,
          3.01295463e-002, 6.16315007e-002, 1.39255658e-001,
          2.72242445e-002, 1.76186621e-001, 1.35434568e-001,
          3.16434532e-001, 3.16434532e-001, 2.37605229e-001,
          4.05569896e-002, 5.52753359e-002, 5.97938299e-002 ]
      - [ 2.00605378e-001, 2.26502255e-001, 1.43557057e-001,
          7.67050660e-004, 1.66837364e-001, 6.75847158e-002,
          9.40246582e-002, 7.17734769e-002, 1.22113474e-001,
          2.57179469e-001, 1.95745349e-001, 9.73875076e-002,
          1.36595303e-002, 1.31554142e-001, 7.71283433e-002,
          1.84068888e-001, 1.77480206e-001, 2.05729187e-001,
          2.57179469e-001, 2.51154125e-001, 1.32334337e-001,
          6.02448778e-003, 1.23071112e-001, 4.85123955e-002,
          1.09155476e-001, 2.06794947e-001, 2.57179469e-001,
          2.57179469e-001, 2.57179469e-001, 1.57842129e-001,
          7.09029613e-003, 4.27052490e-002, 5.36352023e-002,
          1.49926499e-001, 2.07905397e-001, 2.57179469e-001,
          1.37967870e-001, 3.14196609e-002, 1.40924752e-002,
          4.34883982e-002, 4.61334921e-002, 1.51167944e-001,
          1.92002580e-001, 2.15514004e-001, 2.08679184e-001,
          9.16970596e-002, 5.60718775e-002, 6.39819279e-002,
          5.85674271e-002, 1.43498242e-001, 2.37032294e-001,
          2.05737710e-001, 2.54783005e-001, 1.55135766e-001,
          2.26361409e-001, 6.14697002e-002, 2.42868494e-002,
          9.81407706e-003, 2.08672322e-002, 9.66342166e-002,
          2.34634578e-001, 2.54783005e-001, 2.54783005e-001,
          2.54783005e-001, 2.54783005e-001, 1.09964676e-001,
          2.71279570e-002, 1.63859516e-001, 1.17737330e-001,
          1.81063130e-001, 2.54783005e-001, 2.54783005e-001,
          3.99928987e-002, 4.84770127e-002, 8.64243656e-002,
          5.13883755e-002, 1.83026209e-001, 1.74269870e-001,
          2.61956185e-001, 2.61956185e-001, 6.60870373e-002,
          2.98775807e-002, 1.60863437e-002, 3.32376808e-002,
          1.00490473e-001, 1.63219050e-001, 2.61956185e-001,
          2.61956185e-001, 1.30087197e-001, 3.33152823e-002,
          1.56783700e-001, 2.61956185e-001, 2.61956185e-001,
          1.52524233e-001, 2.11909205e-001, 1.24467336e-001,
          1.38253778e-001, 9.87928137e-002, 8.33298489e-002,
          3.07375751e-002, 1.31846324e-001, 2.61956185e-001,
          2.61956185e-001, 2.36750335e-001, 2.61956185e-001,
